{"learner":{"attributes":{"best_iteration":"569","best_ntree_limit":"570","scikit_learn":"{\"n_estimators\": 570, \"objective\": \"reg:squarederror\", \"max_depth\": 6, \"max_leaves\": null, \"max_bin\": null, \"grow_policy\": null, \"learning_rate\": 0.1235, \"verbosity\": null, \"booster\": null, \"tree_method\": null, \"gamma\": 24.47, \"min_child_weight\": null, \"max_delta_step\": null, \"subsample\": 0.74, \"sampling_method\": null, \"colsample_bytree\": null, \"colsample_bylevel\": null, \"colsample_bynode\": null, \"reg_alpha\": null, \"reg_lambda\": 0.8, \"scale_pos_weight\": null, \"base_score\": null, \"missing\": NaN, \"num_parallel_tree\": null, \"random_state\": 10, \"n_jobs\": null, \"monotone_constraints\": null, \"interaction_constraints\": null, \"importance_type\": null, \"gpu_id\": null, \"validate_parameters\": null, \"predictor\": null, \"enable_categorical\": false, \"max_cat_to_onehot\": null, \"eval_metric\": null, \"early_stopping_rounds\": null, \"callbacks\": null, \"_estimator_type\": \"regressor\"}"},"feature_names":[],"feature_types":[],"gradient_booster":{"model":{"gbtree_model_param":{"num_parallel_tree":"1","num_trees":"570","size_leaf_vector":"0"},"tree_info":[0,0,0,0,0,0,0,0,0,0,0,0,0,0,0,0,0,0,0,0,0,0,0,0,0,0,0,0,0,0,0,0,0,0,0,0,0,0,0,0,0,0,0,0,0,0,0,0,0,0,0,0,0,0,0,0,0,0,0,0,0,0,0,0,0,0,0,0,0,0,0,0,0,0,0,0,0,0,0,0,0,0,0,0,0,0,0,0,0,0,0,0,0,0,0,0,0,0,0,0,0,0,0,0,0,0,0,0,0,0,0,0,0,0,0,0,0,0,0,0,0,0,0,0,0,0,0,0,0,0,0,0,0,0,0,0,0,0,0,0,0,0,0,0,0,0,0,0,0,0,0,0,0,0,0,0,0,0,0,0,0,0,0,0,0,0,0,0,0,0,0,0,0,0,0,0,0,0,0,0,0,0,0,0,0,0,0,0,0,0,0,0,0,0,0,0,0,0,0,0,0,0,0,0,0,0,0,0,0,0,0,0,0,0,0,0,0,0,0,0,0,0,0,0,0,0,0,0,0,0,0,0,0,0,0,0,0,0,0,0,0,0,0,0,0,0,0,0,0,0,0,0,0,0,0,0,0,0,0,0,0,0,0,0,0,0,0,0,0,0,0,0,0,0,0,0,0,0,0,0,0,0,0,0,0,0,0,0,0,0,0,0,0,0,0,0,0,0,0,0,0,0,0,0,0,0,0,0,0,0,0,0,0,0,0,0,0,0,0,0,0,0,0,0,0,0,0,0,0,0,0,0,0,0,0,0,0,0,0,0,0,0,0,0,0,0,0,0,0,0,0,0,0,0,0,0,0,0,0,0,0,0,0,0,0,0,0,0,0,0,0,0,0,0,0,0,0,0,0,0,0,0,0,0,0,0,0,0,0,0,0,0,0,0,0,0,0,0,0,0,0,0,0,0,0,0,0,0,0,0,0,0,0,0,0,0,0,0,0,0,0,0,0,0,0,0,0,0,0,0,0,0,0,0,0,0,0,0,0,0,0,0,0,0,0,0,0,0,0,0,0,0,0,0,0,0,0,0,0,0,0,0,0,0,0,0,0,0,0,0,0,0,0,0,0,0,0,0,0,0,0,0,0,0,0,0,0,0,0,0,0,0,0,0,0,0,0,0,0,0,0,0,0,0,0,0,0,0,0,0,0,0,0,0,0,0,0,0,0,0,0,0,0,0,0,0,0,0,0,0,0,0,0,0,0,0,0,0,0,0,0,0,0,0,0,0,0,0,0,0,0,0,0,0,0,0,0,0,0,0,0,0,0,0,0,0,0,0,0,0],"trees":[{"base_weights":[-5.128701E-1,-7.815451E-1,9.336954E-1,-1.0573877E0,-4.489927E-1,6.451978E-1,2.8006363E0,-1.2119691E0,-9.082325E-1,-7.0772785E-1,-2.0992504E-1,1.5227602E-1,1.0933799E0,1.5823236E0,3.4119904E0,-1.3437537E0,-1.1623156E0,-1.1526808E0,-8.0159366E-1,-8.954508E-1,-5.5142975E-1,-5.2111614E-1,-2.4352137E-2,-6.873777E-2,5.9696895E-1,9.163255E-1,2.3860435E0,6.499323E-1,2.3855457E0,1.8577963E0,3.6302104E0,-1.2626749E0,-1.0808102E0,-9.2572886E-1,-7.1228313E-1,-1.0479655E0,-8.106614E-1,-8.377533E-1,-4.2779768E-1,-3.9532927E-1,-8.1374454E-1,-1.7548254E-1,5.092808E-1,-1.9228242E-1,1.4931267E-1,3.519827E-3,7.859891E-1,4.6291324E-1,1.1787504E0,2.5983298E0,8.893254E-1,-9.97615E-2,1.1807227E0,2.9110162E0,2.4015026E-1,2.4826603E0,4.7896764E-1,3.9390976E0,1.8619887E0,-1.0994798E0,-8.7990546E-1,-9.384465E-1,-6.4278316E-1,-7.454188E-1,-4.4651127E-1,-1.0563E0,-2.5900897E-1,-8.232611E-1,2.3043508E-2,-9.10688E-1,-6.270153E-1,-3.5237283E-1,-6.1448556E-1,-4.898827E-1,-1.0087367E-1,-8.3151376E-1,-2.4616884E-1,-3.6419967E-1,-5.8417983E-2,1.4587101E-1,9.045873E-1,-3.3588752E-1,9.656396E-2,5.803055E-1,2.6287919E-2,1.6350238E-1,-6.7169803E-1,8.74037E-1,-6.586716E-1,-3.02303E-1,5.5445E-1,2.4038434E-1,1.2822566E0,2.0619566E0,3.4236598E0,-3.1979886E-1,2.5469135E-2,1.6571977E0,1.9672889E-1,1.0173924E0,3.4236598E0,6.9336593E-1,-3.1979886E-1,2.4594066E0,4.227977E0,2.4890592E0,4.7896767E-1],"categories":[],"categories_nodes":[],"categories_segments":[],"categories_sizes":[],"default_left":[1,1,1,1,1,1,1,1,1,1,1,1,1,1,1,1,1,1,1,1,1,1,1,1,1,1,1,1,1,1,1,1,1,1,1,1,1,1,1,1,1,1,1,1,1,1,1,1,1,1,1,1,1,1,1,1,1,1,1,1,1,1,1,1,1,1,1,1,1,1,1,1,1,1,1,1,1,1,1,1,1,1,1,1,1,1,1,1,1,1,1,1,1,1,1,1,1,1,1,1,1,1,1,1,1,1,1],"id":0,"left_children":[1,3,5,7,9,11,13,-1,-1,-1,21,-1,25,-1,-1,-1,-1,-1,-1,-1,-1,-1,41,-1,-1,-1,-1,-1,-1,-1,-1,-1,-1,-1,-1,-1,-1,-1,-1,-1,-1,-1,-1,-1,-1,-1,-1,-1,-1,-1,-1,-1,-1,-1,-1,-1,-1,-1,-1,-1,-1,-1,-1,-1,-1,-1,-1,-1,-1,-1,-1,-1,-1,-1,-1,-1,-1,-1,-1,-1,-1,-1,-1,-1,-1,-1,-1,-1,-1,-1,-1,-1,-1,-1,-1,-1,-1,-1,-1,-1,-1,-1,-1,-1,-1,-1,-1],"loss_changes":[9.643728E2,1.915055E2,2.0796518E2,2.5468506E1,5.863121E1,7.449313E1,3.4262604E1,2.4070435E0,1.4505188E1,1.2978485E1,2.8563875E1,1.59350605E1,3.8715378E1,1.2839291E1,6.0681458E0,0E0,2.2766724E0,0E0,4.015747E0,1.9817047E0,8.591301E0,6.5449066E0,2.5136946E1,2.9539278E0,6.0327396E0,1.8220581E1,4.760231E0,3.99395E0,1.0488689E1,4.0458755E0,9.862366E0,0E0,9.9243164E-2,1.2484741E-1,1.8631516E0,2.4667358E-1,1.4416809E0,6.928711E-1,2.3162804E0,3.6021729E0,3.8892746E-1,5.346938E0,9.778126E0,2.9212382E0,2.0981028E0,1.5785779E0,5.650297E0,4.252757E0,9.349533E0,2.2322388E0,0E0,1.38782E-1,2.4585056E0,4.785324E0,8.8796765E-1,0E0,0E0,1.8547058E0,4.076315E0,0E0,0E0,0E0,0E0,0E0,0E0,0E0,0E0,0E0,0E0,0E0,0E0,0E0,0E0,0E0,0E0,0E0,0E0,0E0,0E0,0E0,0E0,0E0,0E0,0E0,0E0,0E0,0E0,0E0,0E0,0E0,0E0,0E0,0E0,0E0,0E0,0E0,0E0,0E0,0E0,0E0,0E0,0E0,0E0,0E0,0E0,0E0,0E0],"parents":[2147483647,0,0,1,1,2,2,3,3,4,4,5,5,6,6,7,7,8,8,9,9,10,10,11,11,12,12,13,13,14,14,16,16,18,18,19,19,20,20,21,21,22,22,23,23,24,24,25,25,26,26,27,27,28,28,29,29,30,30,32,32,33,33,34,34,35,35,36,36,37,37,38,38,39,39,40,40,41,41,42,42,43,43,44,44,45,45,46,46,47,47,48,48,49,49,51,51,52,52,53,53,54,54,57,57,58,58],"right_children":[2,4,6,8,10,12,14,-1,-1,-1,22,-1,26,-1,-1,-1,-1,-1,-1,-1,-1,-1,42,-1,-1,-1,-1,-1,-1,-1,-1,-1,-1,-1,-1,-1,-1,-1,-1,-1,-1,-1,-1,-1,-1,-1,-1,-1,-1,-1,-1,-1,-1,-1,-1,-1,-1,-1,-1,-1,-1,-1,-1,-1,-1,-1,-1,-1,-1,-1,-1,-1,-1,-1,-1,-1,-1,-1,-1,-1,-1,-1,-1,-1,-1,-1,-1,-1,-1,-1,-1,-1,-1,-1,-1,-1,-1,-1,-1,-1,-1,-1,-1,-1,-1,-1,-1],"split_conditions":[8.2454467E-1,-4.2486012E-1,2.8412468E0,-6.964698E-1,-5.072081E-1,-2.1355353E-1,-2.1355353E-1,-1.4967819E-1,-1.1216671E-1,-8.7404385E-2,-1.6683087E-1,1.8806089E-2,2.7670639E0,1.9541696E-1,4.2138082E-1,-1.6595358E-1,-1.4354597E-1,-1.4235607E-1,-9.899682E-2,-1.1058817E-1,-6.810157E-2,-6.435784E-2,1.005646E-1,-8.489114E-3,7.372566E-2,1.131662E-1,2.9467636E-1,8.026664E-2,2.9461488E-1,2.2943784E-1,4.4833097E-1,-1.5594035E-1,-1.3348006E-1,-1.1432751E-1,-8.796696E-2,-1.2942374E-1,-1.0011668E-1,-1.0346253E-1,-5.2833013E-2,-4.8823163E-2,-1.0049745E-1,-2.1672094E-2,6.289618E-2,-2.3746878E-2,1.8440114E-2,4.3469862E-4,9.706965E-2,5.7169784E-2,1.4557567E-1,3.2089373E-1,1.0983168E-1,-1.23205455E-2,1.4581925E-1,3.5951048E-1,2.9658556E-2,3.0660853E-1,5.9152503E-2,4.8647854E-1,2.299556E-1,-1.3578576E-1,-1.0866832E-1,-1.1589814E-1,-7.9383716E-2,-9.205922E-2,-5.514414E-2,-1.3045305E-1,-3.1987607E-2,-1.0167274E-1,2.8458731E-3,-1.12469964E-1,-7.743639E-2,-4.3518044E-2,-7.588896E-2,-6.0500514E-2,-1.2457898E-2,-1.0269195E-1,-3.040185E-2,-4.497866E-2,-7.2146207E-3,1.801507E-2,1.1171653E-1,-4.148211E-2,1.1925649E-2,7.166773E-2,3.246558E-3,2.0192543E-2,-8.2954705E-2,1.0794357E-1,-8.1345946E-2,-3.7334416E-2,6.847457E-2,2.9687466E-2,1.583587E-1,2.5465164E-1,4.2282197E-1,-3.949516E-2,3.1454382E-3,2.0466392E-1,2.4296017E-2,1.2564796E-1,4.2282197E-1,8.563069E-2,-3.949516E-2,3.0373672E-1,5.221551E-1,3.073988E-1,5.9152506E-2],"split_indices":[0,0,0,0,2,2,2,2,2,0,0,0,3,1,5,2147483647,2147483647,2147483647,2147483647,2147483647,2147483647,8,7,2147483647,2147483647,0,4,2147483647,2147483647,2147483647,2147483647,2147483647,2147483647,2147483647,2147483647,2147483647,2147483647,2147483647,2147483647,2147483647,2147483647,0,0,2147483647,2147483647,2147483647,2147483647,2147483647,2147483647,2147483647,2147483647,2147483647,2147483647,2147483647,2147483647,2147483647,2147483647,2147483647,2147483647,2147483647,2147483647,2147483647,2147483647,2147483647,2147483647,2147483647,2147483647,2147483647,2147483647,2147483647,2147483647,2147483647,2147483647,2147483647,2147483647,2147483647,2147483647,2147483647,2147483647,2147483647,2147483647,2147483647,2147483647,2147483647,2147483647,2147483647,2147483647,2147483647,2147483647,2147483647,2147483647,2147483647,2147483647,2147483647,2147483647,2147483647,2147483647,2147483647,2147483647,2147483647,2147483647,2147483647,2147483647,2147483647,2147483647,2147483647,2147483647],"split_type":[0,0,0,0,0,0,0,0,0,0,0,0,0,0,0,0,0,0,0,0,0,0,0,0,0,0,0,0,0,0,0,0,0,0,0,0,0,0,0,0,0,0,0,0,0,0,0,0,0,0,0,0,0,0,0,0,0,0,0,0,0,0,0,0,0,0,0,0,0,0,0,0,0,0,0,0,0,0,0,0,0,0,0,0,0,0,0,0,0,0,0,0,0,0,0,0,0,0,0,0,0,0,0,0,0,0,0],"sum_hessian":[2.479E3,2.091E3,3.88E2,1.142E3,9.49E2,3.37E2,5.1E1,5.58E2,5.84E2,4.55E2,4.94E2,1.61E2,1.76E2,1.8E1,3.3E1,1.47E2,4.11E2,1.75E2,4.09E2,2.05E2,2.5E2,1.84E2,3.1E2,1.08E2,5.3E1,1.56E2,2E1,9E0,9E0,5E0,2.8E1,1.79E2,2.32E2,1.68E2,2.41E2,7E1,1.35E2,7.4E1,1.76E2,1.3E2,5.4E1,2.42E2,6.8E1,6.9E1,3.9E1,1.3E1,4E1,5.8E1,9.8E1,1.7E1,3E0,4E0,5E0,7E0,2E0,3E0,2E0,2.3E1,5E0,2.09E2,2.3E1,1.59E2,9E0,2.13E2,2.8E1,6.9E1,1E0,1.33E2,2E0,5.3E1,2.1E1,1.27E2,4.9E1,9.8E1,3.2E1,5.2E1,2E0,9.2E1,1.5E2,3.6E1,3.2E1,4.6E1,2.3E1,8E0,3.1E1,1.1E1,2E0,3.8E1,2E0,6E0,5.2E1,1E1,8.8E1,1.2E1,5E0,1E0,3E0,3E0,2E0,2E0,5E0,1E0,1E0,5E0,1.8E1,3E0,2E0],"tree_param":{"num_deleted":"86","num_feature":"9","num_nodes":"107","size_leaf_vector":"0"}},{"base_weights":[-4.4297594E-1,-6.33922E-1,1.2378181E0,-8.3327293E-1,-1.2728557E-1,9.379648E-1,2.9611402E0,-1.0319923E0,-6.6859215E-1,-3.8295323E-1,1.4129825E-1,2.1343689E-1,1.4590927E0,1.2233568E0,3.4098756E0,-1.0359018E0,9.7915345E-1,-9.143849E-1,-5.3136694E-1,-6.3915944E-1,-2.6911423E-1,2.0223923E-2,6.9334936E-1,-2.1579717E-1,4.1765088E-1,1.0924028E0,1.8187616E0,1.8357086E0,3.1166013E-2,3.6605318E0,1.5465058E0,-1.1819105E0,-9.7891784E-1,-1.0629468E0,-8.4673446E-1,-6.0840964E-1,-2.8056175E-1,-8.458825E-1,-4.0876493E-1,-3.632672E-1,-7.6166783E-3,-1.7871137E-1,2.5337794E-1,3.640403E-1,1.3084501E0,-7.6654434E-1,-1.981183E-2,5.154347E-1,-3.121789E-1,6.069838E-1,1.4134427E0,1.8888035E0,3.520582E-1,-1.5818654E-1,2.2774677E0,5.8480096E-1,-3.3364674E-1,2.327338E0,3.2381478E-1,-1.1099803E0,-9.09622E-1,-2.9125616E-1,-1.0687516E0,-1.004543E0,-7.753773E-1,-5.437558E-1,-7.95697E-1,-1.8510824E-1,-5.6706375E-1,-1.4572458E-2,-8.6234134E-1,-4.3856958E-1,5.478294E-1,-2.4243726E-1,-5.1538986E-1,1.166289E-1,-4.2852968E-1,-5.320749E-1,-1.1400558E-1,-3.6223134E-1,3.2075852E-1,1.4216744E0,3.0272818E-1,7.968004E-1,1.817434E0,-6.0069412E-2,-8.633707E-1,1.52893E-1,-6.9293714E-1,-6.13274E-1,5.9027535E-1,-5.245652E-1,2.1820374E-2,-1.5778647E-1,7.881802E-1,1.4606576E0,-1.8003601E-1,1.410502E0,2.1246748E0,6.803734E-1,-3.1512466E-1,7.874339E-1,2.5038064E0,-9.0642236E-2,-4.283638E-1,5.8480096E-1,-8.108907E-2],"categories":[],"categories_nodes":[],"categories_segments":[],"categories_sizes":[],"default_left":[1,1,1,1,1,1,1,1,1,1,1,1,1,1,1,1,1,1,1,1,1,1,1,1,1,1,1,1,1,1,1,1,1,1,1,1,1,1,1,1,1,1,1,1,1,1,1,1,1,1,1,1,1,1,1,1,1,1,1,1,1,1,1,1,1,1,1,1,1,1,1,1,1,1,1,1,1,1,1,1,1,1,1,1,1,1,1,1,1,1,1,1,1,1,1,1,1,1,1,1,1,1,1,1,1,1,1],"id":1,"left_children":[1,3,5,7,9,11,13,-1,17,-1,-1,-1,-1,-1,-1,-1,-1,-1,-1,-1,-1,-1,-1,-1,-1,-1,-1,-1,-1,-1,-1,-1,-1,-1,-1,-1,-1,-1,-1,-1,-1,-1,-1,-1,-1,-1,-1,-1,-1,-1,-1,-1,-1,-1,-1,-1,-1,-1,-1,-1,-1,-1,-1,-1,-1,-1,-1,-1,-1,-1,-1,-1,-1,-1,-1,-1,-1,-1,-1,-1,-1,-1,-1,-1,-1,-1,-1,-1,-1,-1,-1,-1,-1,-1,-1,-1,-1,-1,-1,-1,-1,-1,-1,-1,-1,-1,-1],"loss_changes":[7.887946E2,2.2269757E2,1.2737741E2,5.1245605E1,4.287851E1,8.085326E1,2.535962E1,6.439331E0,2.8881287E1,9.189762E0,2.0361374E1,8.031231E0,1.4870026E1,6.378583E0,8.922668E0,5.0216675E0,0E0,2.3935547E0,1.0660965E1,4.3813896E0,5.4832954E0,1.1668972E1,1.071913E1,3.2044144E0,4.539117E0,9.256172E0,5.8167877E0,5.3969784E0,9.235913E-1,0E0,3.9797382E0,0E0,3.9040527E0,1.7115021E-1,1.8182068E0,4.82193E0,3.5477896E0,6.8501663E-1,1.5550327E0,2.9108448E0,3.1673186E0,3.0564942E0,4.896349E0,2.0420198E0,3.7374191E0,4.9207258E-1,2.7353017E0,4.9187355E0,5.6246454E-1,3.813264E0,3.0542908E0,4.2361755E0,1.0038977E0,0E0,4.1545868E-2,0E0,3.3384383E-2,0E0,3.3382487E-1,0E0,0E0,0E0,0E0,0E0,0E0,0E0,0E0,0E0,0E0,0E0,0E0,0E0,0E0,0E0,0E0,0E0,0E0,0E0,0E0,0E0,0E0,0E0,0E0,0E0,0E0,0E0,0E0,0E0,0E0,0E0,0E0,0E0,0E0,0E0,0E0,0E0,0E0,0E0,0E0,0E0,0E0,0E0,0E0,0E0,0E0,0E0,0E0],"parents":[2147483647,0,0,1,1,2,2,3,3,4,4,5,5,6,6,7,7,8,8,9,9,10,10,11,11,12,12,13,13,14,14,15,15,17,17,18,18,19,19,20,20,21,21,22,22,23,23,24,24,25,25,26,26,27,27,28,28,30,30,32,32,33,33,34,34,35,35,36,36,37,37,38,38,39,39,40,40,41,41,42,42,43,43,44,44,45,45,46,46,47,47,48,48,49,49,50,50,51,51,52,52,54,54,56,56,58,58],"right_children":[2,4,6,8,10,12,14,-1,18,-1,-1,-1,-1,-1,-1,-1,-1,-1,-1,-1,-1,-1,-1,-1,-1,-1,-1,-1,-1,-1,-1,-1,-1,-1,-1,-1,-1,-1,-1,-1,-1,-1,-1,-1,-1,-1,-1,-1,-1,-1,-1,-1,-1,-1,-1,-1,-1,-1,-1,-1,-1,-1,-1,-1,-1,-1,-1,-1,-1,-1,-1,-1,-1,-1,-1,-1,-1,-1,-1,-1,-1,-1,-1,-1,-1,-1,-1,-1,-1,-1,-1,-1,-1,-1,-1,-1,-1,-1,-1,-1,-1,-1,-1,-1,-1,-1,-1],"split_conditions":[1.2727007E0,-3.1026002E-2,3.3369346E0,-6.421479E-1,-5.072081E-1,-5.072081E-1,-8.257466E-1,-1.2745105E-1,-6.8326485E-1,-4.729472E-2,1.7450333E-2,2.6359456E-2,1.8019795E-1,1.5108457E-1,4.2111963E-1,-1.2793387E-1,1.2092545E-1,-1.12926535E-1,-6.562381E-2,-7.893619E-2,-3.3235606E-2,2.4976544E-3,8.562864E-2,-2.665095E-2,5.157988E-2,1.3491175E-1,2.2461705E-1,2.2671E-1,3.8490025E-3,4.5207566E-1,1.9099346E-1,-1.4596595E-1,-1.2089635E-1,-1.3127393E-1,-1.045717E-1,-7.513859E-2,-3.4649376E-2,-1.0446648E-1,-5.0482467E-2,-4.48635E-2,-9.406597E-4,-2.2070853E-2,3.1292174E-2,4.4958975E-2,1.6159359E-1,-9.4668224E-2,-2.446761E-3,6.365618E-2,-3.8554095E-2,7.49625E-2,1.7456017E-1,2.3326722E-1,4.3479186E-2,-1.9536037E-2,2.8126726E-1,7.222292E-2,-4.1205373E-2,2.8742623E-1,3.9991125E-2,-1.3708256E-1,-1.1233832E-1,-3.5970137E-2,-1.3199082E-1,-1.2406105E-1,-9.5759094E-2,-6.715384E-2,-9.8268576E-2,-2.2860868E-2,-7.003237E-2,-1.7996986E-3,-1.0649915E-1,-5.416334E-2,6.765693E-2,-2.9941E-2,-6.3650645E-2,1.4403669E-2,-5.2923415E-2,-6.571125E-2,-1.4079689E-2,-4.473557E-2,3.9613675E-2,1.7557678E-1,3.7386928E-2,9.840485E-2,2.2445309E-1,-7.418572E-3,-1.0662628E-1,1.8882286E-2,-8.5577734E-2,-7.573933E-2,7.289901E-2,-6.4783804E-2,2.694816E-3,-1.9486628E-2,9.734025E-2,1.803912E-1,-2.2234447E-2,1.7419699E-1,2.6239732E-1,8.4026106E-2,-3.8917895E-2,9.7248085E-2,3.0922008E-1,-1.1194316E-2,-5.290293E-2,7.222292E-2,-1.00145005E-2],"split_indices":[0,0,0,0,2,2,5,1,2,2,7,2,3,4,5,2147483647,2147483647,0,3,2147483647,2147483647,2147483647,2147483647,2147483647,2147483647,2147483647,2147483647,2147483647,2147483647,2147483647,2147483647,2147483647,2147483647,2147483647,2147483647,2147483647,2147483647,2147483647,2147483647,2147483647,2147483647,2147483647,2147483647,2147483647,2147483647,2147483647,2147483647,2147483647,2147483647,2147483647,2147483647,2147483647,2147483647,2147483647,2147483647,2147483647,2147483647,2147483647,2147483647,2147483647,2147483647,2147483647,2147483647,2147483647,2147483647,2147483647,2147483647,2147483647,2147483647,2147483647,2147483647,2147483647,2147483647,2147483647,2147483647,2147483647,2147483647,2147483647,2147483647,2147483647,2147483647,2147483647,2147483647,2147483647,2147483647,2147483647,2147483647,2147483647,2147483647,2147483647,2147483647,2147483647,2147483647,2147483647,2147483647,2147483647,2147483647,2147483647,2147483647,2147483647,2147483647,2147483647,2147483647,2147483647,2147483647,2147483647,2147483647],"split_type":[0,0,0,0,0,0,0,0,0,0,0,0,0,0,0,0,0,0,0,0,0,0,0,0,0,0,0,0,0,0,0,0,0,0,0,0,0,0,0,0,0,0,0,0,0,0,0,0,0,0,0,0,0,0,0,0,0,0,0,0,0,0,0,0,0,0,0,0,0,0,0,0,0,0,0,0,0,0,0,0,0,0,0,0,0,0,0,0,0,0,0,0,0,0,0,0,0,0,0,0,0,0,0,0,0,0,0],"sum_hessian":[2.455E3,2.205E3,2.5E2,1.582E3,6.23E2,2.14E2,3.6E1,7.15E2,8.67E2,3.19E2,3.04E2,9E1,1.24E2,8E0,2.8E1,7.14E2,1E0,3.09E2,5.58E2,9.7E1,2.22E2,2.5E2,5.4E1,2.9E1,6.1E1,6.3E1,6.1E1,5E0,3E0,2.4E1,4E0,1.96E2,5.18E2,9.3E1,2.16E2,4.26E2,1.32E2,5E1,4.7E1,1.63E2,5.9E1,1.35E2,1.15E2,3.6E1,1.8E1,7E0,2.2E1,5.4E1,7E0,2.6E1,3.7E1,5.8E1,3E0,1E0,4E0,1E0,2E0,2E0,2E0,1.75E2,3.43E2,1E0,9.2E1,6.4E1,1.52E2,3.19E2,1.07E2,1E2,3.2E1,1E0,4.9E1,4.6E1,1E0,9.2E1,7.1E1,4.6E1,1.3E1,2E1,1.15E2,1.1E1,1.04E2,1E0,3.5E1,1E1,8E0,1E0,6E0,1.8E1,4E0,3E0,5.1E1,4E0,3E0,5E0,2.1E1,3.6E1,1E0,2.1E1,3.7E1,2E0,1E0,1E0,3E0,1E0,1E0,1E0,1E0],"tree_param":{"num_deleted":"90","num_feature":"9","num_nodes":"107","size_leaf_vector":"0"}},{"base_weights":[-3.8122463E-1,-5.350108E-1,1.2920855E0,-7.552186E-1,-1.4332497E-1,9.3081653E-1,2.53444E0,-8.742153E-1,-5.8488107E-1,-4.2066705E-1,8.7925315E-2,3.1882763E-1,1.2821101E0,8.879325E-1,2.855618E0,-1.0245181E0,-8.1551456E-1,-7.564528E-1,-4.0595204E-1,-6.7823684E-1,-2.6587662E-1,2.168117E-1,-3.825443E-1,-8.5941836E-2,6.901191E-1,1.0449442E0,2.381004E0,3.873969E-1,2.6622832E0,2.2640972E0,3.5224147E0,-8.198796E-1,1.0499595E0,-9.513242E-1,-7.108651E-1,-4.5623854E-1,-7.206716E-2,-7.879746E-1,-3.2901716E-1,-3.5829186E-1,5.8104537E-2,1.2426774E-2,4.5802048E-1,-4.4760713E-1,-7.3665194E-2,-7.438945E-1,7.07065E-2,-2.4929328E-2,9.313094E-1,4.258041E-1,1.1397175E0,2.6283014E0,3.0525377E-1,5.188215E-1,-2.8127226E-1,1.2379376E0,2.6560447E0,-9.503954E-1,-7.3426515E-1,-7.739073E-1,-5.026383E-1,-5.430656E-1,-3.1669194E-1,-1.8052436E-1,1.6799253E-1,-8.070193E-1,-1.06875345E-1,1.0109916E-1,-4.4022915E-1,-2.1905844E-1,-4.8018056E-1,-5.346252E-1,1.1545329E-1,3.2867157E-1,-1.7562221E-1,1.1396037E0,3.8216603E-1,-4.7984782E-1,-4.5040928E-2,-1.0681945E-2,-6.2876874E-1,-5.0221455E-1,2.749245E-1,2.4141257E-1,-4.262029E-1,1.3162272E0,6.2609035E-1,1.7461835E0,1.9552223E-1,8.29884E-1,1.4587005E0,5.008651E-1,2.7449734E0,1.389702E0,1.1441055E-1],"categories":[],"categories_nodes":[],"categories_segments":[],"categories_sizes":[],"default_left":[1,1,1,1,1,1,1,1,1,1,1,1,1,1,1,1,1,1,1,1,1,1,1,1,1,1,1,1,1,1,1,1,1,1,1,1,1,1,1,1,1,1,1,1,1,1,1,1,1,1,1,1,1,1,1,1,1,1,1,1,1,1,1,1,1,1,1,1,1,1,1,1,1,1,1,1,1,1,1,1,1,1,1,1,1,1,1,1,1,1,1,1,1,1,1],"id":2,"left_children":[1,3,5,7,9,11,-1,-1,-1,-1,21,-1,25,-1,-1,-1,-1,-1,-1,-1,-1,-1,-1,-1,-1,-1,-1,-1,-1,-1,-1,-1,-1,-1,-1,-1,-1,-1,-1,-1,-1,-1,-1,-1,-1,-1,-1,-1,-1,-1,-1,-1,-1,-1,-1,-1,-1,-1,-1,-1,-1,-1,-1,-1,-1,-1,-1,-1,-1,-1,-1,-1,-1,-1,-1,-1,-1,-1,-1,-1,-1,-1,-1,-1,-1,-1,-1,-1,-1,-1,-1,-1,-1,-1,-1],"loss_changes":[6.412581E2,1.9663763E2,9.2276E1,2.9180542E1,5.273609E1,3.4887985E1,2.2720428E1,6.8998413E0,1.8259796E1,1.4758888E1,2.7280296E1,9.184925E0,2.506195E1,6.990419E0,8.923584E0,0E0,5.743744E0,2.1845245E0,4.956936E0,5.1501007E0,7.046753E0,1.7388288E1,1.9189663E0,3.1134808E0,5.5028887E0,4.705002E0,8.495392E0,8.022046E-1,0E0,6.539757E0,0E0,6.3673706E0,0E0,0E0,2.994194E0,2.9860268E0,1.0605023E0,1.30336E0,1.7002323E0,3.0181465E0,1.8441732E0,1.145243E1,8.016827E0,1.0184364E0,6.169544E-1,0E0,3.012076E0,1.0228211E0,2.1368637E0,3.6188266E0,6.424164E0,2.8218613E0,0E0,0E0,0E0,1.2027922E0,0E0,0E0,0E0,0E0,0E0,0E0,0E0,0E0,0E0,0E0,0E0,0E0,0E0,0E0,0E0,0E0,0E0,0E0,0E0,0E0,0E0,0E0,0E0,0E0,0E0,0E0,0E0,0E0,0E0,0E0,0E0,0E0,0E0,0E0,0E0,0E0,0E0,0E0,0E0],"parents":[2147483647,0,0,1,1,2,2,3,3,4,4,5,5,6,6,7,7,8,8,9,9,10,10,11,11,12,12,13,13,14,14,16,16,17,17,18,18,19,19,20,20,21,21,22,22,23,23,24,24,25,25,26,26,27,27,29,29,31,31,34,34,35,35,36,36,37,37,38,38,39,39,40,40,41,41,42,42,43,43,44,44,46,46,47,47,48,48,49,49,50,50,51,51,55,55],"right_children":[2,4,6,8,10,12,-1,-1,-1,-1,22,-1,26,-1,-1,-1,-1,-1,-1,-1,-1,-1,-1,-1,-1,-1,-1,-1,-1,-1,-1,-1,-1,-1,-1,-1,-1,-1,-1,-1,-1,-1,-1,-1,-1,-1,-1,-1,-1,-1,-1,-1,-1,-1,-1,-1,-1,-1,-1,-1,-1,-1,-1,-1,-1,-1,-1,-1,-1,-1,-1,-1,-1,-1,-1,-1,-1,-1,-1,-1,-1,-1,-1,-1,-1,-1,-1,-1,-1,-1,-1,-1,-1,-1,-1],"split_conditions":[1.476408E0,-1.9399184E-1,2.7670639E0,-5.7424545E-1,-6.8326485E-1,-6.8326485E-1,3.1300333E-1,-1.0796559E-1,-7.223281E-2,-5.195238E-2,7.5304925E-1,3.9375212E-2,2.8005054E0,1.0965966E-1,3.5266882E-1,-1.2652798E-1,-1.0071605E-1,-9.342192E-2,-5.0135076E-2,-8.376225E-2,-3.2835763E-2,2.6776245E-2,-4.724422E-2,-1.0613817E-2,8.52297E-2,1.290506E-1,2.94054E-1,4.7843516E-2,3.2879198E-1,2.79616E-1,4.350182E-1,-1.0125513E-1,1.2967E-1,-1.1748854E-1,-8.779184E-2,-5.634546E-2,-8.900293E-3,-9.731486E-2,-4.063362E-2,-4.4249043E-2,7.1759103E-3,1.5347066E-3,5.6565527E-2,-5.527948E-2,-9.097652E-3,-9.187097E-2,8.732253E-3,-3.078772E-3,1.1501671E-1,5.2586805E-2,1.407551E-1,3.245952E-1,3.769884E-2,6.407445E-2,-3.4737125E-2,1.5288529E-1,3.2802153E-1,-1.1737383E-1,-9.068175E-2,-9.557755E-2,-6.2075827E-2,-6.70686E-2,-3.9111454E-2,-2.2294758E-2,2.0747077E-2,-9.966688E-2,-1.3199105E-2,1.2485746E-2,-5.43683E-2,-2.7053716E-2,-5.9302296E-2,-6.602621E-2,1.4258481E-2,4.059094E-2,-2.1689342E-2,1.4074105E-1,4.7197502E-2,-5.9261203E-2,-5.5625546E-3,-1.3192202E-3,-7.765294E-2,-6.2023494E-2,3.3953175E-2,2.9814452E-2,-5.2636057E-2,1.6255406E-1,7.7322155E-2,2.1565366E-1,2.4146995E-2,1.0249067E-1,1.8014951E-1,6.185684E-2,3.3900422E-1,1.7162819E-1,1.4129703E-2],"split_indices":[0,0,3,0,2,2,5,2,2,2,8,5,0,2147483647,2147483647,2147483647,2147483647,2147483647,2147483647,2147483647,2147483647,0,0,2147483647,2147483647,3,5,2147483647,2147483647,2147483647,2147483647,2147483647,2147483647,2147483647,2147483647,2147483647,2147483647,2147483647,2147483647,2147483647,2147483647,2147483647,2147483647,2147483647,2147483647,2147483647,2147483647,2147483647,2147483647,2147483647,2147483647,2147483647,2147483647,2147483647,2147483647,2147483647,2147483647,2147483647,2147483647,2147483647,2147483647,2147483647,2147483647,2147483647,2147483647,2147483647,2147483647,2147483647,2147483647,2147483647,2147483647,2147483647,2147483647,2147483647,2147483647,2147483647,2147483647,2147483647,2147483647,2147483647,2147483647,2147483647,2147483647,2147483647,2147483647,2147483647,2147483647,2147483647,2147483647,2147483647,2147483647,2147483647,2147483647,2147483647,2147483647],"split_type":[0,0,0,0,0,0,0,0,0,0,0,0,0,0,0,0,0,0,0,0,0,0,0,0,0,0,0,0,0,0,0,0,0,0,0,0,0,0,0,0,0,0,0,0,0,0,0,0,0,0,0,0,0,0,0,0,0,0,0,0,0,0,0,0,0,0,0,0,0,0,0,0,0,0,0,0,0,0,0,0,0,0,0,0,0,0,0,0,0,0,0,0,0,0,0],"sum_hessian":[2.489E3,2.28E3,2.09E2,1.459E3,8.21E2,1.63E2,4.6E1,8.57E2,6.02E2,3.73E2,4.48E2,6E1,1.03E2,8E0,3.8E1,2.37E2,6.2E2,3.06E2,2.96E2,1.39E2,2.34E2,3.52E2,9.6E1,2.9E1,3.1E1,8.6E1,1.7E1,7E0,1E0,2.2E1,1.6E1,6.19E2,1E0,5.5E1,2.51E2,2.57E2,3.9E1,1.05E2,3.4E1,1.82E2,5.2E1,1.91E2,1.61E2,7.9E1,1.7E1,5E0,2.4E1,8E0,2.3E1,1.2E1,7.4E1,1.5E1,2E0,6E0,1E0,7E0,1.5E1,2.42E2,3.77E2,1.91E2,6E1,1.57E2,1E2,2.7E1,1.2E1,1.02E2,3E0,7E0,2.7E1,8.6E1,9.6E1,4E0,4.8E1,7.1E1,1.2E2,1.5E1,1.46E2,7.3E1,6E0,1.6E1,1E0,6E0,1.8E1,5E0,3E0,9E0,1.4E1,1E0,1.1E1,3.9E1,3.5E1,1E0,1.4E1,6E0,1E0],"tree_param":{"num_deleted":"78","num_feature":"9","num_nodes":"95","size_leaf_vector":"0"}},{"base_weights":[-3.2991067E-1,-5.752993E-1,4.6613196E-1,-6.629702E-1,-2.0472716E-1,3.4739792E-1,2.0701132E0,-7.7983207E-1,-5.2257085E-1,-5.5122054E-1,-1.0123566E-1,-1.0671269E-1,5.685715E-1,7.580808E-1,2.6146426E0,-8.9590263E-1,-6.994742E-1,-5.567688E-1,9.914825E-2,-7.4562776E-1,-4.1041848E-1,9.132098E-2,-2.4508607E-1,-3.4906414E-1,6.875223E-2,1.8683194E-1,8.8116324E-1,-7.8664415E-2,1.1455709E0,1.1969213E0,2.8126826E0,-1.0257752E0,-8.669767E-1,-8.8335526E-1,-6.2883115E-1,-7.5291246E-1,-4.8757932E-1,-1.4204582E-2,7.069589E-1,-7.8986126E-1,3.9179525E-1,-6.547056E-1,-3.358799E-1,7.07331E-3,4.9203542E-1,-1.4965065E-1,-5.205051E-1,4.57205E-2,-4.1055214E-1,3.528588E-1,-2.4498357E-1,1.2004982E-1,1.3597833E0,1.1030916E0,5.8208054E-1,-3.502322E-1,5.2960736E-1,1.5857981E0,2.3247217E-1,1.7275041E0,-4.5516297E-1,3.075718E0,1.2588809E0,-8.792477E-1,-5.7947695E-1,-6.8118584E-1,-5.486082E-1,-7.6022005E-1,2.6700398E-1,-5.416952E-1,-3.2670265E-1,-3.8801003E-2,4.1298065E-1,3.288262E-1,8.367495E-1,-3.6701947E-1,-4.7650654E-2,7.853981E-2,-2.3703863E-1,1.0195211E0,2.0595696E-2,-4.5063317E-1,-5.819553E-2,-6.18244E-1,-1.6086186E-1,4.0460515E-1,-2.1298873E-1,-5.562917E-1,-2.5479913E-1,1.2332731E-1,6.95789E-1,-1.386071E-1,-5.144522E-1,-5.315277E-1,1.6733181E-1,1.7082227E0,5.4168445E-1,-7.742176E-3,1.1871451E0,7.50273E-1,-5.8201764E-2,3.3177722E-1,2.1759613E0,4.18848E-1,-1.6076677E-1,1.8167795E0,-4.7840777E-1],"categories":[],"categories_nodes":[],"categories_segments":[],"categories_sizes":[],"default_left":[1,1,1,1,1,1,1,1,1,1,1,1,1,1,1,1,1,1,1,1,1,1,1,1,1,1,1,1,1,1,1,1,1,1,1,1,1,1,1,1,1,1,1,1,1,1,1,1,1,1,1,1,1,1,1,1,1,1,1,1,1,1,1,1,1,1,1,1,1,1,1,1,1,1,1,1,1,1,1,1,1,1,1,1,1,1,1,1,1,1,1,1,1,1,1,1,1,1,1,1,1,1,1,1,1,1,1],"id":3,"left_children":[1,3,5,7,-1,11,13,-1,-1,-1,-1,-1,25,-1,-1,-1,-1,-1,-1,-1,-1,-1,-1,-1,-1,-1,-1,-1,-1,-1,-1,-1,-1,-1,-1,-1,-1,-1,-1,-1,-1,-1,-1,-1,-1,-1,-1,-1,-1,-1,-1,-1,-1,-1,-1,-1,-1,-1,-1,-1,-1,-1,-1,-1,-1,-1,-1,-1,-1,-1,-1,-1,-1,-1,-1,-1,-1,-1,-1,-1,-1,-1,-1,-1,-1,-1,-1,-1,-1,-1,-1,-1,-1,-1,-1,-1,-1,-1,-1,-1,-1,-1,-1,-1,-1,-1,-1],"loss_changes":[4.8051605E2,6.0963135E1,1.09845924E2,2.4609863E1,1.2893329E1,5.4365013E1,2.684903E1,7.219696E0,1.4774124E1,2.0216618E0,7.740485E0,7.579998E0,4.3280037E1,4.222243E0,5.11203E0,5.500183E-1,5.9570465E0,8.619812E0,2.5434453E0,1.9481239E0,7.308769E-1,4.0415745E0,4.1379833E0,1.8307514E0,9.321307E0,1.2778548E1,1.2748047E1,9.4128615E-1,3.2424202E0,4.8365607E0,6.629608E0,0E0,5.7951355E-1,0E0,1.2080231E0,1.4279251E0,4.105194E0,3.4694907E-1,6.453681E-2,0E0,0E0,0E0,3.432269E-1,1.7559869E0,5.155698E0,3.2766821E0,1.3546047E0,1.0716861E0,1.3575258E0,4.244839E0,1.3704777E0,4.9018297E0,1.7682552E0,1.06328125E1,9.382483E0,0E0,0E0,3.714899E0,3.3237237E-1,0E0,0E0,0E0,5.347637E0,0E0,0E0,0E0,0E0,0E0,0E0,0E0,0E0,0E0,0E0,0E0,0E0,0E0,0E0,0E0,0E0,0E0,0E0,0E0,0E0,0E0,0E0,0E0,0E0,0E0,0E0,0E0,0E0,0E0,0E0,0E0,0E0,0E0,0E0,0E0,0E0,0E0,0E0,0E0,0E0,0E0,0E0,0E0,0E0],"parents":[2147483647,0,0,1,1,2,2,3,3,4,4,5,5,6,6,7,7,8,8,9,9,10,10,11,11,12,12,13,13,14,14,15,15,16,16,17,17,18,18,19,19,20,20,21,21,22,22,23,23,24,24,25,25,26,26,27,27,28,28,29,29,30,30,32,32,34,34,35,35,36,36,37,37,38,38,42,42,43,43,44,44,45,45,46,46,47,47,48,48,49,49,50,50,51,51,52,52,53,53,54,54,57,57,58,58,62,62],"right_children":[2,4,6,8,-1,12,14,-1,-1,-1,-1,-1,26,-1,-1,-1,-1,-1,-1,-1,-1,-1,-1,-1,-1,-1,-1,-1,-1,-1,-1,-1,-1,-1,-1,-1,-1,-1,-1,-1,-1,-1,-1,-1,-1,-1,-1,-1,-1,-1,-1,-1,-1,-1,-1,-1,-1,-1,-1,-1,-1,-1,-1,-1,-1,-1,-1,-1,-1,-1,-1,-1,-1,-1,-1,-1,-1,-1,-1,-1,-1,-1,-1,-1,-1,-1,-1,-1,-1,-1,-1,-1,-1,-1,-1,-1,-1,-1,-1,-1,-1,-1,-1,-1,-1,-1,-1],"split_conditions":[3.8996908E-1,8.3216935E-2,3.3369346E0,-5.4708445E-1,-2.5283804E-2,-7.0436823E-1,-2.1355353E-1,-9.630926E-2,-6.4537495E-2,-6.807573E-2,-1.2502603E-2,-1.3179017E-2,1.0282519E0,9.3622975E-2,3.2290834E-1,-1.10643975E-1,-8.6385064E-2,-6.876094E-2,1.22448085E-2,-9.2085026E-2,-5.068668E-2,1.127814E-2,-3.0268129E-2,-4.310942E-2,8.4909005E-3,2.3073744E-2,1.0882366E-1,-9.715055E-3,1.41478E-1,1.4781979E-1,3.473663E-1,-1.2668324E-1,-1.07071616E-1,-1.09094374E-1,-7.766064E-2,-9.2984684E-2,-6.0216043E-2,-1.7542659E-3,8.730942E-2,-9.754787E-2,4.838671E-2,-8.085614E-2,-4.1481167E-2,8.735538E-4,6.0766373E-2,-1.8481854E-2,-6.428237E-2,5.6464816E-3,-5.070319E-2,4.3578062E-2,-3.025547E-2,1.48261525E-2,1.6793323E-1,1.3623181E-1,7.188694E-2,-4.325368E-2,6.540651E-2,1.9584607E-1,2.8710311E-2,2.1334675E-1,-5.6212626E-2,3.7985116E-1,1.5547179E-1,-1.0858709E-1,-7.1565405E-2,-8.412645E-2,-6.775311E-2,-9.388717E-2,3.2974992E-2,-6.689935E-2,-4.0347777E-2,-4.791924E-3,5.100311E-2,4.0610034E-2,1.0333856E-1,-4.5326903E-2,-5.8848555E-3,9.699667E-3,-2.927427E-2,1.2591085E-1,2.5435684E-3,-5.5653196E-2,-7.187148E-3,-7.635313E-2,-1.986644E-2,4.9968734E-2,-2.6304107E-2,-6.870202E-2,-3.146769E-2,1.5230922E-2,8.592994E-2,-1.7117977E-2,-6.353485E-2,-6.564367E-2,2.0665478E-2,2.109655E-1,6.6898026E-2,-9.561587E-4,1.4661242E-1,9.265871E-2,-7.187918E-3,4.0974487E-2,2.687312E-1,5.1727727E-2,-1.9854695E-2,2.2437227E-1,-5.9083357E-2],"split_indices":[0,3,0,0,5,5,2,0,2,2147483647,2147483647,4,0,5,5,2147483647,2147483647,2147483647,2147483647,2147483647,2147483647,2147483647,2147483647,2147483647,2147483647,2,5,2147483647,2147483647,2147483647,2147483647,2147483647,2147483647,2147483647,2147483647,2147483647,2147483647,2147483647,2147483647,2147483647,2147483647,2147483647,2147483647,2147483647,2147483647,2147483647,2147483647,2147483647,2147483647,2147483647,2147483647,2147483647,2147483647,2147483647,2147483647,2147483647,2147483647,2147483647,2147483647,2147483647,2147483647,2147483647,2147483647,2147483647,2147483647,2147483647,2147483647,2147483647,2147483647,2147483647,2147483647,2147483647,2147483647,2147483647,2147483647,2147483647,2147483647,2147483647,2147483647,2147483647,2147483647,2147483647,2147483647,2147483647,2147483647,2147483647,2147483647,2147483647,2147483647,2147483647,2147483647,2147483647,2147483647,2147483647,2147483647,2147483647,2147483647,2147483647,2147483647,2147483647,2147483647,2147483647,2147483647,2147483647,2147483647,2147483647,2147483647],"split_type":[0,0,0,0,0,0,0,0,0,0,0,0,0,0,0,0,0,0,0,0,0,0,0,0,0,0,0,0,0,0,0,0,0,0,0,0,0,0,0,0,0,0,0,0,0,0,0,0,0,0,0,0,0,0,0,0,0,0,0,0,0,0,0,0,0,0,0,0,0,0,0,0,0,0,0,0,0,0,0,0,0,0,0,0,0,0,0,0,0,0,0,0,0,0,0,0,0,0,0,0,0,0,0,0,0,0,0],"sum_hessian":[2.458E3,1.879E3,5.79E2,1.519E3,3.6E2,5.4E2,3.9E1,8.27E2,6.92E2,8.2E1,2.78E2,1.77E2,3.63E2,1.2E1,2.7E1,3.35E2,4.92E2,6.56E2,3.6E1,3.3E1,4.9E1,1.19E2,1.59E2,7.4E1,1.03E2,1.64E2,1.99E2,4E0,8E0,4E0,2.3E1,5.6E1,2.79E2,1.34E2,3.58E2,1.69E2,4.87E2,3.1E1,5E0,3.2E1,1E0,1E1,3.9E1,9.9E1,2E1,1.19E2,4E1,1E1,6.4E1,5.4E1,4.9E1,1.56E2,8E0,1.13E2,8.6E1,3E0,1E0,5E0,3E0,3E0,1E0,1.9E1,4E0,2.66E2,1.3E1,2.13E2,1.45E2,1.68E2,1E0,3.63E2,1.24E2,3E1,1E0,2E0,3E0,3.5E1,4E0,7.7E1,2.2E1,9E0,1.1E1,2.7E1,9.2E1,3.1E1,9E0,4E0,6E0,3.2E1,3.2E1,3.3E1,2.1E1,3.6E1,1.3E1,1E1,1.46E2,5E0,3E0,8E0,1.05E2,6.8E1,1.8E1,2E0,3E0,2E0,1E0,3E0,1E0],"tree_param":{"num_deleted":"92","num_feature":"9","num_nodes":"107","size_leaf_vector":"0"}},{"base_weights":[-3.1026945E-1,-4.6505672E-1,5.16236E-1,-5.7118326E-1,-1.1983259E-1,3.70074E-1,1.7364942E0,-6.8518853E-1,-4.449213E-1,-4.7237784E-1,-5.6449785E-3,1.8558392E-1,9.676509E-1,1.0190043E0,2.4216905E0,-8.334053E-1,-6.3060933E-1,-4.717256E-1,1.09942004E-1,-6.02996E-1,-2.9502118E-1,-5.4016557E-2,4.6680266E-1,-1.9078876E-1,3.5073406E-1,1.426357E0,4.674856E-1,1.7559913E-1,1.7218496E0,1.6069347E0,2.6651356E0,-9.171299E-1,-7.952822E-1,-7.8971255E-1,-5.61141E-1,-7.5078326E-1,-4.2371392E-1,1.1232291E-2,7.455702E-1,-7.933705E-1,-5.230464E-1,-4.2986712E-1,-8.749285E-2,-2.7584386E-1,6.346311E-2,2.556932E-1,1.1713412E0,-3.8984156E-1,-3.8514268E-2,-4.6769235E-2,4.585659E-1,2.639859E-1,1.6477371E0,7.3881346E-1,-1.7221989E-1,1.1333306E0,-1.4509717E-1,2.4016373E0,-2.1489015E-1,2.0809238E0,-6.3455653E-1,5.9775233E-1,2.7802937E0,-5.7844454E-1,-4.1549978E-1,-7.705187E-1,-4.6319774E-1,-4.855596E-1,-2.5090376E-1,-1.46336295E-2,4.488348E-1,8.8770014E-1,1.1415353E-1,-5.482183E-1,4.058418E-1,-4.6858582E-1,-4.592188E-2,1.8837765E-1,-2.0179191E-1,-1.825141E-1,-5.465488E-1,-1.6020287E-2,4.1833553E-1,1.1239871E0,1.8974233E-1,1.2382867E0,3.978396E-1,3.2936198E-1,-5.1515025E-1,4.4341767E-1,-1.2989314E-1,6.551784E-2,-2.4757183E-1,-3.1441036E-1,5.10499E-1,5.9310675E-1,1.458085E-1,1.2416579E0,1.9257141E0,4.8387614E-1,1.3755548E0,4.6833467E-1,-3.2553256E-1,-4.786662E-1,3.9458126E-1,1.0839914E0,2.6616516E0,-5.635058E-1,4.2290768E-1],"categories":[],"categories_nodes":[],"categories_segments":[],"categories_sizes":[],"default_left":[1,1,1,1,1,1,1,1,1,1,1,1,1,1,1,1,1,1,1,1,1,1,1,1,1,1,1,1,1,1,1,1,1,1,1,1,1,1,1,1,1,1,1,1,1,1,1,1,1,1,1,1,1,1,1,1,1,1,1,1,1,1,1,1,1,1,1,1,1,1,1,1,1,1,1,1,1,1,1,1,1,1,1,1,1,1,1,1,1,1,1,1,1,1,1,1,1,1,1,1,1,1,1,1,1,1,1,1,1],"id":4,"left_children":[1,3,5,-1,-1,11,-1,-1,-1,-1,-1,-1,-1,-1,-1,-1,-1,-1,-1,-1,-1,-1,-1,-1,-1,-1,-1,-1,-1,-1,-1,-1,-1,-1,-1,-1,-1,-1,-1,-1,-1,-1,-1,-1,-1,-1,-1,-1,-1,-1,-1,-1,-1,-1,-1,-1,-1,-1,-1,-1,-1,-1,-1,-1,-1,-1,-1,-1,-1,-1,-1,-1,-1,-1,-1,-1,-1,-1,-1,-1,-1,-1,-1,-1,-1,-1,-1,-1,-1,-1,-1,-1,-1,-1,-1,-1,-1,-1,-1,-1,-1,-1,-1,-1,-1,-1,-1,-1,-1],"loss_changes":[3.1846255E2,7.672998E1,6.954388E1,2.2827698E1,1.9876427E1,3.864123E1,1.85756E1,6.381256E0,1.1386398E1,2.6561356E0,8.562637E0,1.682376E1,1.8463272E1,1.2680792E1,6.994858E-1,1.3082886E-1,6.473816E0,9.496582E0,2.2394884E0,7.1518326E-1,1.4474859E0,8.86926E0,4.936366E0,2.4977114E0,8.066925E0,1.06655655E1,7.183443E0,3.4486763E0,1.5948418E1,8.280979E0,2.193985E0,0E0,0E0,0E0,8.9842224E-1,3.1496048E-1,6.558754E0,3.651984E-1,3.497002E-1,0E0,1.3657932E0,4.5551968E-1,7.1780235E-1,2.8963928E0,6.289762E0,1.4213452E0,9.792328E-3,3.3621202E0,2.1511128E0,9.329158E-1,6.061548E0,2.3419422E-1,2.1282654E0,4.142601E0,1.3789922E0,0E0,1.7352742E0,7.0677567E-1,1.0355647E0,0E0,0E0,0E0,0E0,0E0,0E0,0E0,0E0,0E0,0E0,0E0,0E0,0E0,0E0,0E0,0E0,0E0,0E0,0E0,0E0,0E0,0E0,0E0,0E0,0E0,0E0,0E0,0E0,0E0,0E0,0E0,0E0,0E0,0E0,0E0,0E0,0E0,0E0,0E0,0E0,0E0,0E0,0E0,0E0,0E0,0E0,0E0,0E0,0E0,0E0],"parents":[2147483647,0,0,1,1,2,2,3,3,4,4,5,5,6,6,7,7,8,8,9,9,10,10,11,11,12,12,13,13,14,14,15,15,16,16,17,17,18,18,19,19,20,20,21,21,22,22,23,23,24,24,25,25,26,26,27,27,28,28,29,29,30,30,34,34,35,35,36,36,37,37,38,38,40,40,41,41,42,42,43,43,44,44,45,45,46,46,47,47,48,48,49,49,50,50,51,51,52,52,53,53,54,54,56,56,57,57,58,58],"right_children":[2,4,6,-1,-1,12,-1,-1,-1,-1,-1,-1,-1,-1,-1,-1,-1,-1,-1,-1,-1,-1,-1,-1,-1,-1,-1,-1,-1,-1,-1,-1,-1,-1,-1,-1,-1,-1,-1,-1,-1,-1,-1,-1,-1,-1,-1,-1,-1,-1,-1,-1,-1,-1,-1,-1,-1,-1,-1,-1,-1,-1,-1,-1,-1,-1,-1,-1,-1,-1,-1,-1,-1,-1,-1,-1,-1,-1,-1,-1,-1,-1,-1,-1,-1,-1,-1,-1,-1,-1,-1,-1,-1,-1,-1,-1,-1,-1,-1,-1,-1,-1,-1,-1,-1,-1,-1,-1,-1],"split_conditions":[8.2454467E-1,8.3216935E-2,3.3301444E0,-7.054113E-2,-1.4799325E-2,5.0876564E-1,2.1445702E-1,-8.462078E-2,-5.4947782E-2,-5.833866E-2,-6.9715484E-4,2.2919614E-2,1.19504884E-1,1.2584703E-1,2.9907876E-1,-1.02925554E-1,-7.788025E-2,-5.8258113E-2,1.35778375E-2,-7.4470006E-2,-3.6435116E-2,-6.6710445E-3,5.7650127E-2,-2.356241E-2,4.3315656E-2,1.7615509E-1,5.773447E-2,2.1686492E-2,2.1264842E-1,1.9845642E-1,3.2914424E-1,-1.1326554E-1,-9.8217346E-2,-9.75295E-2,-6.930091E-2,-9.272173E-2,-5.232867E-2,1.387188E-3,9.207792E-2,-9.798125E-2,-6.459623E-2,-5.3088587E-2,-1.08053675E-2,-3.4066714E-2,7.837693E-3,3.157811E-2,1.4466064E-1,-4.8145432E-2,-4.756512E-3,-5.776E-3,5.6632888E-2,3.2602258E-2,2.0349553E-1,9.124346E-2,-2.1269156E-2,1.3996632E-1,-1.79195E-2,2.966022E-1,-2.6538933E-2,2.5699407E-1,-7.836773E-2,7.382241E-2,3.4336627E-1,-7.1437895E-2,-5.131422E-2,-9.515906E-2,-5.720492E-2,-5.996661E-2,-3.0986613E-2,-1.8072532E-3,5.5431098E-2,1.09630965E-1,1.4097961E-2,-6.770496E-2,5.012146E-2,-5.7870347E-2,-5.671352E-3,2.326464E-2,-2.49213E-2,-2.2540491E-2,-6.749877E-2,-1.9785054E-3,5.1664438E-2,1.3881241E-1,2.3433177E-2,1.5292841E-1,4.913319E-2,4.0676203E-2,-6.362105E-2,5.476208E-2,-1.6041802E-2,8.091453E-3,-3.0575119E-2,-3.8829677E-2,6.304663E-2,7.3248684E-2,1.800735E-2,1.5334474E-1,2.3782569E-1,5.97587E-2,1.6988102E-1,5.783933E-2,-4.020327E-2,-5.9115272E-2,4.8730783E-2,1.3387294E-1,3.2871395E-1,-6.959297E-2,5.22291E-2],"split_indices":[0,3,0,0,5,2,3,2147483647,2147483647,2147483647,2147483647,5,5,2147483647,2147483647,2147483647,2147483647,2147483647,2147483647,2147483647,2147483647,2147483647,2147483647,2147483647,2147483647,2147483647,2147483647,2147483647,2147483647,2147483647,2147483647,2147483647,2147483647,2147483647,2147483647,2147483647,2147483647,2147483647,2147483647,2147483647,2147483647,2147483647,2147483647,2147483647,2147483647,2147483647,2147483647,2147483647,2147483647,2147483647,2147483647,2147483647,2147483647,2147483647,2147483647,2147483647,2147483647,2147483647,2147483647,2147483647,2147483647,2147483647,2147483647,2147483647,2147483647,2147483647,2147483647,2147483647,2147483647,2147483647,2147483647,2147483647,2147483647,2147483647,2147483647,2147483647,2147483647,2147483647,2147483647,2147483647,2147483647,2147483647,2147483647,2147483647,2147483647,2147483647,2147483647,2147483647,2147483647,2147483647,2147483647,2147483647,2147483647,2147483647,2147483647,2147483647,2147483647,2147483647,2147483647,2147483647,2147483647,2147483647,2147483647,2147483647,2147483647,2147483647,2147483647,2147483647,2147483647],"split_type":[0,0,0,0,0,0,0,0,0,0,0,0,0,0,0,0,0,0,0,0,0,0,0,0,0,0,0,0,0,0,0,0,0,0,0,0,0,0,0,0,0,0,0,0,0,0,0,0,0,0,0,0,0,0,0,0,0,0,0,0,0,0,0,0,0,0,0,0,0,0,0,0,0,0,0,0,0,0,0,0,0,0,0,0,0,0,0,0,0,0,0,0,0,0,0,0,0,0,0,0,0,0,0,0,0,0,0,0,0],"sum_hessian":[2.487E3,2.095E3,3.92E2,1.602E3,4.93E2,3.51E2,4.1E1,8.4E2,7.62E2,1.2E2,3.73E2,2.69E2,8.2E1,2.1E1,2E1,2.23E2,6.17E2,7.27E2,3.5E1,6.8E1,5.2E1,3.39E2,3.4E1,8.2E1,1.87E2,4.2E1,4E1,1E1,1.1E1,6E0,1.4E1,6.4E1,1.59E2,1.85E2,4.32E2,1.05E2,6.22E2,3.1E1,4E0,1.8E1,5E1,3.1E1,2.1E1,1.17E2,2.22E2,2.7E1,7E0,3.5E1,4.7E1,4E1,1.47E2,7E0,3.5E1,2.8E1,1.2E1,2E0,8E0,8E0,3E0,5E0,1E0,1E0,1.3E1,3.84E2,4.8E1,9.7E1,8E0,4.57E2,1.65E2,3E1,1E0,3E0,1E0,4.9E1,1E0,2.8E1,3E0,6E0,1.5E1,8.8E1,2.9E1,1.82E2,4E1,1E0,2.6E1,6E0,1E0,5E0,3E1,7E0,4E1,2.6E1,1.4E1,9E0,1.38E2,1E0,6E0,1.6E1,1.9E1,2.1E1,7E0,2E0,1E1,5E0,3E0,2E0,6E0,2E0,1E0],"tree_param":{"num_deleted":"100","num_feature":"9","num_nodes":"109","size_leaf_vector":"0"}},{"base_weights":[-2.692462E-1,-3.729361E-1,7.529668E-1,-5.202468E-1,-9.1684245E-2,1.02877386E-1,1.0308243E0,-6.612123E-1,-4.384158E-1,-3.4270942E-1,4.1662738E-2,-2.2783539E-1,3.0803627E-1,8.2296866E-1,2.0300248E0,-6.6625E-1,1.132209E0,-6.3516694E-1,-3.452691E-1,-5.1457757E-1,-2.1761936E-1,-3.659761E-2,4.119056E-1,9.963604E-3,-9.284164E-1,-5.4037143E-2,5.725746E-1,8.810745E-1,-3.5735396E-1,2.3798568E0,4.3513545E-1,-7.9615086E-1,-6.1642265E-1,-7.213464E-1,-5.6015897E-1,-3.830205E-1,-3.1341832E-2,-5.278321E-1,5.3001094E-1,-6.783347E-2,-4.5717084E-1,-1.0243866E-1,2.1390533E-1,4.840841E-2,8.916974E-1,-6.0877776E-1,1.01692595E-1,-4.891089E-1,2.3721619E-1,-5.1234037E-1,6.8571943E-1,6.5963656E-1,1.1446828E0,2.7877885E-1,-6.688724E-1,3.536935E-1,2.463665E0,1.1894066E0,-7.128427E-1,-8.900375E-1,-7.551995E-1,-7.283111E-1,-5.4198366E-1,-7.205739E-1,-4.920464E-1,-3.4322357E-1,-5.349568E-1,-2.1629895E-1,3.2563755E-1,4.624666E-1,-5.402207E-1,-1.4617112E-1,5.667938E-1,-7.0868653E-1,-3.2614762E-1,-7.307183E-2,-4.322779E-1,5.597102E-1,3.2657772E-2,-3.3887428E-1,2.6920682E-1,3.43566E-1,1.3761172E0,3.4110478E-1,-2.0137623E-1,-2.2127002E-1,-5.509471E-1,-4.1044846E-1,4.0289864E-1,-1.5461928E-1,-6.423546E-1,1.303182E0,4.5370495E-1,2.7710524E-1,8.7669307E-1,1.8754236E-1,1.2762078E0,4.7778685E-2,3.8587728E-1,-2.866091E-1,-8.6002934E-1,2.5758336E0,1.0066293E0,1.4258996E0,2.9290357E-1],"categories":[],"categories_nodes":[],"categories_segments":[],"categories_sizes":[],"default_left":[1,1,1,1,1,1,1,1,1,1,1,1,1,1,1,1,1,1,1,1,1,1,1,1,1,1,1,1,1,1,1,1,1,1,1,1,1,1,1,1,1,1,1,1,1,1,1,1,1,1,1,1,1,1,1,1,1,1,1,1,1,1,1,1,1,1,1,1,1,1,1,1,1,1,1,1,1,1,1,1,1,1,1,1,1,1,1,1,1,1,1,1,1,1,1,1,1,1,1,1,1,1,1,1,1],"id":5,"left_children":[1,3,5,-1,9,-1,13,-1,-1,-1,-1,-1,-1,-1,-1,-1,-1,-1,-1,-1,-1,-1,-1,-1,-1,-1,-1,-1,-1,-1,-1,-1,-1,-1,-1,-1,-1,-1,-1,-1,-1,-1,-1,-1,-1,-1,-1,-1,-1,-1,-1,-1,-1,-1,-1,-1,-1,-1,-1,-1,-1,-1,-1,-1,-1,-1,-1,-1,-1,-1,-1,-1,-1,-1,-1,-1,-1,-1,-1,-1,-1,-1,-1,-1,-1,-1,-1,-1,-1,-1,-1,-1,-1,-1,-1,-1,-1,-1,-1,-1,-1,-1,-1,-1,-1],"loss_changes":[2.6094666E2,9.251132E1,4.0882553E1,1.6676605E1,2.5745811E1,4.724133E0,3.1644577E1,5.4532776E0,1.686473E1,5.646347E0,1.4580857E1,4.472212E0,4.124235E0,9.359787E0,1.4124435E1,3.0754242E0,0E0,1.6017685E0,7.48983E0,1.7717304E0,5.5655184E0,6.875476E0,1.52780485E1,1.2300622E0,0E0,2.4750824E0,3.3253202E0,6.7976227E0,1.4967103E0,3.0047302E0,5.700432E0,2.2842407E-2,2.9391327E0,0E0,1.4951515E0,3.2682266E0,4.5989285E0,1.5592117E0,0E0,4.8787117E0,1.7857637E0,3.1692822E0,5.425679E0,4.416961E0,9.658642E0,0E0,1.4190497E0,3.1662464E-2,1.3985142E0,5.0768375E-2,2.7933264E0,5.6842403E0,6.9589615E0,5.4521948E-2,1.5355325E-1,0E0,1.3250961E0,4.7154236E-1,0E0,0E0,0E0,0E0,0E0,0E0,0E0,0E0,0E0,0E0,0E0,0E0,0E0,0E0,0E0,0E0,0E0,0E0,0E0,0E0,0E0,0E0,0E0,0E0,0E0,0E0,0E0,0E0,0E0,0E0,0E0,0E0,0E0,0E0,0E0,0E0,0E0,0E0,0E0,0E0,0E0,0E0,0E0,0E0,0E0,0E0,0E0],"parents":[2147483647,0,0,1,1,2,2,3,3,4,4,5,5,6,6,7,7,8,8,9,9,10,10,11,11,12,12,13,13,14,14,15,15,17,17,18,18,19,19,20,20,21,21,22,22,23,23,25,25,26,26,27,27,28,28,29,29,30,30,31,31,32,32,34,34,35,35,36,36,37,37,39,39,40,40,41,41,42,42,43,43,44,44,46,46,47,47,48,48,49,49,50,50,51,51,52,52,53,53,54,54,56,56,57,57],"right_children":[2,4,6,-1,10,-1,14,-1,-1,-1,-1,-1,-1,-1,-1,-1,-1,-1,-1,-1,-1,-1,-1,-1,-1,-1,-1,-1,-1,-1,-1,-1,-1,-1,-1,-1,-1,-1,-1,-1,-1,-1,-1,-1,-1,-1,-1,-1,-1,-1,-1,-1,-1,-1,-1,-1,-1,-1,-1,-1,-1,-1,-1,-1,-1,-1,-1,-1,-1,-1,-1,-1,-1,-1,-1,-1,-1,-1,-1,-1,-1,-1,-1,-1,-1,-1,-1,-1,-1,-1,-1,-1,-1,-1,-1,-1,-1,-1,-1,-1,-1,-1,-1,-1,-1],"split_conditions":[1.3745544E0,-1.6683087E-1,-7.0847225E-1,-6.425048E-2,-7.4499863E-1,1.2705357E-2,3.3301444E0,-8.165972E-2,-5.414435E-2,-4.2324614E-2,5.145348E-3,-2.8137669E-2,3.804248E-2,1.01636626E-1,2.5070804E-1,-8.228187E-2,1.398278E-1,-7.844312E-2,-4.2640734E-2,-6.355033E-2,-2.687599E-2,-4.519805E-3,5.087034E-2,1.2305051E-3,-1.1465942E-1,-6.673587E-3,7.071296E-2,1.088127E-1,-4.4133212E-2,2.9391232E-1,5.3739227E-2,-9.832463E-2,-7.612819E-2,-8.908627E-2,-6.917963E-2,-4.730303E-2,-3.870716E-3,-6.518726E-2,6.5456346E-2,-8.377433E-3,-5.6460597E-2,-1.2651174E-2,2.6417308E-2,5.9784385E-3,1.10124625E-1,-7.5184055E-2,1.2559035E-2,-6.0404945E-2,2.9296199E-2,-6.327403E-2,8.468635E-2,8.146511E-2,1.4136831E-1,3.442919E-2,-8.260574E-2,4.3681145E-2,3.042626E-1,1.4689171E-1,-8.8036075E-2,-1.0991962E-1,-9.3267135E-2,-8.994642E-2,-6.693498E-2,-8.8990875E-2,-6.076773E-2,-4.238811E-2,-6.606717E-2,-2.671292E-2,4.0216237E-2,5.7114623E-2,-6.671725E-2,-1.8052133E-2,6.999903E-2,-8.752278E-2,-4.027923E-2,-9.02437E-3,-5.338632E-2,6.912421E-2,4.033235E-3,-4.1850973E-2,3.3247042E-2,4.24304E-2,1.6995047E-1,4.212644E-2,-2.4869964E-2,-2.7326846E-2,-6.8041965E-2,-5.0690383E-2,4.975798E-2,-1.909548E-2,-7.9330795E-2,1.6094297E-1,5.603256E-2,3.4222495E-2,1.0827159E-1,2.3161482E-2,1.5761165E-1,5.9006675E-3,4.7655843E-2,-3.5396226E-2,-1.0621362E-1,3.1811544E-1,1.2431872E-1,1.760986E-1,3.617359E-2],"split_indices":[0,0,5,0,5,2,0,2147483647,2147483647,4,7,2147483647,2147483647,8,5,2147483647,2147483647,2147483647,2147483647,2147483647,2147483647,2147483647,2147483647,2147483647,2147483647,2147483647,2147483647,2147483647,2147483647,2147483647,2147483647,2147483647,2147483647,2147483647,2147483647,2147483647,2147483647,2147483647,2147483647,2147483647,2147483647,2147483647,2147483647,2147483647,2147483647,2147483647,2147483647,2147483647,2147483647,2147483647,2147483647,2147483647,2147483647,2147483647,2147483647,2147483647,2147483647,2147483647,2147483647,2147483647,2147483647,2147483647,2147483647,2147483647,2147483647,2147483647,2147483647,2147483647,2147483647,2147483647,2147483647,2147483647,2147483647,2147483647,2147483647,2147483647,2147483647,2147483647,2147483647,2147483647,2147483647,2147483647,2147483647,2147483647,2147483647,2147483647,2147483647,2147483647,2147483647,2147483647,2147483647,2147483647,2147483647,2147483647,2147483647,2147483647,2147483647,2147483647,2147483647,2147483647,2147483647,2147483647,2147483647,2147483647,2147483647],"split_type":[0,0,0,0,0,0,0,0,0,0,0,0,0,0,0,0,0,0,0,0,0,0,0,0,0,0,0,0,0,0,0,0,0,0,0,0,0,0,0,0,0,0,0,0,0,0,0,0,0,0,0,0,0,0,0,0,0,0,0,0,0,0,0,0,0,0,0,0,0,0,0,0,0,0,0,0,0,0,0,0,0,0,0,0,0,0,0,0,0,0,0,0,0,0,0,0,0,0,0,0,0,0,0,0,0],"sum_hessian":[2.459E3,2.233E3,2.26E2,1.465E3,7.68E2,6.8E1,1.58E2,5.36E2,9.29E2,2.66E2,5.02E2,2.6E1,4.2E1,1.32E2,2.6E1,5.35E2,1E0,2.97E2,6.32E2,1.11E2,1.55E2,4.15E2,8.7E1,2E1,6E0,1.8E1,2.4E1,1.26E2,6E0,2.1E1,5E0,1.45E2,3.9E2,1.35E2,1.62E2,5.64E2,6.8E1,1.1E2,1E0,9.6E1,5.9E1,3.29E2,8.6E1,5E1,3.7E1,2E0,1.8E1,7E0,1.1E1,2E0,2.2E1,7E1,5.6E1,2E0,4E0,1E0,2E1,3E0,2E0,3.9E1,1.06E2,1.53E2,2.37E2,4.6E1,1.16E2,4.49E2,1.15E2,4.5E1,2.3E1,1E0,1.09E2,8.6E1,1E1,1.9E1,4E1,3.03E2,2.6E1,2.9E1,5.7E1,1.8E1,3.2E1,1.8E1,1.9E1,1E1,8E0,2E0,5E0,2E0,9E0,1E0,1E0,5E0,1.7E1,2.6E1,4.4E1,7E0,4.9E1,1E0,1E0,2E0,2E0,1.8E1,2E0,2E0,1E0],"tree_param":{"num_deleted":"94","num_feature":"9","num_nodes":"105","size_leaf_vector":"0"}},{"base_weights":[-2.0917405E-1,-3.523961E-1,5.069251E-1,-4.803861E-1,-1.5703586E-1,1.1582794E-1,8.280565E-1,-6.5121526E-1,-4.0804788E-1,-1.9982775E-1,5.9302956E-1,-2.4397893E-1,2.7378112E-1,5.759445E-1,1.6161288E0,-6.9282377E-1,-5.285959E-1,-6.034E-1,-3.3547014E-1,-5.8841795E-1,-1.359027E-1,2.7267513E-1,1.1469399E0,-1.6029502E-1,-8.4044355E-1,3.419547E-1,-4.964086E-1,-3.6693748E-2,6.962752E-1,5.0402826E-1,1.7738528E0,-8.3013326E-1,-6.667441E-1,-7.126053E-1,-4.901336E-1,-6.6061467E-1,-5.2402043E-1,-4.2407835E-1,-2.687756E-1,-6.422998E-1,-3.650061E-1,-5.3486187E-2,-3.3157036E-1,-2.4319156E-1,3.4020045E-1,4.8434246E-1,1.3387123E0,-7.819522E-1,-1.08191825E-1,1.8515365E-1,5.800221E-1,-2.9009074E-1,-7.059575E-1,5.8695334E-1,-1.2741095E-1,7.7626765E-1,-3.3891147E-1,-3.7109038E-1,1.1128258E0,1.9420762E0,3.168148E-1,-7.5672555E-1,-5.763617E-2,-4.9987233E-1,-7.254144E-2,-1.4037344E-1,-6.677109E-1,-5.396385E-1,-3.0990797E-1,-4.8353615E-1,-3.8287678E-1,-3.046555E-1,2.1247117E-2,-5.162338E-1,-1.5873578E-1,-8.2132414E-2,4.1607004E-1,-4.1032657E-1,-1.5676714E-1,2.7919388E-1,1.0295353E0,5.405189E-1,1.5048452E-1,3.8308582E-1,1.3988196E0,-1.6678219E-1,3.390876E-1,1.0951915E0,1.4707132E-1,-1.7802213E-1,7.399905E-1,-3.3342507E-2,-3.297587E-1,-8.321153E-1,-1.2586541E-1,8.42936E-2,-5.440487E-1,4.3789187E-1,1.196157E0,4.397467E-1,-5.558562E-1,-1.4564033E-2,-7.6075786E-1,2.3736696E-1,1.2932377E0,2.0885642E0,3.7498757E-2,1.143598E0,-8.957667E-1],"categories":[],"categories_nodes":[],"categories_segments":[],"categories_sizes":[],"default_left":[1,1,1,1,1,1,1,1,1,1,1,1,1,1,1,1,1,1,1,1,1,1,1,1,1,1,1,1,1,1,1,1,1,1,1,1,1,1,1,1,1,1,1,1,1,1,1,1,1,1,1,1,1,1,1,1,1,1,1,1,1,1,1,1,1,1,1,1,1,1,1,1,1,1,1,1,1,1,1,1,1,1,1,1,1,1,1,1,1,1,1,1,1,1,1,1,1,1,1,1,1,1,1,1,1,1,1,1,1],"id":6,"left_children":[1,3,5,-1,9,-1,13,-1,-1,-1,-1,-1,-1,-1,-1,-1,-1,-1,-1,-1,-1,-1,-1,-1,-1,-1,-1,-1,-1,-1,-1,-1,-1,-1,-1,-1,-1,-1,-1,-1,-1,-1,-1,-1,-1,-1,-1,-1,-1,-1,-1,-1,-1,-1,-1,-1,-1,-1,-1,-1,-1,-1,-1,-1,-1,-1,-1,-1,-1,-1,-1,-1,-1,-1,-1,-1,-1,-1,-1,-1,-1,-1,-1,-1,-1,-1,-1,-1,-1,-1,-1,-1,-1,-1,-1,-1,-1,-1,-1,-1,-1,-1,-1,-1,-1,-1,-1,-1,-1],"loss_changes":[2.508845E2,5.0893127E1,5.1140335E1,1.4997009E1,2.6022528E1,1.0556108E1,4.3720505E1,1.5682373E0,1.2127731E1,1.8934149E1,7.5220137E0,2.7273679E0,6.89865E0,1.2611679E1,8.721527E0,5.233612E-1,3.9860153E-1,7.849045E-1,3.6543655E0,1.1101265E0,1.05936575E1,1.0694079E0,1.4889565E0,1.5777481E0,0E0,4.348797E0,3.0309033E-1,1.6892023E0,1.2035324E1,4.485974E0,1.0978821E1,0E0,0E0,3.9279032E-1,3.0365562E-1,4.152794E-1,2.066307E-1,5.152855E-1,3.7908745E0,0E0,6.456623E-1,6.2659187E0,2.6303196E0,0E0,8.550401E-1,2.4951935E-2,2.4909782E-1,0E0,1.2979023E0,2.3941262E0,5.7805004E0,6.0459852E-2,2.6749158E-1,0E0,2.3123538E0,1.844925E1,2.019947E0,5.1905775E-1,5.125499E-1,1.1599442E1,6.634261E0,0E0,0E0,0E0,0E0,0E0,0E0,0E0,0E0,0E0,0E0,0E0,0E0,0E0,0E0,0E0,0E0,0E0,0E0,0E0,0E0,0E0,0E0,0E0,0E0,0E0,0E0,0E0,0E0,0E0,0E0,0E0,0E0,0E0,0E0,0E0,0E0,0E0,0E0,0E0,0E0,0E0,0E0,0E0,0E0,0E0,0E0,0E0,0E0],"parents":[2147483647,0,0,1,1,2,2,3,3,4,4,5,5,6,6,7,7,8,8,9,9,10,10,11,11,12,12,13,13,14,14,15,15,16,16,17,17,18,18,19,19,20,20,21,21,22,22,23,23,25,25,26,26,27,27,28,28,29,29,30,30,33,33,34,34,35,35,36,36,37,37,38,38,40,40,41,41,42,42,44,44,45,45,46,46,48,48,49,49,50,50,51,51,52,52,54,54,55,55,56,56,57,57,58,58,59,59,60,60],"right_children":[2,4,6,-1,10,-1,14,-1,-1,-1,-1,-1,-1,-1,-1,-1,-1,-1,-1,-1,-1,-1,-1,-1,-1,-1,-1,-1,-1,-1,-1,-1,-1,-1,-1,-1,-1,-1,-1,-1,-1,-1,-1,-1,-1,-1,-1,-1,-1,-1,-1,-1,-1,-1,-1,-1,-1,-1,-1,-1,-1,-1,-1,-1,-1,-1,-1,-1,-1,-1,-1,-1,-1,-1,-1,-1,-1,-1,-1,-1,-1,-1,-1,-1,-1,-1,-1,-1,-1,-1,-1,-1,-1,-1,-1,-1,-1,-1,-1,-1,-1,-1,-1,-1,-1,-1,-1,-1,-1],"split_conditions":[8.2454467E-1,-3.5695767E-1,-2.1355353E-1,-5.9327684E-2,1.7633641E0,1.4304751E-2,2.3863006E0,-8.042508E-2,-5.0393913E-2,-2.4678726E-2,7.323915E-2,-3.0131398E-2,3.3811968E-2,7.112914E-2,1.995919E-1,-8.5563734E-2,-6.528159E-2,-7.4519895E-2,-4.1430563E-2,-7.266962E-2,-1.6783983E-2,3.3675376E-2,1.4164707E-1,-1.9796435E-2,-1.03794776E-1,4.2231407E-2,-6.130646E-2,-4.531678E-3,8.598998E-2,6.224749E-2,2.1907082E-1,-1.0252146E-1,-8.234289E-2,-8.800675E-2,-6.05315E-2,-8.158591E-2,-6.4716525E-2,-5.2373674E-2,-3.3193786E-2,-7.932402E-2,-4.507825E-2,-6.605544E-3,-4.094894E-2,-3.0034157E-2,4.2014755E-2,5.9816293E-2,1.6533098E-1,-9.6571095E-2,-1.3361691E-2,2.2866474E-2,7.163273E-2,-3.5826206E-2,-8.718575E-2,7.248873E-2,-1.5735252E-2,9.586905E-2,-4.1855566E-2,-4.582966E-2,1.3743398E-1,2.3984641E-1,3.9126627E-2,-9.3455605E-2,-7.1180672E-3,-6.173423E-2,-8.958868E-3,-1.7336119E-2,-8.2462296E-2,-6.6645354E-2,-3.8273633E-2,-5.9716713E-2,-4.728528E-2,-3.762495E-2,2.6240188E-3,-6.375487E-2,-1.9603869E-2,-1.0143353E-2,5.138465E-2,-5.067533E-2,-1.9360742E-2,3.448044E-2,1.271476E-1,6.675408E-2,1.8584838E-2,4.7311097E-2,1.7275421E-1,-2.05976E-2,4.187732E-2,1.3525614E-1,1.8163307E-2,-2.1985732E-2,9.138882E-2,-4.1177995E-3,-4.0725198E-2,-1.0276624E-1,-1.5544378E-2,1.0410259E-2,-6.7190014E-2,5.4079644E-2,1.4772539E-1,5.4308716E-2,-6.864824E-2,-1.7986579E-3,-9.3953595E-2,2.9314818E-2,1.5971485E-1,2.5793767E-1,4.6310965E-3,1.4123434E-1,-1.1062718E-1],"split_indices":[0,0,2,2,2,2,0,2147483647,2147483647,2,0,2147483647,2147483647,3,5,2147483647,2147483647,2147483647,2147483647,2147483647,2147483647,2147483647,2147483647,2147483647,2147483647,2147483647,2147483647,2147483647,2147483647,2147483647,2147483647,2147483647,2147483647,2147483647,2147483647,2147483647,2147483647,2147483647,2147483647,2147483647,2147483647,2147483647,2147483647,2147483647,2147483647,2147483647,2147483647,2147483647,2147483647,2147483647,2147483647,2147483647,2147483647,2147483647,2147483647,2147483647,2147483647,2147483647,2147483647,2147483647,2147483647,2147483647,2147483647,2147483647,2147483647,2147483647,2147483647,2147483647,2147483647,2147483647,2147483647,2147483647,2147483647,2147483647,2147483647,2147483647,2147483647,2147483647,2147483647,2147483647,2147483647,2147483647,2147483647,2147483647,2147483647,2147483647,2147483647,2147483647,2147483647,2147483647,2147483647,2147483647,2147483647,2147483647,2147483647,2147483647,2147483647,2147483647,2147483647,2147483647,2147483647,2147483647,2147483647,2147483647,2147483647,2147483647,2147483647,2147483647,2147483647],"split_type":[0,0,0,0,0,0,0,0,0,0,0,0,0,0,0,0,0,0,0,0,0,0,0,0,0,0,0,0,0,0,0,0,0,0,0,0,0,0,0,0,0,0,0,0,0,0,0,0,0,0,0,0,0,0,0,0,0,0,0,0,0,0,0,0,0,0,0,0,0,0,0,0,0,0,0,0,0,0,0,0,0,0,0,0,0,0,0,0,0,0,0,0,0,0,0,0,0,0,0,0,0,0,0,0,0,0,0,0,0],"sum_hessian":[2.444E3,2.037E3,4.07E2,1.23E3,8.07E2,1.84E2,2.23E2,3.64E2,8.66E2,7.64E2,4.3E1,5.6E1,1.28E2,1.7E2,5.3E1,2.69E2,9.5E1,2.33E2,6.33E2,1.07E2,6.57E2,2.8E1,1.5E1,5E1,6E0,1.18E2,1E1,2.8E1,1.42E2,7E0,4.6E1,3.9E1,2.3E2,1.4E1,8.1E1,1.32E2,1.01E2,2.7E2,3.63E2,8.5E1,2.2E1,4.63E2,1.94E2,3E0,2.5E1,4E0,1.1E1,3E0,4.7E1,7.2E1,4.6E1,6E0,4E0,3E0,2.5E1,1.32E2,1E1,3E0,4E0,4.1E1,5E0,1.3E1,1E0,7.9E1,2E0,2E0,1.3E2,9.3E1,8E0,1.07E2,1.63E2,3.23E2,4E1,1.2E1,1E1,4.37E2,2.6E1,1.33E2,6.1E1,2.4E1,1E0,3E0,1E0,1E0,1E1,4.2E1,5E0,2E0,7E1,8E0,3.8E1,1E0,5E0,3E0,1E0,1.7E1,8E0,7.4E1,5.8E1,2E0,8E0,2E0,1E0,1E0,3E0,3.8E1,3E0,3E0,2E0],"tree_param":{"num_deleted":"98","num_feature":"9","num_nodes":"109","size_leaf_vector":"0"}},{"base_weights":[-2.125037E-1,-3.747309E-1,1.5628034E-1,-5.3275543E-1,-2.9197758E-1,3.2139325E-3,6.58267E-1,-6.3076675E-1,-4.1009098E-1,-4.5605975E-1,-1.560806E-1,-3.5236362E-1,1.1942272E-1,8.738118E-3,8.9200205E-1,-8.0092657E-1,-6.1358595E-1,-6.038359E-1,-3.1961894E-1,-5.907105E-1,-3.9007786E-1,-7.797546E-2,-3.94985E-1,-5.882946E-1,-2.3662736E-1,1.6520639E-1,-4.7946152E-1,-3.7310815E-1,3.5950845E-1,7.3622197E-1,2.0416083E0,-7.354529E-1,-5.8750015E-1,-1.2821387E-1,-6.2064165E-1,-3.7287432E-1,-1.379374E-1,-2.0726083E-1,-5.968333E-1,-5.460254E-1,-3.741213E-1,-1.2026551E-1,1.9089976E-1,-6.845483E-1,-3.512841E-1,-6.359714E-1,-3.8667756E-1,-4.3054327E-1,-5.807124E-2,1.0601759E-1,8.266901E-1,-1.6243657E-1,-6.7490566E-1,-1.6890478E-1,-8.337155E-1,6.538043E-1,-4.964281E-1,7.709302E-1,-8.599765E-1,2.1822736E0,8.1525046E-1,-6.252969E-1,-5.349616E-1,-3.2862577E-1,3.72549E-2,-4.636616E-1,-6.5173525E-1,1.9598946E-1,-3.8669762E-1,-3.6842737E-1,-6.570716E-2,-3.126138E-1,4.8737466E-2,-7.1407205E-1,-5.5590224E-1,-5.5870736E-1,-1.0043643E-1,-2.9679668E-1,-4.228298E-1,-1.8649468E-1,4.2306338E-2,-6.1594892E-2,2.643465E-1,-3.0026543E-1,-5.846534E-1,-7.425707E-1,-5.402629E-1,-4.7057056E-1,2.419299E-1,4.7803319E-1,-4.593603E-1,1.9742821E-1,-2.0309967E-1,-8.725936E-3,4.6790013E-1,1.9500121E-1,1.2335565E0,-2.2360742E-1,1.19918585E-1,-8.996481E-1,-4.4178924E-1,-3.3723402E-1,4.7795504E-1,-8.952323E-1,-2.6495427E-1,2.2469749E-1,9.550169E-1,-1.7338661E-2,-6.931589E-1,6.9442916E-1,1.8704977E0,7.1851414E-1,2.2576084E0],"categories":[],"categories_nodes":[],"categories_segments":[],"categories_sizes":[],"default_left":[1,1,1,1,1,1,1,1,1,1,1,1,1,1,1,1,1,1,1,1,1,1,1,1,1,1,1,1,1,1,1,1,1,1,1,1,1,1,1,1,1,1,1,1,1,1,1,1,1,1,1,1,1,1,1,1,1,1,1,1,1,1,1,1,1,1,1,1,1,1,1,1,1,1,1,1,1,1,1,1,1,1,1,1,1,1,1,1,1,1,1,1,1,1,1,1,1,1,1,1,1,1,1,1,1,1,1,1,1,1,1,1,1],"id":7,"left_children":[1,3,5,-1,9,-1,13,-1,-1,-1,-1,-1,-1,-1,-1,-1,-1,-1,-1,-1,-1,-1,-1,-1,-1,-1,-1,-1,-1,-1,-1,-1,-1,-1,-1,-1,-1,-1,-1,-1,-1,-1,-1,-1,-1,-1,-1,-1,-1,-1,-1,-1,-1,-1,-1,-1,-1,-1,-1,-1,-1,-1,-1,-1,-1,-1,-1,-1,-1,-1,-1,-1,-1,-1,-1,-1,-1,-1,-1,-1,-1,-1,-1,-1,-1,-1,-1,-1,-1,-1,-1,-1,-1,-1,-1,-1,-1,-1,-1,-1,-1,-1,-1,-1,-1,-1,-1,-1,-1,-1,-1,-1,-1],"loss_changes":[1.455935E2,2.1973175E1,5.714989E1,6.7637024E0,2.4711975E1,2.3619825E1,2.637967E1,5.447006E-1,4.3995056E0,4.282791E0,1.1335363E1,3.7332878E0,1.18755245E1,6.375716E0,2.1684708E1,0E0,5.9150696E-1,5.9018326E-1,1.6888351E0,2.8560638E-1,6.821251E-1,5.2466364E0,1.7032185E0,2.4351883E-1,3.2970614E0,1.5622178E1,1.8206854E0,2.0318575E0,6.5067387E0,6.835045E0,1.1298065E0,0E0,2.224884E-1,1.358096E-1,1.428814E-1,1.1442337E0,6.765341E-1,1.1467546E-1,4.5406342E-1,1.2350559E-1,1.0701942E0,4.2894244E0,1.1776464E0,0E0,1.4287949E0,4.4301987E-2,6.6062224E-1,1.3748293E0,1.914456E0,1.53172E1,8.237589E0,2.4253213E-1,6.669893E-1,1.9582214E0,4.8164845E-2,2.2582731E0,6.3129663E-1,8.36525E0,0E0,1.13780975E-1,0E0,0E0,0E0,0E0,0E0,0E0,0E0,0E0,0E0,0E0,0E0,0E0,0E0,0E0,0E0,0E0,0E0,0E0,0E0,0E0,0E0,0E0,0E0,0E0,0E0,0E0,0E0,0E0,0E0,0E0,0E0,0E0,0E0,0E0,0E0,0E0,0E0,0E0,0E0,0E0,0E0,0E0,0E0,0E0,0E0,0E0,0E0,0E0,0E0,0E0,0E0,0E0,0E0],"parents":[2147483647,0,0,1,1,2,2,3,3,4,4,5,5,6,6,7,7,8,8,9,9,10,10,11,11,12,12,13,13,14,14,16,16,17,17,18,18,19,19,20,20,21,21,22,22,23,23,24,24,25,25,26,26,27,27,28,28,29,29,30,30,32,32,33,33,34,34,35,35,36,36,37,37,38,38,39,39,40,40,41,41,42,42,44,44,45,45,46,46,47,47,48,48,49,49,50,50,51,51,52,52,53,53,54,54,55,55,56,56,57,57,59,59],"right_children":[2,4,6,-1,10,-1,14,-1,-1,-1,-1,-1,-1,-1,-1,-1,-1,-1,-1,-1,-1,-1,-1,-1,-1,-1,-1,-1,-1,-1,-1,-1,-1,-1,-1,-1,-1,-1,-1,-1,-1,-1,-1,-1,-1,-1,-1,-1,-1,-1,-1,-1,-1,-1,-1,-1,-1,-1,-1,-1,-1,-1,-1,-1,-1,-1,-1,-1,-1,-1,-1,-1,-1,-1,-1,-1,-1,-1,-1,-1,-1,-1,-1,-1,-1,-1,-1,-1,-1,-1,-1,-1,-1,-1,-1,-1,-1,-1,-1,-1,-1,-1,-1,-1,-1,-1,-1,-1,-1,-1,-1,-1,-1],"split_conditions":[9.119838E-2,-2.1355353E-1,1.4251404E0,-6.5795295E-2,-6.285674E-1,3.9692066E-4,-7.253332E-1,-7.7899694E-2,-5.0646234E-2,-5.632338E-2,-1.9275954E-2,-4.3516904E-2,1.4748706E-2,1.0791576E-3,1.1016225E-1,-9.891443E-2,-7.5777866E-2,-7.457373E-2,-3.9472938E-2,-7.295275E-2,-4.8174616E-2,-9.629969E-3,-4.8780646E-2,-7.265438E-2,-2.9223477E-2,2.0402988E-2,-5.9213497E-2,-4.6078857E-2,4.439929E-2,9.092341E-2,2.521386E-1,-9.0828426E-2,-7.2556265E-2,-1.5834412E-2,-7.664924E-2,-4.604998E-2,-1.7035268E-2,-2.5596712E-2,-7.370891E-2,-6.743413E-2,-4.6203982E-2,-1.485279E-2,2.357612E-2,-8.4541716E-2,-4.3383583E-2,-7.854247E-2,-4.775468E-2,-5.3172093E-2,-7.171798E-3,1.3093172E-2,1.0209622E-1,-2.0060917E-2,-8.3350845E-2,-2.085974E-2,-1.02963865E-1,8.074483E-2,-6.130887E-2,9.5209874E-2,-1.06207095E-1,2.6951078E-1,1.0068343E-1,-7.7224165E-2,-6.6067755E-2,-4.0585283E-2,4.60098E-3,-5.726221E-2,-8.04893E-2,2.4204697E-2,-4.7757156E-2,-4.5500778E-2,-8.114834E-3,-3.8607802E-2,6.019077E-3,-8.8187896E-2,-6.8653926E-2,-6.9000356E-2,-1.2403898E-2,-3.665439E-2,-5.221948E-2,-2.3032092E-2,5.2248323E-3,-7.606969E-3,3.2646794E-2,-3.708278E-2,-7.220469E-2,-9.1707475E-2,-6.672246E-2,-5.8115464E-2,2.9878343E-2,5.9037097E-2,-5.6730997E-2,2.4382383E-2,-2.5082808E-2,-1.077653E-3,5.7785664E-2,2.408265E-2,1.5234423E-1,-2.7615516E-2,1.4809945E-2,-1.1110654E-1,-5.456097E-2,-4.16484E-2,5.9027445E-2,-1.1056119E-1,-3.272185E-2,2.7750138E-2,1.1794458E-1,-2.1413246E-3,-8.560512E-2,8.5762E-2,2.3100646E-1,8.87365E-2,2.7881464E-1],"split_indices":[0,2,3,0,0,5,5,2147483647,2147483647,0,8,2147483647,2147483647,4,0,2147483647,2147483647,2147483647,2147483647,2147483647,2147483647,2147483647,2147483647,2147483647,2147483647,2147483647,2147483647,2147483647,2147483647,2147483647,2147483647,2147483647,2147483647,2147483647,2147483647,2147483647,2147483647,2147483647,2147483647,2147483647,2147483647,2147483647,2147483647,2147483647,2147483647,2147483647,2147483647,2147483647,2147483647,2147483647,2147483647,2147483647,2147483647,2147483647,2147483647,2147483647,2147483647,2147483647,2147483647,2147483647,2147483647,2147483647,2147483647,2147483647,2147483647,2147483647,2147483647,2147483647,2147483647,2147483647,2147483647,2147483647,2147483647,2147483647,2147483647,2147483647,2147483647,2147483647,2147483647,2147483647,2147483647,2147483647,2147483647,2147483647,2147483647,2147483647,2147483647,2147483647,2147483647,2147483647,2147483647,2147483647,2147483647,2147483647,2147483647,2147483647,2147483647,2147483647,2147483647,2147483647,2147483647,2147483647,2147483647,2147483647,2147483647,2147483647,2147483647,2147483647,2147483647,2147483647,2147483647,2147483647,2147483647],"split_type":[0,0,0,0,0,0,0,0,0,0,0,0,0,0,0,0,0,0,0,0,0,0,0,0,0,0,0,0,0,0,0,0,0,0,0,0,0,0,0,0,0,0,0,0,0,0,0,0,0,0,0,0,0,0,0,0,0,0,0,0,0,0,0,0,0,0,0,0,0,0,0,0,0,0,0,0,0,0,0,0,0,0,0,0,0,0,0,0,0,0,0,0,0,0,0,0,0,0,0,0,0,0,0,0,0,0,0,0,0,0,0,0,0],"sum_hessian":[2.432E3,1.689E3,7.43E2,5.79E2,1.11E3,5.7E2,1.73E2,3.2E2,2.59E2,5.02E2,6.08E2,1.4E2,4.3E2,4.6E1,1.27E2,2.6E1,2.94E2,8.1E1,1.78E2,1.63E2,3.39E2,4.59E2,1.49E2,4.5E1,9.5E1,4E2,3E1,2.2E1,2.4E1,1.13E2,1.4E1,4.8E1,2.46E2,3E0,7.8E1,1.37E2,4.1E1,3E0,1.6E2,2.9E1,3.1E2,3.97E2,6.2E1,1.8E1,1.31E2,3.5E1,1E1,4.5E1,5E1,3.68E2,3.2E1,1.2E1,1.8E1,1.6E1,6E0,1.8E1,6E0,1.11E2,2E0,1.2E1,2E0,1.38E2,1.08E2,1E0,2E0,1.5E1,6.3E1,3E0,1.34E2,9E0,3.2E1,2E0,1E0,3.8E1,1.22E2,2.8E1,1E0,1.22E2,1.88E2,2.82E2,1.15E2,1.4E1,4.8E1,1.09E2,2.2E1,1.4E1,2.1E1,9E0,1E0,1E0,4.4E1,1.8E1,3.2E1,2.8E2,8.8E1,1.3E1,1.9E1,1E1,2E0,8E0,1E1,1.3E1,3E0,5E0,1E0,8E0,1E1,2E0,4E0,1.05E2,6E0,1E0,1.1E1],"tree_param":{"num_deleted":"102","num_feature":"9","num_nodes":"113","size_leaf_vector":"0"}},{"base_weights":[-1.7364271E-1,-2.4109603E-1,6.6311944E-1,-3.3502293E-1,1.7800247E-2,4.823061E-1,1.7214583E0,-3.4015986E-1,1.524946E0,-4.3715054E-1,7.700634E-2,-6.992108E-2,6.992587E-1,1.2329823E0,2.468163E0,-5.375395E-1,-2.934212E-1,4.7800297E-1,1.699825E0,3.1965548E-1,-4.6286762E-1,4.300371E-2,7.5836134E-1,8.272296E-2,-5.707285E-1,7.447852E-1,-7.873911E-1,1.5499845E0,-9.080965E-1,2.6901731E0,2.858191E-1,-5.88305E-1,-4.5254573E-1,-4.2746502E-1,-2.1770884E-1,1.9429177E-2,4.7781268E-1,-5.245787E-1,-1.865075E-1,1.1596726E-1,-2.461154E-1,8.316392E-1,-5.8829325E-1,-1.1687761E-1,6.218165E-1,-7.6179785E-1,-5.8380116E-2,5.697993E-1,1.3726391E0,1.6429543E0,9.6683964E-2,-5.776553E-2,-5.934619E-1,-5.776541E-1,-3.6996478E-1,-4.402061E-1,3.11866E-1,-2.4305798E-1,2.6803507E-2,-7.199265E-1,-4.31576E-1,1.3899639E-1,-8.199934E-1,-8.936114E-2,1.9687697E-1,7.3149276E-1,-2.8067353E-1,5.356733E-1,1.2409196E0,-2.4773836E-2,-6.6913223E-1,9.1253984E-1,-2.9333884E-2,2.201163E-1,-2.207335E-1,7.6957566E-1,1.3222143E-1,6.1714417E-1,1.5995634E0,1.9228947E0,9.4333726E-1],"categories":[],"categories_nodes":[],"categories_segments":[],"categories_sizes":[],"default_left":[1,1,1,1,1,1,1,1,1,1,1,1,1,1,1,1,1,1,1,1,1,1,1,1,1,1,1,1,1,1,1,1,1,1,1,1,1,1,1,1,1,1,1,1,1,1,1,1,1,1,1,1,1,1,1,1,1,1,1,1,1,1,1,1,1,1,1,1,1,1,1,1,1,1,1,1,1,1,1,1,1],"id":8,"left_children":[1,3,5,-1,-1,-1,-1,-1,-1,-1,-1,-1,-1,-1,-1,-1,-1,-1,-1,-1,-1,-1,-1,-1,-1,-1,-1,-1,-1,-1,-1,-1,-1,-1,-1,-1,-1,-1,-1,-1,-1,-1,-1,-1,-1,-1,-1,-1,-1,-1,-1,-1,-1,-1,-1,-1,-1,-1,-1,-1,-1,-1,-1,-1,-1,-1,-1,-1,-1,-1,-1,-1,-1,-1,-1,-1,-1,-1,-1,-1,-1],"loss_changes":[1.4054527E2,5.60027E1,3.489081E1,1.6560211E1,1.6560162E1,1.9184296E1,7.34066E0,1.5425751E1,2.2880745E-1,1.4963369E0,1.2572594E1,3.5389628E0,8.23904E0,1.3207365E1,4.1329994E0,1.1755066E0,1.3776588E1,0E0,0E0,1.2552547E-1,1.0950775E0,1.0967E1,2.9373407E0,3.9103425E0,1.0216768E0,1.1657269E1,0E0,2.0077095E0,0E0,0E0,0E0,5.1647186E-1,1.1080799E0,4.742523E0,5.4211807E0,0E0,0E0,7.652044E-1,2.9367702E0,6.9051723E0,3.7048454E0,2.4723167E0,0E0,1.3499134E0,1.8765996E0,0E0,2.1068603E-1,7.6812916E0,3.2905464E0,1.4474449E0,0E0,0E0,0E0,0E0,0E0,0E0,0E0,0E0,0E0,0E0,0E0,0E0,0E0,0E0,0E0,0E0,0E0,0E0,0E0,0E0,0E0,0E0,0E0,0E0,0E0,0E0,0E0,0E0,0E0,0E0,0E0],"parents":[2147483647,0,0,1,1,2,2,3,3,4,4,5,5,6,6,7,7,8,8,9,9,10,10,11,11,12,12,13,13,14,14,15,15,16,16,19,19,20,20,21,21,22,22,23,23,24,24,25,25,27,27,31,31,32,32,33,33,34,34,37,37,38,38,39,39,40,40,41,41,43,43,44,44,46,46,47,47,48,48,49,49],"right_children":[2,4,6,-1,-1,-1,-1,-1,-1,-1,-1,-1,-1,-1,-1,-1,-1,-1,-1,-1,-1,-1,-1,-1,-1,-1,-1,-1,-1,-1,-1,-1,-1,-1,-1,-1,-1,-1,-1,-1,-1,-1,-1,-1,-1,-1,-1,-1,-1,-1,-1,-1,-1,-1,-1,-1,-1,-1,-1,-1,-1,-1,-1,-1,-1,-1,-1,-1,-1,-1,-1,-1,-1,-1,-1,-1,-1,-1,-1,-1,-1],"split_conditions":[1.4251404E0,8.3216935E-2,2.8005054E0,-4.137533E-2,2.1983306E-3,5.9564803E-2,2.126001E-1,-4.200974E-2,1.8833083E-1,-5.398809E-2,9.510282E-3,-8.635253E-3,8.635844E-2,1.5227331E-1,3.0481812E-1,-6.6386126E-2,-3.623752E-2,5.9033364E-2,2.099284E-1,3.947745E-2,-5.716415E-2,5.3109583E-3,9.365762E-2,1.02162855E-2,-7.0484966E-2,9.198097E-2,-9.72428E-2,1.9142307E-1,-1.1214992E-1,3.3223638E-1,3.529866E-2,-7.265566E-2,-5.5889398E-2,-5.2791927E-2,-2.688704E-2,2.3995033E-3,5.9009865E-2,-6.4785466E-2,-2.3033675E-2,1.4321956E-2,-3.039525E-2,1.0270744E-1,-7.265422E-2,-1.4434384E-2,7.679434E-2,-9.4082035E-2,-7.209944E-3,7.037021E-2,1.6952091E-1,2.0290485E-1,1.1940469E-2,-7.1340427E-3,-7.329254E-2,-7.1340285E-2,-4.569065E-2,-5.4365452E-2,3.851545E-2,-3.0017659E-2,3.310233E-3,-8.8910915E-2,-5.3299636E-2,1.7166054E-2,-1.0126918E-1,-1.1036101E-2,2.4314305E-2,9.0339355E-2,-3.466318E-2,6.615565E-2,1.5325357E-1,-3.0595686E-3,-8.263783E-2,1.1269867E-1,-3.6227347E-3,2.7184363E-2,-2.7260587E-2,9.5042594E-2,1.6329346E-2,7.62173E-2,1.9754606E-1,2.374775E-1,1.1650215E-1],"split_indices":[3,3,0,0,2,5,0,2147483647,2147483647,2147483647,2147483647,2147483647,2147483647,2147483647,2147483647,2147483647,2147483647,2147483647,2147483647,2147483647,2147483647,2147483647,2147483647,2147483647,2147483647,2147483647,2147483647,2147483647,2147483647,2147483647,2147483647,2147483647,2147483647,2147483647,2147483647,2147483647,2147483647,2147483647,2147483647,2147483647,2147483647,2147483647,2147483647,2147483647,2147483647,2147483647,2147483647,2147483647,2147483647,2147483647,2147483647,2147483647,2147483647,2147483647,2147483647,2147483647,2147483647,2147483647,2147483647,2147483647,2147483647,2147483647,2147483647,2147483647,2147483647,2147483647,2147483647,2147483647,2147483647,2147483647,2147483647,2147483647,2147483647,2147483647,2147483647,2147483647,2147483647,2147483647,2147483647,2147483647,2147483647],"split_type":[0,0,0,0,0,0,0,0,0,0,0,0,0,0,0,0,0,0,0,0,0,0,0,0,0,0,0,0,0,0,0,0,0,0,0,0,0,0,0,0,0,0,0,0,0,0,0,0,0,0,0,0,0,0,0,0,0,0,0,0,0,0,0,0,0,0,0,0,0,0,0,0,0,0,0,0,0,0,0,0,0],"sum_hessian":[2.487E3,2.302E3,1.85E2,1.689E3,6.13E2,1.59E2,2.6E1,1.685E3,4E0,7E1,5.43E2,4.5E1,1.14E2,1.7E1,9E0,3.21E2,1.364E3,1E0,3E0,2E0,6.8E1,5.18E2,2.5E1,3.5E1,1E1,1.11E2,3E0,1.5E1,2E0,8E0,1E0,1.98E2,1.23E2,4.91E2,8.73E2,1E0,1E0,5.5E1,1.3E1,4.14E2,1.04E2,2.4E1,1E0,2.6E1,9E0,7E0,3E0,8.8E1,2.3E1,1.4E1,1E0,2E0,1.96E2,4.7E1,7.6E1,4.83E2,8E0,7.91E2,8.2E1,1.6E1,3.9E1,9E0,4E0,1.17E2,2.97E2,3E0,1.01E2,1.5E1,9E0,2.3E1,3E0,6E0,3E0,1E0,2E0,6E1,2.8E1,6E0,1.7E1,9E0,5E0],"tree_param":{"num_deleted":"74","num_feature":"9","num_nodes":"81","size_leaf_vector":"0"}},{"base_weights":[-1.5523213E-1,-2.3255718E-1,4.8415947E-1,-3.942734E-1,-1.4272046E-1,-8.166568E-2,6.5493935E-1,-5.4845715E-1,-3.3803517E-1,-3.5153925E-1,-6.6702515E-2,-1.4658482E-1,2.1835206E0,7.6387274E-1,-4.6110594E-1,-7.0607877E-1,-5.2505684E-1,-5.0196946E-1,-2.7741656E-1,-4.6282914E-1,-2.605608E-1,1.03457505E-2,-2.9140952E-1,-8.4630364E-1,-5.921285E-2,6.200493E-1,1.7829446E0,3.9413816E-1,-7.135578E-1,-6.6709167E-1,-4.953841E-1,-6.007124E-1,-4.6251798E-1,-4.6095663E-1,-2.5848082E-1,-4.9630207E-1,-1.7285822E-1,-4.0330926E-1,-2.0027842E-1,-2.7033744E-2,4.36864E-1,-3.7243012E-1,-1.7464817E-1,-5.783356E-3,-9.9042326E-1,-4.7390878E-1,7.5604305E-2,-6.8781507E-1,6.5578294E-1,1.8584256E0,7.636401E-2,5.4908144E-1,-1.0813693E-1,-2.4348605E-1,-9.335139E-1,-5.0204843E-1,-2.8931186E-1,-4.7198987E-1,-2.5655407E-1,-5.189019E-1,-3.8438687E-1,-1.7986877E-1,-3.063986E-1,-5.23561E-1,-3.7561435E-1,-2.959838E-1,3.754761E-1,-3.5059947E-1,-5.0894976E-1,-3.3012173E-1,-1.285407E-1,-1.8242697E-1,7.408592E-2,3.0619764E-1,9.28142E-1,-3.3157295E-1,-5.524774E-1,-1.0945038E-1,-5.103692E-1,-6.496551E-1,9.864692E-1,4.730337E-1,-1.10469826E-1,-8.241791E-1,-9.423993E-2,7.034534E-1,-2.3698337E-1,1.9352914E0,1.4423244E-1,1.8035696E-1,6.2923825E-1,-3.806599E-1,1.2245923E-2,-5.247623E-1,-1.0521088E0],"categories":[],"categories_nodes":[],"categories_segments":[],"categories_sizes":[],"default_left":[1,1,1,1,1,1,1,1,1,1,1,1,1,1,1,1,1,1,1,1,1,1,1,1,1,1,1,1,1,1,1,1,1,1,1,1,1,1,1,1,1,1,1,1,1,1,1,1,1,1,1,1,1,1,1,1,1,1,1,1,1,1,1,1,1,1,1,1,1,1,1,1,1,1,1,1,1,1,1,1,1,1,1,1,1,1,1,1,1,1,1,1,1,1,1],"id":9,"left_children":[1,3,5,-1,-1,-1,13,-1,-1,-1,-1,-1,-1,25,-1,-1,-1,-1,-1,-1,-1,-1,-1,-1,-1,-1,-1,-1,-1,-1,-1,-1,-1,-1,-1,-1,-1,-1,-1,-1,-1,-1,-1,-1,-1,-1,-1,-1,-1,-1,-1,-1,-1,-1,-1,-1,-1,-1,-1,-1,-1,-1,-1,-1,-1,-1,-1,-1,-1,-1,-1,-1,-1,-1,-1,-1,-1,-1,-1,-1,-1,-1,-1,-1,-1,-1,-1,-1,-1,-1,-1,-1,-1,-1,-1],"loss_changes":[1.2269385E2,3.210266E1,2.5920712E1,6.700058E0,2.2582611E1,9.491045E0,2.530185E1,4.7724152E-1,5.6602707E0,3.748989E0,1.8091331E1,3.7381039E0,0E0,2.6640762E1,4.2840614E0,0E0,5.18692E-1,3.84655E-1,1.3845367E0,1.5794792E0,1.749361E0,1.2425884E1,2.4719124E0,8.191385E-1,3.148337E0,8.109474E0,2.8234482E0,4.2105675E-1,1.3484101E0,0E0,9.914017E-2,0E0,1.2708664E-1,1.2582779E-2,1.4167213E0,3.4207153E-1,1.3581705E0,2.0136929E-1,1.3613892E0,1.1274114E1,3.803996E0,1.0069065E0,2.3805318E0,0E0,0E0,4.0545454E0,3.2069216E0,3.2638645E-1,7.0193405E0,2.6491165E0,0E0,2.1521926E-2,0E0,2.0719177E-1,3.3377647E-2,0E0,0E0,0E0,0E0,0E0,0E0,0E0,0E0,0E0,0E0,0E0,0E0,0E0,0E0,0E0,0E0,0E0,0E0,0E0,0E0,0E0,0E0,0E0,0E0,0E0,0E0,0E0,0E0,0E0,0E0,0E0,0E0,0E0,0E0,0E0,0E0,0E0,0E0,0E0,0E0],"parents":[2147483647,0,0,1,1,2,2,3,3,4,4,5,5,6,6,7,7,8,8,9,9,10,10,11,11,13,13,14,14,16,16,17,17,18,18,19,19,20,20,21,21,22,22,23,23,24,24,25,25,26,26,27,27,28,28,30,30,32,32,33,33,34,34,35,35,36,36,37,37,38,38,39,39,40,40,41,41,42,42,45,45,46,46,47,47,48,48,49,49,51,51,53,53,54,54],"right_children":[2,4,6,-1,-1,-1,14,-1,-1,-1,-1,-1,-1,26,-1,-1,-1,-1,-1,-1,-1,-1,-1,-1,-1,-1,-1,-1,-1,-1,-1,-1,-1,-1,-1,-1,-1,-1,-1,-1,-1,-1,-1,-1,-1,-1,-1,-1,-1,-1,-1,-1,-1,-1,-1,-1,-1,-1,-1,-1,-1,-1,-1,-1,-1,-1,-1,-1,-1,-1,-1,-1,-1,-1,-1,-1,-1,-1,-1,-1,-1,-1,-1,-1,-1,-1,-1,-1,-1,-1,-1,-1,-1,-1,-1],"split_conditions":[1.2319592E0,-5.086521E-1,-7.9404247E-1,-4.8692763E-2,-1.7625976E-2,-1.0085711E-2,1.3620062E0,-6.773446E-2,-4.1747343E-2,-4.3415096E-2,-8.2377605E-3,-1.8103225E-2,2.696648E-1,3.744349E0,-5.6946583E-2,-8.720072E-2,-6.484452E-2,-6.1993226E-2,-3.4260944E-2,-5.7159398E-2,-3.217926E-2,1.2777002E-3,-3.5989076E-2,-1.04518496E-1,-7.3127868E-3,7.6576084E-2,2.2019365E-1,4.8676062E-2,-8.812439E-2,-8.2385816E-2,-6.1179936E-2,-7.418798E-2,-5.7120968E-2,-5.6928143E-2,-3.192238E-2,-6.1293304E-2,-2.134799E-2,-4.9808692E-2,-2.4734383E-2,-3.3386673E-3,5.39527E-2,-4.599512E-2,-2.1569047E-2,-7.1424444E-4,-1.2231727E-1,-5.8527734E-2,9.337131E-3,-8.494516E-2,8.098919E-2,2.2951555E-1,9.430955E-3,6.7811556E-2,-1.3354911E-2,-3.0070527E-2,-1.1528896E-1,-6.200298E-2,-3.573001E-2,-5.8290746E-2,-3.1684425E-2,-6.408438E-2,-4.7471777E-2,-2.2213792E-2,-3.7840225E-2,-6.465978E-2,-4.638837E-2,-3.6553998E-2,4.6371296E-2,-4.3299034E-2,-6.2855296E-2,-4.077003E-2,-1.5874775E-2,-2.252973E-2,9.149611E-3,3.7815407E-2,1.14625536E-1,-4.094926E-2,-6.823096E-2,-1.3517121E-2,-6.303059E-2,-8.0232404E-2,1.2182894E-1,5.841966E-2,-1.3643024E-2,-1.01786114E-1,-1.1638631E-2,8.68765E-2,-2.9267445E-2,2.3900849E-1,1.7812705E-2,2.2274084E-2,7.771092E-2,-4.70115E-2,1.5123715E-3,-6.480814E-2,-1.2993543E-1],"split_indices":[0,1,5,2,5,0,5,2147483647,2147483647,2147483647,2147483647,2147483647,2147483647,0,4,2147483647,2147483647,2147483647,2147483647,2147483647,2147483647,2147483647,2147483647,2147483647,2147483647,2,4,2147483647,2147483647,2147483647,2147483647,2147483647,2147483647,2147483647,2147483647,2147483647,2147483647,2147483647,2147483647,2147483647,2147483647,2147483647,2147483647,2147483647,2147483647,2147483647,2147483647,2147483647,2147483647,2147483647,2147483647,2147483647,2147483647,2147483647,2147483647,2147483647,2147483647,2147483647,2147483647,2147483647,2147483647,2147483647,2147483647,2147483647,2147483647,2147483647,2147483647,2147483647,2147483647,2147483647,2147483647,2147483647,2147483647,2147483647,2147483647,2147483647,2147483647,2147483647,2147483647,2147483647,2147483647,2147483647,2147483647,2147483647,2147483647,2147483647,2147483647,2147483647,2147483647,2147483647,2147483647,2147483647,2147483647,2147483647,2147483647],"split_type":[0,0,0,0,0,0,0,0,0,0,0,0,0,0,0,0,0,0,0,0,0,0,0,0,0,0,0,0,0,0,0,0,0,0,0,0,0,0,0,0,0,0,0,0,0,0,0,0,0,0,0,0,0,0,0,0,0,0,0,0,0,0,0,0,0,0,0,0,0,0,0,0,0,0,0,0,0,0,0,0,0,0,0,0,0,0,0,0,0,0,0,0,0,0,0],"sum_hessian":[2.479E3,2.212E3,2.67E2,7.89E2,1.423E3,6.2E1,2.05E2,2.09E2,5.8E2,3.79E2,1.044E3,6.1E1,1E0,1.87E2,1.8E1,2.4E1,1.85E2,1.55E2,4.25E2,1.69E2,2.1E2,7.78E2,2.66E2,6E0,5.5E1,1.65E2,2.2E1,4E0,1.4E1,2.9E1,1.56E2,4.1E1,1.14E2,3.8E1,3.87E2,1.51E2,1.8E1,6.1E1,1.49E2,7.16E2,6.2E1,1.56E2,1.1E2,1E0,5E0,1.3E1,4.2E1,4E0,1.61E2,2.1E1,1E0,3E0,1E0,5E0,9E0,1.5E2,6E0,1.08E2,6E0,1.9E1,1.9E1,1.48E2,2.39E2,1.21E2,3E1,1.5E1,3E0,4.3E1,1.8E1,5.2E1,9.7E1,2.82E2,4.34E2,5E1,1.2E1,1.29E2,2.7E1,9.3E1,1.7E1,1.2E1,1E0,1.3E1,2.9E1,3E0,1E0,1.53E2,8E0,2E1,1E0,1E0,2E0,3E0,2E0,3E0,6E0],"tree_param":{"num_deleted":"84","num_feature":"9","num_nodes":"95","size_leaf_vector":"0"}},{"base_weights":[-1.314955E-1,-2.0328078E-1,5.2464366E-1,-2.6683703E-1,-3.8554885E-3,3.6611912E-1,1.1180259E0,-4.109502E-1,-2.0060325E-1,-6.672044E-2,5.3900146E-1,-3.806828E-1,4.7919777E-1,-2.0754311E-2,1.4331813E0,-5.432635E-1,-3.5339868E-1,-3.5007995E-1,-1.215191E-1,-3.1798056E-1,2.587292E-2,-1.7692377E-1,7.1794605E-1,-1.737945E-1,-9.383067E-1,3.86559E-1,1.0008951E0,-3.8753E-1,2.1891239E0,1.6828234E0,7.267205E-1,-4.84748E-1,-6.1608225E-1,-4.4869655E-1,-2.3723087E-1,1.2088548E0,-3.564299E-1,-6.7663826E-2,-2.888264E-1,-4.2885104E-1,-2.014734E-1,6.0030114E-2,-3.7517425E-1,-3.5309875E-1,4.9023828E-1,3.9454645E-1,1.1907636E0,1.4221172E-1,-5.817306E-1,4.3285817E-1,-4.6510446E-1,1.1546758E0,-5.3728914E-1,2.649804E-1,-5.599169E-1,1.2693743E0,2.3807862E0,-7.807937E-1,9.241417E-1,-5.420185E-1,-3.7848276E-1,-4.1802797E-1,-5.2349687E-1,-3.120885E-1,-1.1011924E-1,-4.5610836E-1,-2.780969E-1,-1.5753306E-1,2.7557056E-2,-3.9960107E-1,-1.9238603E-1,-4.4996017E-1,5.216786E-1,-1.5043046E-1,-6.19142E-1,2.0529772E-3,2.0558001E-1,-1.0968336E-1,-5.712593E-1,-4.093414E-1,-9.553747E-2,-8.963858E-2,8.5223144E-1,2.1057771E-1,1.512122E0,4.6579662E-1,1.3125381E0,-6.627634E-1,2.6584005E-1,-3.03038E-1,-8.846339E-1,-3.1047337E-2,5.03356E-1,2.701197E-1,-6.050045E-1,-3.1868392E-1,1.233956E0,1.081566E-1,-6.566604E-1,7.656652E-1,1.7208599E0,8.645822E-1,2.6808813E0,1.0101072E0,4.537821E-2],"categories":[],"categories_nodes":[],"categories_segments":[],"categories_sizes":[],"default_left":[1,1,1,1,1,1,1,1,1,1,1,1,1,1,1,1,1,1,1,1,1,1,1,1,1,1,1,1,1,1,1,1,1,1,1,1,1,1,1,1,1,1,1,1,1,1,1,1,1,1,1,1,1,1,1,1,1,1,1,1,1,1,1,1,1,1,1,1,1,1,1,1,1,1,1,1,1,1,1,1,1,1,1,1,1,1,1,1,1,1,1,1,1,1,1,1,1,1,1,1,1,1,1,1,1],"id":10,"left_children":[1,3,-1,-1,-1,-1,-1,-1,-1,-1,-1,-1,-1,-1,-1,-1,-1,-1,-1,-1,-1,-1,-1,-1,-1,-1,-1,-1,-1,-1,-1,-1,-1,-1,-1,-1,-1,-1,-1,-1,-1,-1,-1,-1,-1,-1,-1,-1,-1,-1,-1,-1,-1,-1,-1,-1,-1,-1,-1,-1,-1,-1,-1,-1,-1,-1,-1,-1,-1,-1,-1,-1,-1,-1,-1,-1,-1,-1,-1,-1,-1,-1,-1,-1,-1,-1,-1,-1,-1,-1,-1,-1,-1,-1,-1,-1,-1,-1,-1,-1,-1,-1,-1,-1,-1],"loss_changes":[1.159447E2,2.8109177E1,2.2511673E1,1.5987106E1,1.834797E1,1.6427387E1,1.8255543E1,3.8731384E0,1.3605309E1,1.1215668E1,7.250208E0,2.8459814E0,7.800148E0,1.0242929E1,6.0408707E0,4.377365E-1,4.019802E0,4.2924957E0,6.7944117E0,1.6075306E0,4.8508997E0,1.5254216E0,6.474474E0,2.618608E0,0E0,5.8312836E0,6.362585E0,1.3335238E0,0E0,5.8931885E0,4.0891123E0,3.945675E-1,0E0,2.9015732E-1,1.5786858E0,0E0,3.004589E0,4.9051676E0,1.9020605E0,1.5080557E0,1.3069632E0,2.7489471E0,1.397109E0,1.1067617E-1,6.4886636E-1,5.4609165E0,1.0823269E0,1.3152604E0,5.284064E-1,4.486452E0,9.3303025E-1,2.9778194E0,0E0,0E0,6.25577E-1,3.4487839E0,2.6047783E0,0E0,7.791977E-1,0E0,0E0,0E0,0E0,0E0,0E0,0E0,0E0,0E0,0E0,0E0,0E0,0E0,0E0,0E0,0E0,0E0,0E0,0E0,0E0,0E0,0E0,0E0,0E0,0E0,0E0,0E0,0E0,0E0,0E0,0E0,0E0,0E0,0E0,0E0,0E0,0E0,0E0,0E0,0E0,0E0,0E0,0E0,0E0,0E0,0E0],"parents":[2147483647,0,0,1,1,2,2,3,3,4,4,5,5,6,6,7,7,8,8,9,9,10,10,11,11,12,12,13,13,14,14,15,15,16,16,17,17,18,18,19,19,20,20,21,21,22,22,23,23,25,25,26,26,27,27,29,29,30,30,31,31,33,33,34,34,36,36,37,37,38,38,39,39,40,40,41,41,42,42,43,43,44,44,45,45,46,46,47,47,48,48,49,49,50,50,51,51,54,54,55,55,56,56,58,58],"right_children":[2,4,-1,-1,-1,-1,-1,-1,-1,-1,-1,-1,-1,-1,-1,-1,-1,-1,-1,-1,-1,-1,-1,-1,-1,-1,-1,-1,-1,-1,-1,-1,-1,-1,-1,-1,-1,-1,-1,-1,-1,-1,-1,-1,-1,-1,-1,-1,-1,-1,-1,-1,-1,-1,-1,-1,-1,-1,-1,-1,-1,-1,-1,-1,-1,-1,-1,-1,-1,-1,-1,-1,-1,-1,-1,-1,-1,-1,-1,-1,-1,-1,-1,-1,-1,-1,-1,-1,-1,-1,-1,-1,-1,-1,-1,-1,-1,-1,-1,-1,-1,-1,-1,-1,-1],"split_conditions":[1.2727007E0,3.6876433E-2,6.479349E-2,-3.2954372E-2,-4.761528E-4,4.521571E-2,1.380762E-1,-5.075235E-2,-2.4774501E-2,-8.239974E-3,6.6566676E-2,-4.7014326E-2,5.9180923E-2,-2.5631574E-3,1.7699789E-1,-6.709304E-2,-4.3644737E-2,-4.3234874E-2,-1.5007609E-2,-3.92706E-2,3.1953056E-3,-2.1850085E-2,8.8666335E-2,-2.146362E-2,-1.1588088E-1,4.7740035E-2,1.2361055E-1,-4.785995E-2,2.703568E-1,2.0782869E-1,8.9749984E-2,-5.9866376E-2,-7.6086156E-2,-5.5414025E-2,-2.9298011E-2,1.4929356E-1,-4.4019092E-2,-8.356483E-3,-3.567006E-2,-5.29631E-2,-2.4881965E-2,7.413719E-3,-4.633402E-2,-4.3607693E-2,6.0544427E-2,4.8726484E-2,1.470593E-1,1.7563147E-2,-7.184373E-2,5.3457983E-2,-5.74404E-2,1.4260246E-1,-6.6355206E-2,3.272508E-2,-6.914974E-2,1.5676771E-1,2.940271E-1,-9.642802E-2,1.14131495E-1,-6.693928E-2,-4.6742618E-2,-5.162645E-2,-6.465186E-2,-3.8542926E-2,-1.3599725E-2,-5.632938E-2,-3.4344967E-2,-1.9455332E-2,3.4032965E-3,-4.935073E-2,-2.3759674E-2,-5.557008E-2,6.442731E-2,-1.857816E-2,-7.6464035E-2,2.5354268E-4,2.5389131E-2,-1.3545894E-2,-7.055052E-2,-5.055366E-2,-1.1798877E-2,-1.1070365E-2,1.0525058E-1,2.6006347E-2,1.8674707E-1,5.752588E-2,1.6209845E-1,-8.185128E-2,3.2831244E-2,-3.7425194E-2,-1.0925228E-1,-3.834346E-3,6.2164463E-2,3.335978E-2,-7.471805E-2,-3.9357465E-2,1.5239356E-1,1.3357339E-2,-8.109756E-2,9.455965E-2,2.1252619E-1,1.06775895E-1,3.3108884E-1,1.2474823E-1,5.6042084E-3],"split_indices":[0,0,3,2,7,2147483647,2147483647,2147483647,2147483647,2147483647,2147483647,2147483647,2147483647,2147483647,2147483647,2147483647,2147483647,2147483647,2147483647,2147483647,2147483647,2147483647,2147483647,2147483647,2147483647,2147483647,2147483647,2147483647,2147483647,2147483647,2147483647,2147483647,2147483647,2147483647,2147483647,2147483647,2147483647,2147483647,2147483647,2147483647,2147483647,2147483647,2147483647,2147483647,2147483647,2147483647,2147483647,2147483647,2147483647,2147483647,2147483647,2147483647,2147483647,2147483647,2147483647,2147483647,2147483647,2147483647,2147483647,2147483647,2147483647,2147483647,2147483647,2147483647,2147483647,2147483647,2147483647,2147483647,2147483647,2147483647,2147483647,2147483647,2147483647,2147483647,2147483647,2147483647,2147483647,2147483647,2147483647,2147483647,2147483647,2147483647,2147483647,2147483647,2147483647,2147483647,2147483647,2147483647,2147483647,2147483647,2147483647,2147483647,2147483647,2147483647,2147483647,2147483647,2147483647,2147483647,2147483647,2147483647,2147483647,2147483647,2147483647,2147483647,2147483647],"split_type":[0,0,0,0,0,0,0,0,0,0,0,0,0,0,0,0,0,0,0,0,0,0,0,0,0,0,0,0,0,0,0,0,0,0,0,0,0,0,0,0,0,0,0,0,0,0,0,0,0,0,0,0,0,0,0,0,0,0,0,0,0,0,0,0,0,0,0,0,0,0,0,0,0,0,0,0,0,0,0,0,0,0,0,0,0,0,0,0,0,0,0,0,0,0,0,0,0,0,0,0,0,0,0,0,0],"sum_hessian":[2.459E3,2.217E3,2.42E2,1.681E3,5.36E2,1.92E2,5E1,5.28E2,1.153E3,4.81E2,5.5E1,2.5E1,1.67E2,1.1E1,3.9E1,1.58E2,3.7E2,3.98E2,7.55E2,1.29E2,3.52E2,1.1E1,4.4E1,1.9E1,6E0,1.43E2,2.4E1,1E1,1E0,2.8E1,1.1E1,9.1E1,6.7E1,2.02E2,1.68E2,1E0,3.97E2,5.72E2,1.83E2,6.5E1,6.4E1,3.25E2,2.7E1,9E0,2E0,2.7E1,1.7E1,1.1E1,8E0,1.36E2,7E0,2.2E1,2E0,2E0,8E0,1.9E1,9E0,1E0,1E1,5.7E1,3.4E1,1.47E2,5.5E1,1.05E2,6.3E1,1.73E2,2.24E2,2.94E2,2.78E2,8.4E1,9.9E1,6.4E1,1E0,5.8E1,6E0,2.33E2,9.2E1,1.2E1,1.5E1,7E0,2E0,1E0,1E0,2.4E1,3E0,3E0,1.4E1,1E0,1E1,5E0,3E0,1.8E1,1.18E2,1E0,6E0,1E0,2.1E1,1E0,7E0,1E1,9E0,2E0,7E0,9E0,1E0],"tree_param":{"num_deleted":"100","num_feature":"9","num_nodes":"105","size_leaf_vector":"0"}},{"base_weights":[-1.22908585E-1,-2.2929873E-1,1.3043028E-1,-3.8301215E-1,-1.7628266E-1,1.3182012E-2,5.059937E-1,-4.9854705E-1,-3.25799E-1,-3.753802E-1,-1.3030513E-1,-2.5906804E-1,1.2720048E-1,4.1345206E-1,1.7562923E0,-4.8317072E-1,-9.7546166E-1,-3.913392E-1,-1.9588095E-1,-3.5487095E-1,-5.8161426E-1,-8.125432E-2,-3.1724155E-1,-3.671628E-1,-9.032632E-2,1.9453588E-1,-2.7741793E-1,-4.1691862E-2,6.0801136E-1,4.0521738E-1,2.1800482E0,-5.2851063E-1,-3.7353992E-1,-4.0408662E-1,-1.9610092E-1,-3.2425088E-1,-1.3147397E-1,-4.0932876E-1,-2.8136227E-1,-1.1012571E-1,1.8735953E-1,-3.2357386E-1,5.9348106E-1,-3.3314025E-1,-6.2600696E-1,-1.9546239E-1,3.171698E-1,2.8176665E-1,-1.22927494E-1,9.146253E-3,-3.7132484E-1,8.500851E-2,-1.0145924E0,3.208346E-1,8.335497E-1,-1.2500903E-1,1.0499173E0,2.4573765E0,9.381771E-3,-3.1803426E-1,-5.440813E-1,-4.446483E-1,-8.328366E-2,-4.5748118E-1,-3.6581373E-1,3.207658E-1,-2.56529E-1,-3.9452067E-1,1.1758178E-3,-3.9199334E-1,-8.775244E-2,-4.8862523E-1,-3.784386E-1,-3.7627047E-1,-2.16019E-1,-1.6771135E-1,-9.2996453E-4,1.7529225E-2,3.752121E-1,-2.7432168E-1,-4.1545698E-1,-4.3649045E-1,-1.5679531E-1,-2.1221958E-1,-7.007569E-1,-2.2808304E-1,5.203994E-2,-3.536508E-1,4.548445E-1,2.3124954E-1,6.245325E-1,-1.735096E-1,3.9586794E-1,-1.4611098E-1,7.1628034E-1,-1.1421221E-1,-4.931376E-1,-2.29815E-1,3.463118E-1,-5.9263736E-1,-1.2973621E0,-6.836256E-1,3.7215632E-1,6.6304934E-1,1.412867E0],"categories":[],"categories_nodes":[],"categories_segments":[],"categories_sizes":[],"default_left":[1,1,1,1,1,1,1,1,1,1,1,1,1,1,1,1,1,1,1,1,1,1,1,1,1,1,1,1,1,1,1,1,1,1,1,1,1,1,1,1,1,1,1,1,1,1,1,1,1,1,1,1,1,1,1,1,1,1,1,1,1,1,1,1,1,1,1,1,1,1,1,1,1,1,1,1,1,1,1,1,1,1,1,1,1,1,1,1,1,1,1,1,1,1,1,1,1,1,1,1,1,1,1,1,1],"id":11,"left_children":[1,-1,5,-1,-1,-1,-1,-1,-1,-1,-1,-1,-1,-1,-1,-1,-1,-1,-1,-1,-1,-1,-1,-1,-1,-1,-1,-1,-1,-1,-1,-1,-1,-1,-1,-1,-1,-1,-1,-1,-1,-1,-1,-1,-1,-1,-1,-1,-1,-1,-1,-1,-1,-1,-1,-1,-1,-1,-1,-1,-1,-1,-1,-1,-1,-1,-1,-1,-1,-1,-1,-1,-1,-1,-1,-1,-1,-1,-1,-1,-1,-1,-1,-1,-1,-1,-1,-1,-1,-1,-1,-1,-1,-1,-1,-1,-1,-1,-1,-1,-1,-1,-1,-1,-1],"loss_changes":[6.694223E1,1.4197449E1,3.2350964E1,2.8300705E0,1.187756E1,1.7434456E1,1.964426E1,6.994591E-1,2.5084572E0,8.6608505E-1,9.687922E0,2.997676E0,1.0826801E1,1.4525173E1,6.0490913E0,5.568428E-1,0E0,4.338665E-1,8.158376E-1,8.0376434E-1,0E0,6.52937E0,1.4212074E0,7.208605E-1,2.8686352E0,9.437646E0,1.5312252E0,6.2076883E0,7.2215767E0,1.4039798E0,5.279045E0,1.886406E-1,8.950305E-1,2.4785423E-1,4.9684763E-1,7.7329826E-1,7.6752484E-1,1.626606E-1,5.4149246E-1,4.77129E0,2.6044085E0,8.9899254E-1,0E0,1.6001043E0,2.1507835E-1,4.3578625E-1,1.4031848E0,4.5042458E0,1.9915919E0,1.7085828E0,1.2954206E0,3.7491164E0,7.694149E-2,2.8738542E0,5.55233E0,0E0,0E0,0E0,0E0,0E0,0E0,0E0,0E0,0E0,0E0,0E0,0E0,0E0,0E0,0E0,0E0,0E0,0E0,0E0,0E0,0E0,0E0,0E0,0E0,0E0,0E0,0E0,0E0,0E0,0E0,0E0,0E0,0E0,0E0,0E0,0E0,0E0,0E0,0E0,0E0,0E0,0E0,0E0,0E0,0E0,0E0,0E0,0E0,0E0,0E0],"parents":[2147483647,0,0,1,1,2,2,3,3,4,4,5,5,6,6,7,7,8,8,9,9,10,10,11,11,12,12,13,13,14,14,15,15,17,17,18,18,19,19,21,21,22,22,23,23,24,24,25,25,26,26,27,27,28,28,29,29,30,30,31,31,32,32,33,33,34,34,35,35,36,36,37,37,38,38,39,39,40,40,41,41,43,43,44,44,45,45,46,46,47,47,48,48,49,49,50,50,51,51,52,52,53,53,54,54],"right_children":[2,-1,6,-1,-1,-1,-1,-1,-1,-1,-1,-1,-1,-1,-1,-1,-1,-1,-1,-1,-1,-1,-1,-1,-1,-1,-1,-1,-1,-1,-1,-1,-1,-1,-1,-1,-1,-1,-1,-1,-1,-1,-1,-1,-1,-1,-1,-1,-1,-1,-1,-1,-1,-1,-1,-1,-1,-1,-1,-1,-1,-1,-1,-1,-1,-1,-1,-1,-1,-1,-1,-1,-1,-1,-1,-1,-1,-1,-1,-1,-1,-1,-1,-1,-1,-1,-1,-1,-1,-1,-1,-1,-1,-1,-1,-1,-1,-1,-1,-1,-1,-1,-1,-1,-1],"split_conditions":[3.9736748E-1,-2.8318392E-2,1.422086E0,-4.7302E-2,-2.1770908E-2,1.6279785E-3,6.2490225E-2,-6.157056E-2,-4.0236175E-2,-4.6359453E-2,-1.6092682E-2,-3.19949E-2,1.5709259E-2,5.106133E-2,2.1690209E-1,-5.967158E-2,-1.2046951E-1,-4.8330393E-2,-2.4191298E-2,-4.382656E-2,-7.1829356E-2,-1.0034908E-2,-3.917933E-2,-4.5344602E-2,-1.11553E-2,2.4025181E-2,-3.4261115E-2,-5.148945E-3,7.50894E-2,5.0044347E-2,2.6923594E-1,-6.5271065E-2,-4.613218E-2,-4.9904697E-2,-2.4218462E-2,-4.0044982E-2,-1.6237035E-2,-5.05521E-2,-3.4748238E-2,-1.3600525E-2,2.3138901E-2,-3.996137E-2,7.329491E-2,-4.114282E-2,-7.731186E-2,-2.4139605E-2,3.9170466E-2,3.4798183E-2,-1.5181545E-2,1.1295622E-3,-4.5858618E-2,1.0498551E-2,-1.2530217E-1,3.9623074E-2,1.0294338E-1,-1.5438614E-2,1.296648E-1,3.03486E-1,1.1586488E-3,-3.927723E-2,-6.719404E-2,-5.4914065E-2,-1.0285532E-2,-5.6498922E-2,-4.5177996E-2,3.9614573E-2,-3.1681333E-2,-4.8723303E-2,1.4521349E-4,-4.8411176E-2,-1.0837426E-2,-6.0345214E-2,-4.6737164E-2,-4.64694E-2,-2.6678346E-2,-2.0712351E-2,-1.1485062E-4,2.1648593E-3,4.6338692E-2,-3.3878725E-2,-5.1308937E-2,-5.3906567E-2,-1.936422E-2,-2.6209118E-2,-8.654348E-2,-2.8168255E-2,6.4269323E-3,-4.3675873E-2,5.6173295E-2,2.8559318E-2,7.712977E-2,-2.1428434E-2,4.888969E-2,-1.8044706E-2,8.846062E-2,-1.4105207E-2,-6.090249E-2,-2.8382152E-2,4.2769507E-2,-7.319071E-2,-1.6022421E-1,-8.442776E-2,4.5961305E-2,8.188659E-2,1.7448907E-1],"split_indices":[1,5,0,2147483647,2147483647,2,0,2147483647,2147483647,2147483647,2147483647,2147483647,2147483647,2147483647,2147483647,2147483647,2147483647,2147483647,2147483647,2147483647,2147483647,2147483647,2147483647,2147483647,2147483647,2147483647,2147483647,2147483647,2147483647,2147483647,2147483647,2147483647,2147483647,2147483647,2147483647,2147483647,2147483647,2147483647,2147483647,2147483647,2147483647,2147483647,2147483647,2147483647,2147483647,2147483647,2147483647,2147483647,2147483647,2147483647,2147483647,2147483647,2147483647,2147483647,2147483647,2147483647,2147483647,2147483647,2147483647,2147483647,2147483647,2147483647,2147483647,2147483647,2147483647,2147483647,2147483647,2147483647,2147483647,2147483647,2147483647,2147483647,2147483647,2147483647,2147483647,2147483647,2147483647,2147483647,2147483647,2147483647,2147483647,2147483647,2147483647,2147483647,2147483647,2147483647,2147483647,2147483647,2147483647,2147483647,2147483647,2147483647,2147483647,2147483647,2147483647,2147483647,2147483647,2147483647,2147483647,2147483647,2147483647,2147483647,2147483647,2147483647,2147483647],"split_type":[0,0,0,0,0,0,0,0,0,0,0,0,0,0,0,0,0,0,0,0,0,0,0,0,0,0,0,0,0,0,0,0,0,0,0,0,0,0,0,0,0,0,0,0,0,0,0,0,0,0,0,0,0,0,0,0,0,0,0,0,0,0,0,0,0,0,0,0,0,0,0,0,0,0,0,0,0,0,0,0,0,0,0,0,0,0,0,0,0,0,0,0,0,0,0,0,0,0,0,0,0,0,0,0,0],"sum_hessian":[2.482E3,1.748E3,7.34E2,4.47E2,1.301E3,5.6E2,1.74E2,1.46E2,3.01E2,2.43E2,1.058E3,1.65E2,3.95E2,1.63E2,1.1E1,1.43E2,3E0,1.99E2,1.02E2,2.23E2,2E1,8.39E2,2.19E2,1E2,6.5E1,3.39E2,5.6E1,4.9E1,1.14E2,3E0,8E0,9.9E1,4.4E1,1.86E2,1.3E1,3.3E1,6.9E1,1.26E2,9.7E1,7.58E2,8.1E1,2.18E2,1E0,9E1,1E1,5.2E1,1.3E1,2.66E2,7.3E1,1.4E1,4.2E1,4.4E1,5E0,5.1E1,6.3E1,2E0,1E0,7E0,1E0,8E0,9.1E1,3.5E1,9E0,7.4E1,1.12E2,1E0,1.2E1,2.7E1,6E0,9E0,6E1,3.2E1,9.4E1,3.8E1,5.9E1,4.96E2,2.62E2,4.3E1,3.8E1,1.44E2,7.4E1,5.6E1,3.4E1,2E0,8E0,4.6E1,6E0,2E0,1.1E1,2.33E2,3.3E1,6.7E1,6E0,1.2E1,2E0,1.4E1,2.8E1,2E1,2.4E1,3E0,2E0,2E0,4.9E1,5E1,1.3E1],"tree_param":{"num_deleted":"100","num_feature":"9","num_nodes":"105","size_leaf_vector":"0"}},{"base_weights":[-9.99726E-2,-1.493194E-1,4.5407555E-1,-3.5012358E-1,-8.9253455E-2,3.444374E-1,2.0771205E0,-4.66813E-1,-2.726954E-1,-2.2696908E-1,4.2605072E-2,1.2723729E-1,8.758822E-1,2.2570124E0,-2.533502E-2,-4.961313E-1,-3.0797368E-1,-2.8473005E-1,7.880251E-1,-3.9446455E-1,-1.8884324E-1,1.2170512E-1,-2.014107E-1,-8.873269E-2,3.5784888E-1,1.303132E0,4.0805846E-1,-5.7795966E-1,-4.6530572E-1,-5.6868416E-1,-1.508038E-1,-3.8950798E-1,-1.7983805E-1,1.0149555E0,8.47888E-2,-4.4633433E-1,-3.5513327E-1,-3.652735E-1,-1.4199173E-1,-8.590734E-3,2.6658893E-1,-3.537295E-2,-2.826772E-1,-3.8048607E-1,2.3021168E-1,5.8399564E-1,4.3238707E-2,1.3612943E0,-1.7432047E-1,6.675103E-1,-6.681395E-1,-3.2412335E-1,-6.033336E-1,-4.1726932E-1,-5.6426394E-1,-3.7898964E-1,-8.2167685E-1,-8.4805274E-1,-5.114323E-2,-3.53759E-1,-4.9936178E-1,-7.434071E-1,-1.5779302E-1,-3.0247563E-1,-4.2182148E-1,1.4684717E-1,-3.6956233E-1,-1.6554023E-1,4.6480283E-2,-4.0949497E-2,7.0005065E-1,4.8679683E-1,5.954561E-2,-7.465384E-2,9.82008E-1,-2.9644334E-1,5.198272E-1,-3.3294186E-1,-1.1833959E0,-7.328567E-2,6.963039E-1,4.4992635E-1,1.7241232E0,3.8284078E-1,-2.5556505E-1,1.4262432E0,3.7389427E-1,2.697167E-1,1.4048346E0,9.585685E-2,-8.4328157E-1],"categories":[],"categories_nodes":[],"categories_segments":[],"categories_sizes":[],"default_left":[1,1,1,1,1,1,1,1,1,1,1,1,1,1,1,1,1,1,1,1,1,1,1,1,1,1,1,1,1,1,1,1,1,1,1,1,1,1,1,1,1,1,1,1,1,1,1,1,1,1,1,1,1,1,1,1,1,1,1,1,1,1,1,1,1,1,1,1,1,1,1,1,1,1,1,1,1,1,1,1,1,1,1,1,1,1,1,1,1,1,1],"id":12,"left_children":[1,3,5,-1,9,-1,-1,-1,-1,-1,-1,-1,-1,-1,-1,-1,-1,-1,-1,-1,-1,-1,-1,-1,-1,-1,-1,-1,-1,-1,-1,-1,-1,-1,-1,-1,-1,-1,-1,-1,-1,-1,-1,-1,-1,-1,-1,-1,-1,-1,-1,-1,-1,-1,-1,-1,-1,-1,-1,-1,-1,-1,-1,-1,-1,-1,-1,-1,-1,-1,-1,-1,-1,-1,-1,-1,-1,-1,-1,-1,-1,-1,-1,-1,-1,-1,-1,-1,-1,-1,-1],"loss_changes":[6.845471E1,2.7689896E1,3.5871334E1,4.6758957E0,3.21455E1,2.2165722E1,4.886894E0,8.547821E-1,4.261879E0,5.469326E0,1.7483751E1,6.8885565E0,1.0727768E1,0E0,0E0,2.2829819E-1,1.3573511E0,3.4257107E0,5.3758025E-1,1.9920158E-1,5.800932E0,1.2910444E1,2.9848166E0,6.751286E0,4.7324905E0,2.6646805E0,8.119151E0,1.3210583E-1,4.3816376E-1,3.651638E-1,1.5496342E0,4.7838402E-1,1.8914948E0,0E0,0E0,0E0,2.3083115E-1,3.6804008E-1,2.4906797E0,8.296351E0,1.4739689E1,3.0079648E0,1.7671318E0,1.1277642E0,4.9635525E0,5.310235E0,3.0007348E0,1.3562164E0,0E0,6.384179E0,8.407531E-1,0E0,0E0,0E0,0E0,0E0,0E0,0E0,0E0,0E0,0E0,0E0,0E0,0E0,0E0,0E0,0E0,0E0,0E0,0E0,0E0,0E0,0E0,0E0,0E0,0E0,0E0,0E0,0E0,0E0,0E0,0E0,0E0,0E0,0E0,0E0,0E0,0E0,0E0,0E0,0E0],"parents":[2147483647,0,0,1,1,2,2,3,3,4,4,5,5,6,6,7,7,8,8,9,9,10,10,11,11,12,12,15,15,16,16,17,17,18,18,19,19,20,20,21,21,22,22,23,23,24,24,25,25,26,26,27,27,28,28,29,29,30,30,31,31,32,32,36,36,37,37,38,38,39,39,40,40,41,41,42,42,43,43,44,44,45,45,46,46,47,47,49,49,50,50],"right_children":[2,4,6,-1,10,-1,-1,-1,-1,-1,-1,-1,-1,-1,-1,-1,-1,-1,-1,-1,-1,-1,-1,-1,-1,-1,-1,-1,-1,-1,-1,-1,-1,-1,-1,-1,-1,-1,-1,-1,-1,-1,-1,-1,-1,-1,-1,-1,-1,-1,-1,-1,-1,-1,-1,-1,-1,-1,-1,-1,-1,-1,-1,-1,-1,-1,-1,-1,-1,-1,-1,-1,-1,-1,-1,-1,-1,-1,-1,-1,-1,-1,-1,-1,-1,-1,-1,-1,-1,-1,-1],"split_conditions":[1.4251404E0,-8.2362616E-1,4.3962126E0,-4.324026E-2,-4.5202106E-1,4.2538017E-2,2.5652438E-1,-5.7651404E-2,-3.367788E-2,-2.803068E-2,5.261726E-3,1.5713805E-2,1.0817145E-1,2.7874103E-1,-3.1288748E-3,-6.1272215E-2,-3.803475E-2,-3.516416E-2,9.732109E-2,-4.871637E-2,-2.3322139E-2,1.5030582E-2,-2.487422E-2,-1.0958487E-2,4.4194337E-2,1.609368E-1,5.039522E-2,-7.1378015E-2,-5.7465255E-2,-7.0232496E-2,-1.8624268E-2,-4.8104234E-2,-2.2209998E-2,1.25347E-1,1.0471417E-2,-5.512229E-2,-4.3858957E-2,-4.5111276E-2,-1.7535979E-2,-1.0609556E-3,3.2923732E-2,-4.3685595E-3,-3.4910634E-2,-4.699003E-2,2.8431142E-2,7.212346E-2,5.33998E-3,1.6811983E-1,-2.1528577E-2,8.2437515E-2,-8.2515225E-2,-4.002923E-2,-7.45117E-2,-5.153276E-2,-6.968659E-2,-4.6805218E-2,-1.0147709E-1,-1.0473451E-1,-6.3161887E-3,-4.3689236E-2,-6.167118E-2,-9.181077E-2,-1.9487437E-2,-3.735574E-2,-5.209495E-2,1.8135626E-2,-4.5640945E-2,-2.0444218E-2,5.7403147E-3,-5.0572627E-3,8.6456254E-2,6.0119405E-2,7.353883E-3,-9.219749E-3,1.2127798E-1,-3.6610752E-2,6.419866E-2,-4.111832E-2,-1.4614938E-1,-9.05078E-3,8.599353E-2,5.55659E-2,2.1292922E-1,4.7280837E-2,-3.1562284E-2,1.7614102E-1,4.617594E-2,3.331001E-2,1.7349707E-1,1.1838321E-2,-1.0414527E-1],"split_indices":[3,5,0,2,0,2,2,2147483647,2147483647,2,8,2147483647,2147483647,2147483647,2147483647,2147483647,2147483647,2147483647,2147483647,2147483647,2147483647,2147483647,2147483647,2147483647,2147483647,2147483647,2147483647,2147483647,2147483647,2147483647,2147483647,2147483647,2147483647,2147483647,2147483647,2147483647,2147483647,2147483647,2147483647,2147483647,2147483647,2147483647,2147483647,2147483647,2147483647,2147483647,2147483647,2147483647,2147483647,2147483647,2147483647,2147483647,2147483647,2147483647,2147483647,2147483647,2147483647,2147483647,2147483647,2147483647,2147483647,2147483647,2147483647,2147483647,2147483647,2147483647,2147483647,2147483647,2147483647,2147483647,2147483647,2147483647,2147483647,2147483647,2147483647,2147483647,2147483647,2147483647,2147483647,2147483647,2147483647,2147483647,2147483647,2147483647,2147483647,2147483647,2147483647,2147483647,2147483647,2147483647,2147483647],"split_type":[0,0,0,0,0,0,0,0,0,0,0,0,0,0,0,0,0,0,0,0,0,0,0,0,0,0,0,0,0,0,0,0,0,0,0,0,0,0,0,0,0,0,0,0,0,0,0,0,0,0,0,0,0,0,0,0,0,0,0,0,0,0,0,0,0,0,0,0,0,0,0,0,0,0,0,0,0,0,0,0,0,0,0,0,0,0,0,0,0,0,0],"sum_hessian":[2.501E3,2.297E3,2.04E2,5.28E2,1.769E3,1.92E2,1.2E1,2.09E2,3.19E2,8.65E2,9.04E2,1.37E2,5.5E1,1.1E1,1E0,1.75E2,3.4E1,3.16E2,3E0,1.59E2,7.06E2,6.83E2,2.21E2,7.1E1,6.6E1,2.8E1,2.7E1,4.4E1,1.31E2,1.2E1,2.2E1,1.57E2,1.59E2,2E0,1E0,6.5E1,9.4E1,1.47E2,5.59E2,3.6E2,3.23E2,7.3E1,1.48E2,3.7E1,3.4E1,3.8E1,2.8E1,2.7E1,1E0,2.2E1,5E0,5E0,3.9E1,9.1E1,4E1,8E0,4E0,2E0,2E1,1.21E2,3.6E1,5E0,1.54E2,5.5E1,3.9E1,1E0,1.46E2,4.97E2,6.2E1,3.45E2,1.5E1,1.56E2,1.67E2,7.1E1,2E0,1.46E2,2E0,3.6E1,1E0,2.1E1,1.3E1,3.5E1,3E0,1.3E1,1.5E1,2.5E1,2E0,1.5E1,7E0,1E0,4E0],"tree_param":{"num_deleted":"82","num_feature":"9","num_nodes":"91","size_leaf_vector":"0"}},{"base_weights":[-8.8687256E-2,-1.867068E-1,1.1797522E-1,-3.2112208E-1,-1.18711255E-1,7.5620465E-2,1.0118874E0,-4.549401E-1,-2.7358106E-1,-3.0451912E-1,-6.612619E-2,2.672089E-2,6.6745996E-1,1.2107145E0,-4.7398978E-1,-4.0085036E-1,-5.2528465E-1,-3.4480083E-1,-1.5892382E-1,-3.63618E-1,-2.2671354E-1,-2.1376032E-2,-2.5808138E-1,-3.1943303E-1,9.021646E-2,3.8864037E-1,1.3294058E0,7.424253E-1,1.8594297E0,7.571978E-1,-9.5739657E-1,-1.9079123E-1,-4.2970088E-1,-4.8265982E-1,-6.8686926E-1,-4.0981653E-1,-3.0628252E-1,-2.3511076E-1,-2.7101588E-2,-3.771358E-1,-1.7672226E-1,-1.8037824E-1,-3.1218916E-1,-8.284949E-2,1.1076667E-1,-2.2458667E-1,-4.4755995E-1,-2.7906448E-1,-9.9783164E-1,-2.692608E-1,1.4998749E-1,2.730128E-1,1.4874398E0,4.0852317E-1,1.3670049E0,-9.916413E-2,1.2088673E0,2.0352528E0,-1.1960215E-1,-1.2028078E0,-1.5013622E-1,-2.6446337E-1,1.9984521E-2,-5.290894E-1,-3.8027248E-1,-7.407188E-1,-3.213796E-1,-5.395283E-1,-3.8327676E-1,-2.7811944E-1,-3.7836176E-1,-2.9306027E-1,-1.3079284E-1,-2.7398774E-1,5.3151608E-2,-1.1413008E-1,-3.8710102E-1,-2.775903E-1,-8.473043E-2,-3.5295925E-1,-1.1292738E-1,-2.71954E-1,-4.154871E-1,-1.0986629E-1,1.16389304E-1,1.6685325E-1,-2.320668E-1,-4.4258732E-1,-1.9179118E-1,-1.6199416E-2,-4.6591088E-1,-4.0889695E-1,-1.2603363E-1,-1.2792936E-1,-6.0706496E-1,1.1078994E-2,2.636443E-1,3.5866362E-1,-5.9138465E-1,1.6990093E0,4.972472E-1,9.112633E-1,-5.7327884E-1,2.119891E0,7.569303E-1],"categories":[],"categories_nodes":[],"categories_segments":[],"categories_sizes":[],"default_left":[1,1,1,1,1,1,1,1,1,1,1,1,1,1,1,1,1,1,1,1,1,1,1,1,1,1,1,1,1,1,1,1,1,1,1,1,1,1,1,1,1,1,1,1,1,1,1,1,1,1,1,1,1,1,1,1,1,1,1,1,1,1,1,1,1,1,1,1,1,1,1,1,1,1,1,1,1,1,1,1,1,1,1,1,1,1,1,1,1,1,1,1,1,1,1,1,1,1,1,1,1,1,1,1,1],"id":13,"left_children":[1,-1,5,-1,-1,-1,-1,-1,-1,-1,-1,-1,-1,-1,-1,-1,-1,-1,-1,-1,-1,-1,-1,-1,-1,-1,-1,-1,-1,-1,-1,-1,-1,-1,-1,-1,-1,-1,-1,-1,-1,-1,-1,-1,-1,-1,-1,-1,-1,-1,-1,-1,-1,-1,-1,-1,-1,-1,-1,-1,-1,-1,-1,-1,-1,-1,-1,-1,-1,-1,-1,-1,-1,-1,-1,-1,-1,-1,-1,-1,-1,-1,-1,-1,-1,-1,-1,-1,-1,-1,-1,-1,-1,-1,-1,-1,-1,-1,-1,-1,-1,-1,-1,-1,-1],"loss_changes":[4.990647E1,1.5240017E1,2.9955336E1,3.468155E0,1.0837206E1,2.1916992E1,1.103558E1,3.8630676E-1,3.3515282E0,1.0596943E0,7.4414196E0,1.54261055E1,1.025444E1,8.556015E0,3.4367404E0,4.5438766E-1,1.5354156E-1,5.40184E-1,1.609838E0,2.948227E-1,3.8189602E-1,5.7244983E0,9.5914936E-1,2.7568283E0,1.2769403E1,4.9858813E0,1.3492393E-1,7.8684454E0,4.6486206E0,0E0,6.0835266E-1,1.8746209E-1,2.0650578E-1,0E0,2.2118092E-2,1.5403461E-1,2.4832535E-1,5.8473444E-1,1.1964917E0,2.9960632E-1,8.1397325E-2,8.039179E-1,6.255412E-2,2.5982778E0,4.3342824E0,9.387326E-1,1.823597E-1,2.0211096E0,0E0,3.9864216E0,8.030545E0,3.0422976E0,1.2021732E-1,0E0,0E0,4.154583E0,3.986395E0,0E0,0E0,0E0,0E0,0E0,0E0,0E0,0E0,0E0,0E0,0E0,0E0,0E0,0E0,0E0,0E0,0E0,0E0,0E0,0E0,0E0,0E0,0E0,0E0,0E0,0E0,0E0,0E0,0E0,0E0,0E0,0E0,0E0,0E0,0E0,0E0,0E0,0E0,0E0,0E0,0E0,0E0,0E0,0E0,0E0,0E0,0E0,0E0],"parents":[2147483647,0,0,1,1,2,2,3,3,4,4,5,5,6,6,7,7,8,8,9,9,10,10,11,11,12,12,13,13,14,14,15,15,16,16,17,17,18,18,19,19,20,20,21,21,22,22,23,23,24,24,25,25,26,26,27,27,28,28,30,30,31,31,32,32,34,34,35,35,36,36,37,37,38,38,39,39,40,40,41,41,42,42,43,43,44,44,45,45,46,46,47,47,49,49,50,50,51,51,52,52,55,55,56,56],"right_children":[2,-1,6,-1,-1,-1,-1,-1,-1,-1,-1,-1,-1,-1,-1,-1,-1,-1,-1,-1,-1,-1,-1,-1,-1,-1,-1,-1,-1,-1,-1,-1,-1,-1,-1,-1,-1,-1,-1,-1,-1,-1,-1,-1,-1,-1,-1,-1,-1,-1,-1,-1,-1,-1,-1,-1,-1,-1,-1,-1,-1,-1,-1,-1,-1,-1,-1,-1,-1,-1,-1,-1,-1,-1,-1,-1,-1,-1,-1,-1,-1,-1,-1,-1,-1,-1,-1,-1,-1,-1,-1,-1,-1,-1,-1,-1,-1,-1,-1,-1,-1,-1,-1,-1,-1],"split_conditions":[3.6876433E-2,-2.305829E-2,3.350515E0,-3.9658576E-2,-1.466084E-2,9.339127E-3,1.249681E-1,-5.6185104E-2,-3.3787258E-2,-3.760811E-2,-8.166584E-3,3.30003E-3,8.24313E-2,1.4952323E-1,-5.8537737E-2,-4.9505018E-2,-6.487265E-2,-4.2582903E-2,-1.962709E-2,-4.490682E-2,-2.7999122E-2,-2.63994E-3,-3.187305E-2,-3.944998E-2,1.1141732E-2,4.7997084E-2,1.641816E-1,9.168953E-2,2.2963956E-1,9.351393E-2,-1.1823847E-1,-2.3562716E-2,-5.3068057E-2,-5.9608486E-2,-8.4828354E-2,-5.061234E-2,-3.782589E-2,-2.9036177E-2,-3.347046E-3,-4.6576273E-2,-2.1825198E-2,-2.2276713E-2,-3.855536E-2,-1.0231911E-2,1.3679683E-2,-2.7736453E-2,-5.5273652E-2,-3.4464464E-2,-1.2323221E-1,-3.3253707E-2,1.8523455E-2,3.3717077E-2,1.836988E-1,5.0452612E-2,1.688251E-1,-1.224677E-2,1.492951E-1,2.513537E-1,-1.4770865E-2,-1.4854676E-1,-1.8541822E-2,-3.2661226E-2,2.4680882E-3,-6.534254E-2,-4.696365E-2,-9.1478765E-2,-3.969038E-2,-6.663174E-2,-4.733468E-2,-3.434775E-2,-4.6727676E-2,-3.6192942E-2,-1.6152915E-2,-3.3837486E-2,6.564223E-3,-1.4095064E-2,-4.7806975E-2,-3.42824E-2,-1.0464208E-2,-4.3590467E-2,-1.394653E-2,-3.358632E-2,-5.1312655E-2,-1.3568487E-2,1.4374079E-2,2.0606376E-2,-2.8660249E-2,-5.465953E-2,-2.368621E-2,-2.0006278E-3,-5.7539992E-2,-5.0498772E-2,-1.5565153E-2,-1.5799275E-2,-7.497252E-2,1.3682557E-3,3.2560073E-2,4.4294957E-2,-7.3036E-2,2.0982765E-1,6.1410025E-2,1.1254101E-1,-7.079993E-2,2.6180652E-1,9.3480885E-2],"split_indices":[0,2,0,2147483647,2147483647,7,5,2147483647,2147483647,2147483647,2147483647,2147483647,2147483647,2147483647,2147483647,2147483647,2147483647,2147483647,2147483647,2147483647,2147483647,2147483647,2147483647,2147483647,2147483647,2147483647,2147483647,2147483647,2147483647,2147483647,2147483647,2147483647,2147483647,2147483647,2147483647,2147483647,2147483647,2147483647,2147483647,2147483647,2147483647,2147483647,2147483647,2147483647,2147483647,2147483647,2147483647,2147483647,2147483647,2147483647,2147483647,2147483647,2147483647,2147483647,2147483647,2147483647,2147483647,2147483647,2147483647,2147483647,2147483647,2147483647,2147483647,2147483647,2147483647,2147483647,2147483647,2147483647,2147483647,2147483647,2147483647,2147483647,2147483647,2147483647,2147483647,2147483647,2147483647,2147483647,2147483647,2147483647,2147483647,2147483647,2147483647,2147483647,2147483647,2147483647,2147483647,2147483647,2147483647,2147483647,2147483647,2147483647,2147483647,2147483647,2147483647,2147483647,2147483647,2147483647,2147483647,2147483647,2147483647,2147483647,2147483647,2147483647,2147483647],"split_type":[0,0,0,0,0,0,0,0,0,0,0,0,0,0,0,0,0,0,0,0,0,0,0,0,0,0,0,0,0,0,0,0,0,0,0,0,0,0,0,0,0,0,0,0,0,0,0,0,0,0,0,0,0,0,0,0,0,0,0,0,0,0,0,0,0,0,0,0,0,0,0,0,0,0,0,0,0,0,0,0,0,0,0,0,0,0,0,0,0,0,0,0,0,0,0,0,0,0,0,0,0,0,0,0,0],"sum_hessian":[2.462E3,1.67E3,7.92E2,5.6E2,1.11E3,7.57E2,3.5E1,1.45E2,4.15E2,2.44E2,8.66E2,7E2,5.7E1,3.1E1,4E0,8.5E1,6E1,2.55E2,1.6E2,1.37E2,1.07E2,7.03E2,1.63E2,1.08E2,5.92E2,4.1E1,1.6E1,1.9E1,1.2E1,1E0,3E0,1.1E1,7.4E1,5E1,1E1,9.2E1,1.63E2,1.01E2,5.9E1,1.27E2,1E1,7.1E1,3.6E1,4.8E2,2.23E2,1.4E2,2.3E1,1.03E2,5E0,8.4E1,5.08E2,3.8E1,3E0,1E0,1.5E1,7E0,1.2E1,1.1E1,1E0,2E0,1E0,8E0,3E0,2.2E1,5.2E1,8E0,2E0,1.3E1,7.9E1,1.2E2,4.3E1,6.4E1,3.7E1,1.4E1,4.5E1,5E0,1.22E2,4E0,6E0,1.9E1,5.2E1,2.8E1,8E0,4.23E2,5.7E1,1.92E2,3.1E1,1.7E1,1.23E2,1E0,2.2E1,5.5E1,4.8E1,6E1,2.4E1,2.29E2,2.79E2,3.5E1,3E0,2E0,1E0,2E0,5E0,3E0,9E0],"tree_param":{"num_deleted":"100","num_feature":"9","num_nodes":"105","size_leaf_vector":"0"}},{"base_weights":[-7.0895724E-2,-1.6382109E-1,1.2006548E-1,-2.9397306E-1,-9.585937E-2,-1.2498882E-1,2.6841456E-1,-3.049537E-1,3.6286855E-1,-3.0867147E-1,-3.90572E-2,-3.8317168E-1,-8.288116E-3,3.6392733E-1,-2.1145624E-1,-4.3362027E-1,-2.5587493E-1,-5.8470864E-2,8.115089E-1,-4.2732346E-1,-2.7582514E-1,-4.920038E-2,1.0869406E0,-3.4467226E-1,-9.330353E-1,1.6335286E-1,-2.3594868E-1,2.8376982E-1,8.6757153E-1,-6.8201944E-2,-4.4849762E-1,-4.1513336E-1,-8.5128343E-1,-3.133235E-1,-1.0188271E-1,-1.348835E-1,1.7128319E-1,6.463666E-2,-4.494523E-1,-2.8938568E-1,-3.7169434E-2,-7.597335E-2,2.037428E-1,1.5659316E0,2.5307006E-1,-3.9635727E-1,-1.5548776E-1,-2.4900584E-1,2.885687E-1,-8.68478E-2,-5.596944E-1,2.2667071E-1,7.9087216E-1,1.9461861E-1,9.7255003E-1,-9.03592E-2,6.1205626E-1,-3.331313E-1,-9.1970766E-1,-5.435911E-1,-3.9314887E-1,-3.1697512E-1,4.3007147E-1,-8.1465185E-2,-6.7039263E-1,-1.7436938E-1,8.423829E-3,-7.4684024E-2,1.7522994E-1,-4.6612722E-1,-2.6728454E-1,-2.7186528E-1,-4.6291625E-1,1.3169937E-1,-6.5151915E-2,-3.6562324E-2,-2.2310893E-1,3.3976905E-2,4.0512598E-1,1.9788017E0,-1.6529693E-3,-2.6266614E-1,9.4285077E-1,-3.132612E-2,-4.559831E-1,-4.6799142E-2,-8.4082913E-1,-3.1274843E-1,1.2183187E-1,7.382048E-1,1.9548364E-1,-1.2649556E-1,5.6580013E-1,-2.516645E-1,-7.3873925E-1,2.1363784E-1,1.6923383E0,4.11594E-1,1.1772211E0,-3.758702E-1,4.0662947E-1,1.0183337E0,-7.009406E-1,-1.8765807E-1,5.4888107E-2,8.130899E-2,-4.086931E-1,-4.0883183E-1,-1.1025199E0],"categories":[],"categories_nodes":[],"categories_segments":[],"categories_sizes":[],"default_left":[1,1,1,1,1,1,1,1,1,1,1,1,1,1,1,1,1,1,1,1,1,1,1,1,1,1,1,1,1,1,1,1,1,1,1,1,1,1,1,1,1,1,1,1,1,1,1,1,1,1,1,1,1,1,1,1,1,1,1,1,1,1,1,1,1,1,1,1,1,1,1,1,1,1,1,1,1,1,1,1,1,1,1,1,1,1,1,1,1,1,1,1,1,1,1,1,1,1,1,1,1,1,1,1,1,1,1,1,1],"id":14,"left_children":[1,-1,5,-1,-1,-1,-1,-1,-1,-1,-1,-1,-1,-1,-1,-1,-1,-1,-1,-1,-1,-1,-1,-1,-1,-1,-1,-1,-1,-1,-1,-1,-1,-1,-1,-1,-1,-1,-1,-1,-1,-1,-1,-1,-1,-1,-1,-1,-1,-1,-1,-1,-1,-1,-1,-1,-1,-1,-1,-1,-1,-1,-1,-1,-1,-1,-1,-1,-1,-1,-1,-1,-1,-1,-1,-1,-1,-1,-1,-1,-1,-1,-1,-1,-1,-1,-1,-1,-1,-1,-1,-1,-1,-1,-1,-1,-1,-1,-1,-1,-1,-1,-1,-1,-1,-1,-1,-1,-1],"loss_changes":[4.4162094E1,1.4782803E1,2.9647732E1,4.227089E0,1.3297035E1,9.271511E0,2.333596E1,3.4778328E0,1.8904524E0,8.090954E-1,9.976944E0,1.7707577E0,8.346182E0,1.6912228E1,2.8550994E0,9.1254044E-1,3.6086578E0,1.2030806E-1,0E0,5.545025E-1,5.862274E-1,5.8553E0,2.7984152E0,8.385391E-1,0E0,6.3464866E0,4.3923707E0,1.0477312E1,3.9318924E0,8.5515285E-1,1.4835968E0,2.520771E-1,0E0,9.2017937E-1,1.265642E0,2.833645E-2,0E0,5.361171E-2,4.2490005E-2,4.277277E-1,5.7898358E-2,4.5211487E0,2.8197544E0,3.1092196E0,1.5499544E0,1.5295553E0,1.5178869E0,7.1126103E-1,3.8104982E0,1.7081478E0,1.4396219E0,6.0296535E0,5.0048103E0,1.1866304E0,4.3866386E0,7.544308E-1,0E0,8.65849E-1,