{"learner":{"attributes":{"best_iteration":"499","best_ntree_limit":"500","scikit_learn":"{\"n_estimators\": 500, \"objective\": \"reg:squarederror\", \"max_depth\": 6, \"max_leaves\": null, \"max_bin\": null, \"grow_policy\": null, \"learning_rate\": 0.05, \"verbosity\": null, \"booster\": null, \"tree_method\": null, \"gamma\": 24.2, \"min_child_weight\": null, \"max_delta_step\": null, \"subsample\": 0.8, \"sampling_method\": null, \"colsample_bytree\": null, \"colsample_bylevel\": null, \"colsample_bynode\": null, \"reg_alpha\": null, \"reg_lambda\": 0.8, \"scale_pos_weight\": null, \"base_score\": null, \"missing\": NaN, \"num_parallel_tree\": null, \"random_state\": 10, \"n_jobs\": null, \"monotone_constraints\": null, \"interaction_constraints\": null, \"importance_type\": null, \"gpu_id\": null, \"validate_parameters\": null, \"predictor\": null, \"enable_categorical\": false, \"max_cat_to_onehot\": null, \"eval_metric\": null, \"early_stopping_rounds\": null, \"callbacks\": null, \"_estimator_type\": \"regressor\"}"},"feature_names":["covered_surface_m2","bedrooms","price/m2","bathrooms","latitude","longitude","type_casa","type_departamento","type_ph"],"feature_types":["float","float","float","float","float","float","int","int","int"],"gradient_booster":{"model":{"gbtree_model_param":{"num_parallel_tree":"1","num_trees":"500","size_leaf_vector":"0"},"tree_info":[0,0,0,0,0,0,0,0,0,0,0,0,0,0,0,0,0,0,0,0,0,0,0,0,0,0,0,0,0,0,0,0,0,0,0,0,0,0,0,0,0,0,0,0,0,0,0,0,0,0,0,0,0,0,0,0,0,0,0,0,0,0,0,0,0,0,0,0,0,0,0,0,0,0,0,0,0,0,0,0,0,0,0,0,0,0,0,0,0,0,0,0,0,0,0,0,0,0,0,0,0,0,0,0,0,0,0,0,0,0,0,0,0,0,0,0,0,0,0,0,0,0,0,0,0,0,0,0,0,0,0,0,0,0,0,0,0,0,0,0,0,0,0,0,0,0,0,0,0,0,0,0,0,0,0,0,0,0,0,0,0,0,0,0,0,0,0,0,0,0,0,0,0,0,0,0,0,0,0,0,0,0,0,0,0,0,0,0,0,0,0,0,0,0,0,0,0,0,0,0,0,0,0,0,0,0,0,0,0,0,0,0,0,0,0,0,0,0,0,0,0,0,0,0,0,0,0,0,0,0,0,0,0,0,0,0,0,0,0,0,0,0,0,0,0,0,0,0,0,0,0,0,0,0,0,0,0,0,0,0,0,0,0,0,0,0,0,0,0,0,0,0,0,0,0,0,0,0,0,0,0,0,0,0,0,0,0,0,0,0,0,0,0,0,0,0,0,0,0,0,0,0,0,0,0,0,0,0,0,0,0,0,0,0,0,0,0,0,0,0,0,0,0,0,0,0,0,0,0,0,0,0,0,0,0,0,0,0,0,0,0,0,0,0,0,0,0,0,0,0,0,0,0,0,0,0,0,0,0,0,0,0,0,0,0,0,0,0,0,0,0,0,0,0,0,0,0,0,0,0,0,0,0,0,0,0,0,0,0,0,0,0,0,0,0,0,0,0,0,0,0,0,0,0,0,0,0,0,0,0,0,0,0,0,0,0,0,0,0,0,0,0,0,0,0,0,0,0,0,0,0,0,0,0,0,0,0,0,0,0,0,0,0,0,0,0,0,0,0,0,0,0,0,0,0,0,0,0,0,0,0,0,0,0,0,0,0,0,0,0,0,0,0,0,0,0,0,0,0,0,0,0,0,0,0,0,0,0,0,0,0,0,0,0,0,0,0,0,0,0],"trees":[{"base_weights":[1.2333202E5,1.05410766E5,2.4969519E5,8.813636E4,1.4387267E5,2.2726839E5,4.096499E5,7.2321555E4,1.03437984E5,1.2998692E5,1.9029608E5,1.808632E5,2.719008E5,2.941123E5,4.852375E5,6.2321645E4,8.005755E4,8.469821E4,1.146233E5,1.0737926E5,1.4074245E5,1.9920095E5,1.4702027E5,1.4945736E5,1.9448542E5,2.5760647E5,3.5507488E5,2.4109162E5,3.8425878E5,4.9037675E5,1.4166639E5,6.1745895E4,1.8286036E5,6.756999E4,8.363635E4,7.2281016E4,8.997711E4,1.0910799E5,1.3402586E5,1.00787484E5,1.3951334E5,1.4787144E5,1.1968799E5,2.2833072E5,1.8773681E5,1.8387592E5,1.28058336E5,8.5573086E4,1.5330634E5,1.0703016E5,1.983228E5,2.2502455E5,2.768111E5,1.8391258E5,3.0192812E5,1.22221945E5,4.0101994E5,5.0446028E5,2.889371E5,5.67654E4,6.883795E4,5.0275633E4,6.996714E4,7.961321E4,8.812028E4,5.883975E4,7.49456E4,7.5742164E4,9.523537E4,9.913214E4,1.1433651E5,1.10419875E5,1.4296758E5,1.050726E5,8.459677E4,3.0555277E4,1.4100127E5,1.4450825E5,1.896556E5,1.02847516E5,1.2786532E5,1.8103694E5,2.6152866E5,1.9194769E5,1.4037186E5,5.27775E4,1.8916619E5,5.8928215E4,1.3040673E5,1.15315984E5,1.6045608E5,1.8104434E5,2.1928884E5,2.4864438E5,2.0288797E5,2.0222925E5,2.832143E5,1.9414016E5,2.9444166E4],"categories":[],"categories_nodes":[],"categories_segments":[],"categories_sizes":[],"default_left":[1,1,1,1,1,1,1,1,1,1,1,1,1,1,1,1,1,1,1,1,1,1,1,1,1,1,0,1,1,1,0,1,0,1,1,1,1,1,1,1,1,1,1,1,1,1,1,0,1,0,1,1,1,1,0,0,0,0,0,0,0,0,0,0,0,0,0,0,0,0,0,0,0,0,0,0,0,0,0,0,0,0,0,0,0,0,0,0,0,0,0,0,0,0,0,0,0,0,0],"id":0,"left_children":[1,3,5,7,9,11,13,15,17,19,21,23,25,27,29,31,33,35,37,39,41,43,45,47,49,51,-1,53,55,57,-1,59,-1,61,63,65,67,69,71,73,75,77,79,81,83,85,87,-1,89,-1,91,93,95,97,-1,-1,-1,-1,-1,-1,-1,-1,-1,-1,-1,-1,-1,-1,-1,-1,-1,-1,-1,-1,-1,-1,-1,-1,-1,-1,-1,-1,-1,-1,-1,-1,-1,-1,-1,-1,-1,-1,-1,-1,-1,-1,-1,-1,-1],"loss_changes":[1.1672815E13,2.9954964E12,2.2242436E12,7.4995204E11,8.832009E11,1.1283873E12,5.652716E11,1.15049234E11,3.2463284E11,2.5071452E11,1.0019668E11,9.60223E10,2.6661723E11,8.265872E10,2.5292702E10,3.7798543E10,3.4127479E10,3.3851441E10,9.43278E10,6.3269503E10,9.538267E10,5.3802435E10,2.1556363E10,1.1093934E10,4.7387247E10,1.04596505E11,0E0,3.4888745E10,8.223326E9,1.0491003E10,0E0,2.0638335E10,0E0,5.3446574E9,6.4524124E9,2.9833953E9,2.527776E10,3.1397511E10,3.2921616E10,1.3342081E10,5.923799E9,5.4212428E10,1.5479079E10,7.328288E10,1.7097556E10,4.3580785E9,4.7598797E8,0E0,7.416185E9,0E0,3.44604E10,9.732358E9,2.6674725E10,1.7228726E10,0E0,0E0,0E0,0E0,0E0,0E0,0E0,0E0,0E0,0E0,0E0,0E0,0E0,0E0,0E0,0E0,0E0,0E0,0E0,0E0,0E0,0E0,0E0,0E0,0E0,0E0,0E0,0E0,0E0,0E0,0E0,0E0,0E0,0E0,0E0,0E0,0E0,0E0,0E0,0E0,0E0,0E0,0E0,0E0,0E0],"parents":[2147483647,0,0,1,1,2,2,3,3,4,4,5,5,6,6,7,7,8,8,9,9,10,10,11,11,12,12,13,13,14,14,15,15,16,16,17,17,18,18,19,19,20,20,21,21,22,22,23,23,24,24,25,25,27,27,28,28,29,29,31,31,33,33,34,34,35,35,36,36,37,37,38,38,39,39,40,40,41,41,42,42,43,43,44,44,45,45,46,46,48,48,50,50,51,51,52,52,53,53],"right_children":[2,4,6,8,10,12,14,16,18,20,22,24,26,28,30,32,34,36,38,40,42,44,46,48,50,52,-1,54,56,58,-1,60,-1,62,64,66,68,70,72,74,76,78,80,82,84,86,88,-1,90,-1,92,94,96,98,-1,-1,-1,-1,-1,-1,-1,-1,-1,-1,-1,-1,-1,-1,-1,-1,-1,-1,-1,-1,-1,-1,-1,-1,-1,-1,-1,-1,-1,-1,-1,-1,-1,-1,-1,-1,-1,-1,-1,-1,-1,-1,-1,-1,-1],"split_conditions":[1.725E2,8.55E1,3.435E2,5.15E1,1.6923232E3,1.5984412E3,1.5984412E3,4.05E1,1.5984412E3,1.1706995E3,5E-1,1.0796882E3,3.5E0,3.5E0,-5.8528408E1,2.5E0,1.5984412E3,6.05E1,1.5E0,1.515E2,5E-1,-5.855011E1,2.0087573E3,-5.8588326E1,-5.8575203E1,2.035E2,1.7753744E4,-5.8562088E1,3.5E0,-3.4538208E1,7.08332E3,1.6923232E3,9.143019E3,1.0796882E3,-3.4554832E1,9.9152234E2,1.0796882E3,1.6923232E3,5E-1,5E-1,-5.8591125E1,2.5E0,9.75E1,1.025E2,-5.8534626E1,-5.8555912E1,8.95E1,4.2786543E3,1.5E0,5.351508E3,2.265E2,-5.8550484E1,-5.856284E1,-5.8563164E1,1.5096406E4,6.111097E3,2.0050998E4,2.5223014E4,1.44468545E4,2.83827E3,3.4418977E3,2.5137817E3,3.4983572E3,3.9806606E3,4.406014E3,2.9419875E3,3.74728E3,3.7871082E3,4.7617686E3,4.956607E3,5.7168257E3,5.5209937E3,7.148379E3,5.2536304E3,4.229839E3,1.5277639E3,7.0500635E3,7.2254126E3,9.48278E3,5.142376E3,6.393266E3,9.051847E3,1.3076433E4,9.597385E3,7.0185933E3,2.638875E3,9.45831E3,2.946411E3,6.5203364E3,5.7657993E3,8.022804E3,9.052218E3,1.0964442E4,1.2432219E4,1.0144398E4,1.0111463E4,1.4160716E4,9.707008E3,1.4722084E3],"split_indices":[0,0,0,0,2,2,2,0,2,2,8,2,3,3,5,3,2,0,3,0,8,5,2,5,5,0,0,5,1,4,0,2,0,2,4,2,2,2,7,8,5,3,0,0,5,5,0,0,3,0,0,5,5,5,0,0,0,0,0,0,0,0,0,0,0,0,0,0,0,0,0,0,0,0,0,0,0,0,0,0,0,0,0,0,0,0,0,0,0,0,0,0,0,0,0,0,0,0,0],"split_type":[0,0,0,0,0,0,0,0,0,0,0,0,0,0,0,0,0,0,0,0,0,0,0,0,0,0,0,0,0,0,0,0,0,0,0,0,0,0,0,0,0,0,0,0,0,0,0,0,0,0,0,0,0,0,0,0,0,0,0,0,0,0,0,0,0,0,0,0,0,0,0,0,0,0,0,0,0,0,0,0,0,0,0,0,0,0,0,0,0,0,0,0,0,0,0,0,0,0,0],"sum_hessian":[5.163E3,4.523E3,6.4E2,3.123E3,1.4E3,5.63E2,7.7E1,1.538E3,1.585E3,1.08E3,3.2E2,2.78E2,2.85E2,3.2E1,4.5E1,6.74E2,8.64E2,5.95E2,9.9E2,3.51E2,7.29E2,2.63E2,5.7E1,8.7E1,1.91E2,2.46E2,3.9E1,2.2E1,1E1,4.4E1,1E0,6.72E2,2E0,1.96E2,6.68E2,1.81E2,4.14E2,7.75E2,2.15E2,2.94E2,5.7E1,5.41E2,1.88E2,7E1,1.93E2,1.7E1,4E1,6E0,8.1E1,9E0,1.82E2,9.5E1,1.51E2,1.3E1,9E0,1E0,9E0,4E1,4E0,3.99E2,2.73E2,2.6E1,1.7E2,3.6E2,3.08E2,3.3E1,1.48E2,1.15E2,2.99E2,2.72E2,5.03E2,6.2E1,1.53E2,2.29E2,6.5E1,1E0,5.6E1,5.04E2,3.7E1,6.5E1,1.23E2,3.1E1,3.9E1,1.75E2,1.8E1,1E0,1.6E1,2E0,3.8E1,1.5E1,6.6E1,1.04E2,7.8E1,4.2E1,5.3E1,1.4E1,1.37E2,1.2E1,1E0],"tree_param":{"num_deleted":"0","num_feature":"9","num_nodes":"99","size_leaf_vector":"0"}},{"base_weights":[1.1690043E5,9.935951E4,2.384629E5,7.6965516E4,1.25165055E5,2.1567567E5,3.9821003E5,6.5145656E4,8.797497E4,1.0596151E5,1.4314867E5,1.7814131E5,2.5574211E5,2.3503978E5,4.4269278E5,5.8524496E4,7.327443E4,7.047896E4,9.510164E4,9.000239E4,1.2319684E5,1.2396645E5,1.6332645E5,1.5186767E5,1.9538445E5,2.4342167E5,3.3440678E5,1.7279139E5,3.5072872E5,4.5904403E5,2.8241034E5,4.9916383E4,6.3529473E4,7.229061E4,1.9138962E5,5.5318336E4,7.3277586E4,8.540846E4,1.0317152E5,7.6118586E4,9.6600484E4,1.0948862E5,1.3547928E5,1.3232038E5,1.00729875E5,1.5275133E5,2.0781603E5,1.1558954E5,1.661783E5,1.4059294E5,2.0500345E5,2.150423E5,2.6162169E5,3.40092E5,7.9025414E4,1.8226516E5,2.8626273E4,3.884271E5,9.4320266E4,2.9970944E5,9.154249E4,5.128616E4,2.441145E4,5.6615496E4,6.742195E4,6.1636395E4,7.888191E4,3.7783297E4,5.8651508E4,6.749223E4,7.909712E4,8.101357E4,9.135278E4,1.065316E5,8.615345E4,3.4794566E4,7.643763E4,9.21904E4,1.09982125E5,1.06163055E5,1.4978714E5,1.3315928E5,2.0340144E5,1.19453695E5,1.5047838E5,1.0720029E5,8.721869E4,1.3609586E5,1.7123089E5,1.7813562E5,2.4748827E5,5.7087168E4,1.1943088E5,1.6973881E5,7.854656E4,1.5864077E5,1.0383654E5,2.0996895E5,1.1794064E5,2.3099112E5,1.8225962E5,1.9079181E5,2.7068716E5,1.6624664E5,3.527069E5,1.8963572E5,5.2940273E4],"categories":[],"categories_nodes":[],"categories_segments":[],"categories_sizes":[],"default_left":[1,1,1,1,1,1,1,1,1,1,1,1,1,1,1,1,1,1,1,1,1,1,1,1,1,1,1,1,1,0,1,1,1,1,0,1,1,1,1,1,1,1,1,1,1,1,1,1,1,1,1,1,1,1,0,1,0,0,0,0,0,0,0,0,0,0,0,0,0,0,0,0,0,0,0,0,0,0,0,0,0,0,0,0,0,0,0,0,0,0,0,0,0,0,0,0,0,0,0,0,0,0,0,0,0,0,0],"id":1,"left_children":[1,3,5,7,9,11,13,15,17,19,21,23,25,27,29,31,33,35,37,39,41,43,45,47,49,51,53,55,57,-1,59,61,63,65,-1,67,69,71,73,75,77,79,81,83,85,87,89,91,93,95,97,99,101,103,-1,105,-1,-1,-1,-1,-1,-1,-1,-1,-1,-1,-1,-1,-1,-1,-1,-1,-1,-1,-1,-1,-1,-1,-1,-1,-1,-1,-1,-1,-1,-1,-1,-1,-1,-1,-1,-1,-1,-1,-1,-1,-1,-1,-1,-1,-1,-1,-1,-1,-1,-1,-1],"loss_changes":[1.0927936E13,2.5857423E12,2.2857699E12,3.083516E11,7.075057E11,8.174489E11,4.9596806E11,5.9153318E10,1.4960139E11,2.6916107E11,3.9942147E11,1.102714E11,1.9927348E11,8.690493E10,5.8255737E10,2.5243156E10,4.9218585E10,1.2150374E10,6.1849207E10,4.246733E10,6.959084E10,9.6838615E10,2.1963263E11,4.7347925E10,6.959661E10,7.833282E10,2.902537E10,1.4673773E10,2.6754679E10,0E0,3.8054134E9,7.4110075E9,7.840596E9,3.2332579E10,0E0,1.7223188E9,5.9576156E9,4.654629E9,1.9921895E10,1.6370893E8,1.2826968E10,1.8477482E10,1.8010866E10,8.019457E10,5.616173E9,1.1179603E11,7.988917E10,2.8155904E9,1.5792865E10,5.926945E9,4.4084232E10,1.7454072E10,4.973501E10,2.721579E10,0E0,4.1694003E9,0E0,0E0,0E0,0E0,0E0,0E0,0E0,0E0,0E0,0E0,0E0,0E0,0E0,0E0,0E0,0E0,0E0,0E0,0E0,0E0,0E0,0E0,0E0,0E0,0E0,0E0,0E0,0E0,0E0,0E0,0E0,0E0,0E0,0E0,0E0,0E0,0E0,0E0,0E0,0E0,0E0,0E0,0E0,0E0,0E0,0E0,0E0,0E0,0E0,0E0,0E0],"parents":[2147483647,0,0,1,1,2,2,3,3,4,4,5,5,6,6,7,7,8,8,9,9,10,10,11,11,12,12,13,13,14,14,15,15,16,16,17,17,18,18,19,19,20,20,21,21,22,22,23,23,24,24,25,25,26,26,27,27,28,28,30,30,31,31,32,32,33,33,35,35,36,36,37,37,38,38,39,39,40,40,41,41,42,42,43,43,44,44,45,45,46,46,47,47,48,48,49,49,50,50,51,51,52,52,53,53,55,55],"right_children":[2,4,6,8,10,12,14,16,18,20,22,24,26,28,30,32,34,36,38,40,42,44,46,48,50,52,54,56,58,-1,60,62,64,66,-1,68,70,72,74,76,78,80,82,84,86,88,90,92,94,96,98,100,102,104,-1,106,-1,-1,-1,-1,-1,-1,-1,-1,-1,-1,-1,-1,-1,-1,-1,-1,-1,-1,-1,-1,-1,-1,-1,-1,-1,-1,-1,-1,-1,-1,-1,-1,-1,-1,-1,-1,-1,-1,-1,-1,-1,-1,-1,-1,-1,-1,-1,-1,-1,-1,-1],"split_conditions":[1.725E2,6.65E1,3.43E2,4.55E1,1.5984412E3,1.5984412E3,-5.85624E1,1.6923232E3,1.5984412E3,1.045E2,9.55E1,-5.856833E1,3.5E0,3.5E0,-5.853549E1,3.65E1,2.5E0,9.9152234E2,5.45E1,1.0796882E3,1.1706995E3,5E-1,5E-1,1.925E2,2.5E0,2.095E2,-5.85296E1,-5.8563164E1,1.6535947E3,2.2952201E4,5.35E2,-5.8522675E1,1.4177954E3,3.85E1,9.569481E3,5.15E1,5.55E1,-3.4552902E1,5E-1,6.8E1,1.5E0,4.5E0,-5.8525593E1,1.5E0,-5.85447E1,1.255E2,-3.455225E1,5E-1,-5.8568577E1,-3.4554962E1,5E-1,-5.854458E1,-5.856263E1,1.975E2,3.9512708E3,-3.4514244E1,1.4313137E3,1.9421355E4,4.716013E3,1.4985472E4,4.5771245E3,2.564308E3,1.2205725E3,2.830775E3,3.3710977E3,3.0818198E3,3.9440955E3,1.8891649E3,2.9325754E3,3.3746113E3,3.954856E3,4.0506785E3,4.567639E3,5.32658E3,4.307673E3,1.7397284E3,3.8218816E3,4.60952E3,5.4991064E3,5.308153E3,7.489357E3,6.6579644E3,1.0170072E4,5.972685E3,7.523919E3,5.3600146E3,4.3609346E3,6.804793E3,8.561545E3,8.906781E3,1.2374413E4,2.8543584E3,5.9715444E3,8.48694E3,3.9273281E3,7.9320386E3,5.191827E3,1.0498448E4,5.897032E3,1.1549557E4,9.112981E3,9.539591E3,1.3534358E4,8.312332E3,1.7635346E4,9.481786E3,2.6470137E3],"split_indices":[0,0,0,0,2,2,5,2,2,0,0,5,3,3,5,0,1,2,0,2,2,8,7,0,1,0,5,5,2,0,0,5,2,0,0,0,0,4,8,0,3,1,5,3,5,0,4,6,5,4,8,5,5,0,0,4,0,0,0,0,0,0,0,0,0,0,0,0,0,0,0,0,0,0,0,0,0,0,0,0,0,0,0,0,0,0,0,0,0,0,0,0,0,0,0,0,0,0,0,0,0,0,0,0,0,0,0],"split_type":[0,0,0,0,0,0,0,0,0,0,0,0,0,0,0,0,0,0,0,0,0,0,0,0,0,0,0,0,0,0,0,0,0,0,0,0,0,0,0,0,0,0,0,0,0,0,0,0,0,0,0,0,0,0,0,0,0,0,0,0,0,0,0,0,0,0,0,0,0,0,0,0,0,0,0,0,0,0,0,0,0,0,0,0,0,0,0,0,0,0,0,0,0,0,0,0,0,0,0,0,0,0,0,0,0,0,0],"sum_hessian":[5.133E3,4.487E3,6.46E2,2.404E3,2.083E3,5.67E2,7.9E1,1.162E3,1.242E3,1.01E3,1.073E3,2.95E2,2.72E2,1.8E1,6.1E1,6.44E2,5.18E2,3.62E2,8.8E2,5.27E2,4.83E2,5.53E2,5.2E2,1.2E2,1.75E2,2.38E2,3.4E1,1.3E1,5E0,5.4E1,7E0,2.4E2,4.04E2,5.15E2,3E0,5.9E1,3.03E2,4.04E2,4.76E2,1.73E2,3.54E2,2.32E2,2.51E2,4.04E2,1.49E2,4.23E2,9.7E1,3.6E1,8.4E1,2.8E1,1.47E2,9.7E1,1.41E2,3.3E1,1E0,1.2E1,1E0,4E0,1E0,6E0,1E0,2.27E2,1.3E1,1.5E2,2.54E2,2E2,3.15E2,1.1E1,4.8E1,1.57E2,1.46E2,2.39E2,1.65E2,3.94E2,8.2E1,2E0,1.71E2,2.71E2,8.3E1,2.17E2,1.5E1,2.45E2,6E0,2.4E2,1.64E2,9.7E1,5.2E1,2.26E2,1.97E2,5.8E1,3.9E1,3E0,3.3E1,8E1,4E0,1.7E1,1.1E1,1.38E2,9E0,6.2E1,3.5E1,1.8E1,1.23E2,3E0,3E1,1.1E1,1E0],"tree_param":{"num_deleted":"0","num_feature":"9","num_nodes":"107","size_leaf_vector":"0"}},{"base_weights":[1.1232578E5,9.588409E4,2.2826675E5,7.702963E4,1.2628091E5,2.0662022E5,3.7437116E5,6.759083E4,9.337108E4,1.1304859E5,1.643461E5,1.6797067E5,2.4453561E5,2.7563925E5,4.2833662E5,5.7796023E4,7.356865E4,7.6076266E4,1.0294171E5,9.844618E4,1.2455679E5,1.434583E5,1.8510973E5,1.4154067E5,1.8578262E5,2.0418716E5,2.677398E5,2.0565712E5,3.6119803E5,1.3188145E5,5.673944E4,6.0332477E4,7.801477E4,6.0191223E4,7.970946E4,1.0690107E5,8.496074E4,8.89813E4,1.15647516E5,1.0466597E5,1.3387581E5,1.5208027E5,1.0843412E5,2.2835995E5,1.7213873E5,1.11238195E5,1.5425512E5,1.9071573E5,9.319724E4,1.6000966E5,2.1309686E5,2.341016E5,2.9256275E5,6.818095E4,2.1877662E5,3.7495184E5,1.1050163E5,7.9652516E4,1.8383477E5,4.3932934E4,5.9690965E4,4.6669973E4,6.2823746E4,7.453677E4,8.40947E4,6.0607645E4,1.729163E4,7.107796E4,8.554191E4,1.015742E5,1.1503703E5,8.634058E4,5.1670438E4,7.660277E4,9.51017E4,1.29496586E5,9.597132E4,9.758203E4,1.2307255E5,1.1624577E5,1.4501431E5,1.318846E5,1.6559167E5,1.8867578E5,2.652531E5,1.777603E5,1.3503277E5,2.8749611E4,1.128999E5,1.985931E4,1.5577838E5,1.366736E5,1.9986575E5,4.5009848E4,1.6399916E5,5.319007E4,2.1449727E5,1.515254E5,2.4449306E5,2.5784969E5,3.154034E5,2.788458E5,1.6474961E5],"categories":[],"categories_nodes":[],"categories_segments":[],"categories_sizes":[],"default_left":[1,1,1,1,1,1,1,1,1,1,1,1,1,1,0,1,1,1,1,1,1,1,1,1,1,1,1,1,1,1,1,1,1,1,1,1,1,1,1,1,1,1,0,1,1,1,1,1,0,1,1,1,1,0,1,0,0,0,0,0,0,0,0,0,0,0,0,0,0,0,0,0,0,0,0,0,0,0,0,0,0,0,0,0,0,0,0,0,0,0,0,0,0,0,0,0,0,0,0,0,0,0,0],"id":2,"left_children":[1,3,5,7,9,11,13,15,17,19,21,23,25,27,-1,29,31,33,35,37,39,41,43,45,47,49,51,53,55,57,59,61,63,65,67,69,71,73,75,77,79,81,-1,83,85,87,89,91,-1,93,95,97,99,-1,101,-1,-1,-1,-1,-1,-1,-1,-1,-1,-1,-1,-1,-1,-1,-1,-1,-1,-1,-1,-1,-1,-1,-1,-1,-1,-1,-1,-1,-1,-1,-1,-1,-1,-1,-1,-1,-1,-1,-1,-1,-1,-1,-1,-1,-1,-1,-1,-1],"loss_changes":[9.719305E12,2.5567974E12,1.9426087E12,4.2124968E11,8.473522E11,7.786851E11,3.3605812E11,9.934419E10,1.6087882E11,2.040812E11,1.6949916E11,1.0927263E11,2.1635583E11,1.2499131E11,0E0,4.636567E10,6.0192457E10,1.7100177E10,3.8852887E10,8.372198E10,1.201752E11,5.408817E10,9.0738524E10,3.0502814E10,6.0136882E10,1.3972013E10,9.033063E10,2.1974876E10,1.0988552E10,1.2164186E10,2.2879404E10,7.0758564E9,1.2130976E10,4.263936E8,9.876275E9,1.352663E10,1.9799736E9,2.2037135E10,4.3957354E10,2.0356268E10,8.073406E10,3.0772298E10,0E0,2.9945233E10,1.6424894E10,2.4475402E9,1.3656785E10,5.4198796E10,0E0,3.6375757E9,9.862382E9,3.7121688E10,1.1688477E10,0E0,1.7770217E10,0E0,0E0,0E0,0E0,0E0,0E0,0E0,0E0,0E0,0E0,0E0,0E0,0E0,0E0,0E0,0E0,0E0,0E0,0E0,0E0,0E0,0E0,0E0,0E0,0E0,0E0,0E0,0E0,0E0,0E0,0E0,0E0,0E0,0E0,0E0,0E0,0E0,0E0,0E0,0E0,0E0,0E0,0E0,0E0,0E0,0E0,0E0,0E0],"parents":[2147483647,0,0,1,1,2,2,3,3,4,4,5,5,6,6,7,7,8,8,9,9,10,10,11,11,12,12,13,13,15,15,16,16,17,17,18,18,19,19,20,20,21,21,22,22,23,23,24,24,25,25,26,26,27,27,28,28,29,29,30,30,31,31,32,32,33,33,34,34,35,35,36,36,37,37,38,38,39,39,40,40,41,41,43,43,44,44,45,45,46,46,47,47,49,49,50,50,51,51,52,52,54,54],"right_children":[2,4,6,8,10,12,14,16,18,20,22,24,26,28,-1,30,32,34,36,38,40,42,44,46,48,50,52,54,56,58,60,62,64,66,68,70,72,74,76,78,80,82,-1,84,86,88,90,92,-1,94,96,98,100,-1,102,-1,-1,-1,-1,-1,-1,-1,-1,-1,-1,-1,-1,-1,-1,-1,-1,-1,-1,-1,-1,-1,-1,-1,-1,-1,-1,-1,-1,-1,-1,-1,-1,-1,-1,-1,-1,-1,-1,-1,-1,-1,-1,-1,-1,-1,-1,-1,-1],"split_conditions":[1.715E2,7.55E1,3.435E2,5.55E1,1.6923232E3,1.5984412E3,1.5984412E3,4.05E1,1.5984412E3,1.045E2,1.025E2,-5.8568233E1,2.035E2,3.5E0,2.1416832E4,1.15E1,1.5984412E3,9.9152234E2,5E-1,1.5984412E3,1.1706995E3,5E-1,-5.8550552E1,1.935E2,5E-1,1.5E0,2.5E0,5E-1,-5.8536613E1,1.9021854E3,3.15E1,1.0796882E3,4.85E1,-3.4509003E1,6.45E1,-3.455553E1,-3.4534714E1,1.0796882E3,5E-1,1.51E2,2.5E0,-3.457163E1,5.421706E3,5E-1,5E-1,-5.8587288E1,1.5E0,2.5E0,4.6598623E3,-5.85679E1,1E0,-5.8563183E1,1.6923232E3,3.4090476E3,3.75E2,1.8747592E4,5.5250815E3,3.9826257E3,9.191738E3,2.1966467E3,2.9845483E3,2.3334988E3,3.1411873E3,3.7268386E3,4.2047354E3,3.0303823E3,8.6458154E2,3.5538982E3,4.277095E3,5.0787104E3,5.7518516E3,4.317029E3,2.583522E3,3.8301387E3,4.7550854E3,6.4748296E3,4.798566E3,4.8791016E3,6.1536274E3,5.8122886E3,7.250716E3,6.59423E3,8.279584E3,9.433789E3,1.3262655E4,8.888015E3,6.751638E3,1.4374806E3,5.644995E3,9.929655E2,7.788919E3,6.8336797E3,9.993288E3,2.2504924E3,8.199958E3,2.6595037E3,1.0724863E4,7.5762705E3,1.2224653E4,1.2892484E4,1.5770171E4,1.3942291E4,8.23748E3],"split_indices":[0,0,0,0,2,2,2,0,2,0,0,5,0,3,0,0,2,2,8,2,2,8,5,0,8,3,3,6,5,2,0,2,0,4,0,4,4,2,8,0,1,4,0,7,8,5,1,1,0,5,1,5,2,0,0,0,0,0,0,0,0,0,0,0,0,0,0,0,0,0,0,0,0,0,0,0,0,0,0,0,0,0,0,0,0,0,0,0,0,0,0,0,0,0,0,0,0,0,0,0,0,0,0],"split_type":[0,0,0,0,0,0,0,0,0,0,0,0,0,0,0,0,0,0,0,0,0,0,0,0,0,0,0,0,0,0,0,0,0,0,0,0,0,0,0,0,0,0,0,0,0,0,0,0,0,0,0,0,0,0,0,0,0,0,0,0,0,0,0,0,0,0,0,0,0,0,0,0,0,0,0,0,0,0,0,0,0,0,0,0,0,0,0,0,0,0,0,0,0,0,0,0,0,0,0,0,0,0,0],"sum_hessian":[5.107E3,4.474E3,6.33E2,2.763E3,1.711E3,5.53E2,8E1,1.754E3,1.009E3,1.272E3,4.39E2,2.76E2,2.77E2,3E1,5E1,6.68E2,1.086E3,3.62E2,6.47E2,5.64E2,7.08E2,2.22E2,2.17E2,1.14E2,1.62E2,1.04E2,1.73E2,1.8E1,1.2E1,8E0,6.6E2,2.76E2,8.1E2,7E1,2.92E2,5.27E2,1.2E2,3.67E2,1.97E2,2.29E2,4.79E2,1.76E2,4.6E1,4.7E1,1.7E2,3.6E1,7.8E1,1.53E2,9E0,2E1,8.4E1,7.7E1,9.6E1,2E0,1.6E1,1.1E1,1E0,5E0,3E0,1.26E2,5.34E2,4.5E1,2.31E2,5.22E2,2.88E2,6.9E1,1E0,1.22E2,1.7E2,3.25E2,2.02E2,1.14E2,6E0,1.25E2,2.42E2,1.13E2,8.4E1,1.69E2,6E1,1.89E2,2.9E2,7.4E1,1.02E2,2.5E1,2.2E1,1.45E2,2.5E1,1E0,3.5E1,1E0,7.7E1,2.4E1,1.29E2,1E0,1.9E1,1E0,8.3E1,1E1,6.7E1,4.2E1,5.4E1,6E0,1E1],"tree_param":{"num_deleted":"0","num_feature":"9","num_nodes":"103","size_leaf_vector":"0"}},{"base_weights":[1.0569311E5,8.919311E4,2.0312911E5,7.535659E4,1.2219409E5,1.8475712E5,3.6692225E5,6.2227184E4,8.8102984E4,1.0083195E5,1.4360355E5,1.6428506E5,2.4297738E5,2.6992906E5,4.151624E5,5.41578E4,6.883357E4,7.154353E4,9.806015E4,8.504883E4,1.08994336E5,1.3256098E5,1.7862233E5,1.2328742E5,1.7668764E5,2.2940736E5,3.160123E5,2.163037E5,3.5995338E5,4.929888E4,6.142273E4,5.6547E4,7.205218E4,6.0698633E4,7.550218E4,9.293899E4,1.1602467E5,7.860322E4,9.9353086E4,8.9523336E4,1.1344301E5,1.2435299E5,1.5154367E5,1.6147216E5,2.2524067E5,6.685009E4,1.2637029E5,1.5955475E5,2.1136498E5,1.9738177E5,2.4564628E5,2.2854336E5,8.106472E4,3.813092E5,1.0743213E5,5.1040617E4,3.623775E4,6.040332E4,1.4246488E5,5.859253E4,3.686251E4,7.666272E4,6.786754E4,5.476304E4,6.544566E4,6.4016008E4,8.027371E4,9.5310516E4,7.410699E4,1.2119159E5,8.777049E4,6.455763E4,8.3536664E4,1.01326086E5,4.5310992E4,1.16323195E5,8.0068586E4,1.0822485E5,1.3301294E5,1.3394303E5,1.7104664E5,1.6759052E5,1.1148638E5,1.6604392E5,2.5330194E5,1.3116331E5,8.8190516E4,1.2208202E5,1.650276E5,1.0528528E5,2.1901428E5,5.1712566E4,1.9935712E5,6.3634535E4,2.4704398E5],"categories":[],"categories_nodes":[],"categories_segments":[],"categories_sizes":[],"default_left":[1,1,1,1,1,1,1,1,1,1,1,1,1,1,0,1,1,1,1,1,1,1,1,1,1,1,0,1,1,1,1,1,1,1,1,1,1,1,1,0,1,1,1,1,1,0,1,1,1,1,1,0,0,0,0,0,0,0,0,0,0,0,0,0,0,0,0,0,0,0,0,0,0,0,0,0,0,0,0,0,0,0,0,0,0,0,0,0,0,0,0,0,0,0,0],"id":3,"left_children":[1,3,5,7,9,11,13,15,17,19,21,23,25,27,-1,29,31,33,35,37,39,41,43,45,47,49,-1,51,53,55,57,59,61,63,65,67,69,71,73,-1,75,77,79,81,83,-1,85,87,89,91,93,-1,-1,-1,-1,-1,-1,-1,-1,-1,-1,-1,-1,-1,-1,-1,-1,-1,-1,-1,-1,-1,-1,-1,-1,-1,-1,-1,-1,-1,-1,-1,-1,-1,-1,-1,-1,-1,-1,-1,-1,-1,-1,-1,-1],"loss_changes":[8.2053253E12,1.9897883E12,2.1719742E12,5.116967E11,5.787657E11,7.628181E11,2.5565646E11,7.814408E10,2.5207033E11,7.616751E10,2.2962661E11,2.346755E11,1.1227208E11,6.7091956E10,0E0,2.1891908E10,2.9713498E10,2.1654405E10,8.09616E10,1.4478868E10,2.8671738E10,6.155141E10,9.226997E10,1.3737525E10,1.9807391E11,3.807589E10,0E0,1.6297755E10,1.4684783E10,8.002142E9,1.5653143E10,5.3909914E9,8.528855E9,1.6917463E9,1.9390267E10,2.8371845E10,2.2556443E10,6.6893906E9,3.4496184E9,0E0,2.550032E10,3.7060346E10,3.137654E10,1.9856097E10,3.0804804E10,0E0,1.1022107E10,3.6547592E10,8.119701E10,7.2334705E9,1.1540103E10,0E0,0E0,0E0,0E0,0E0,0E0,0E0,0E0,0E0,0E0,0E0,0E0,0E0,0E0,0E0,0E0,0E0,0E0,0E0,0E0,0E0,0E0,0E0,0E0,0E0,0E0,0E0,0E0,0E0,0E0,0E0,0E0,0E0,0E0,0E0,0E0,0E0,0E0,0E0,0E0,0E0,0E0,0E0,0E0],"parents":[2147483647,0,0,1,1,2,2,3,3,4,4,5,5,6,6,7,7,8,8,9,9,10,10,11,11,12,12,13,13,15,15,16,16,17,17,18,18,19,19,20,20,21,21,22,22,23,23,24,24,25,25,27,27,28,28,29,29,30,30,31,31,32,32,33,33,34,34,35,35,36,36,37,37,38,38,40,40,41,41,42,42,43,43,44,44,46,46,47,47,48,48,49,49,50,50],"right_children":[2,4,6,8,10,12,14,16,18,20,22,24,26,28,-1,30,32,34,36,38,40,42,44,46,48,50,-1,52,54,56,58,60,62,64,66,68,70,72,74,-1,76,78,80,82,84,-1,86,88,90,92,94,-1,-1,-1,-1,-1,-1,-1,-1,-1,-1,-1,-1,-1,-1,-1,-1,-1,-1,-1,-1,-1,-1,-1,-1,-1,-1,-1,-1,-1,-1,-1,-1,-1,-1,-1,-1,-1,-1,-1,-1,-1,-1,-1,-1],"split_conditions":[1.585E2,8.55E1,3.435E2,5.15E1,1.5984412E3,1.6923232E3,1.5984412E3,4.05E1,1.5984412E3,1.0796882E3,5E-1,1.0796882E3,3.5E0,3.5E0,2.0758121E4,1.7988953E3,1.5984412E3,1.0796882E3,1.5E0,1.225E2,9.55E1,1.285E2,1.125E2,-5.8588326E1,2.5E0,1.995E2,1.5800616E4,-3.4530506E1,-3.4545944E1,-5.8533653E1,2.5E0,-3.4531242E1,-5.8549038E1,6.8E1,6.05E1,-5.8534817E1,5E-1,5E-1,1.565E2,4.476167E3,-3.4529476E1,5E-1,1.6923232E3,-5.8535828E1,-3.457296E1,3.3425046E3,-5.8564453E1,5E-1,-5.857222E1,1E0,1E0,1.1427168E4,4.053236E3,1.9065459E4,5.371607E3,2.552031E3,1.8118876E3,3.020166E3,7.1232437E3,2.9296267E3,1.8431256E3,3.833136E3,3.393377E3,2.738152E3,3.272283E3,3.2008005E3,4.0136855E3,4.765526E3,3.7053496E3,6.0595796E3,4.388525E3,3.2278816E3,4.1768335E3,5.066304E3,2.2655496E3,5.8161597E3,4.0034294E3,5.4112427E3,6.650647E3,6.697152E3,8.552332E3,8.379526E3,5.5743193E3,8.302196E3,1.2665097E4,6.5581655E3,4.409526E3,6.104101E3,8.25138E3,5.264264E3,1.0950714E4,2.5856284E3,9.967856E3,3.1817268E3,1.2352199E4],"split_indices":[0,0,0,0,2,2,2,0,2,2,7,2,3,3,0,2,2,2,3,0,0,0,0,5,3,0,0,4,4,5,1,4,5,0,0,5,8,6,0,0,4,6,2,5,4,0,5,6,5,1,1,0,0,0,0,0,0,0,0,0,0,0,0,0,0,0,0,0,0,0,0,0,0,0,0,0,0,0,0,0,0,0,0,0,0,0,0,0,0,0,0,0,0,0,0],"split_type":[0,0,0,0,0,0,0,0,0,0,0,0,0,0,0,0,0,0,0,0,0,0,0,0,0,0,0,0,0,0,0,0,0,0,0,0,0,0,0,0,0,0,0,0,0,0,0,0,0,0,0,0,0,0,0,0,0,0,0,0,0,0,0,0,0,0,0,0,0,0,0,0,0,0,0,0,0,0,0,0,0,0,0,0,0,0,0,0,0,0,0,0,0,0,0],"sum_hessian":[5.112E3,4.373E3,7.39E2,3.083E3,1.29E3,6.66E2,7.3E1,1.521E3,1.562E3,6.48E2,6.42E2,4.95E2,1.71E2,2.6E1,4.7E1,6.88E2,8.33E2,5.89E2,9.73E2,2.24E2,4.24E2,4.91E2,1.51E2,1.17E2,3.78E2,1.47E2,2.4E1,1.8E1,8E0,4.16E2,2.72E2,1.76E2,6.57E2,1.61E2,4.28E2,7.61E2,2.12E2,1.58E2,6.6E1,8.2E1,3.42E2,3.47E2,1.44E2,1.13E2,3.8E1,7E0,1.1E2,2.56E2,1.22E2,5.3E1,9.4E1,1.6E1,2E0,7E0,1E0,3.65E2,5.1E1,2.7E2,2E0,1.58E2,1.8E1,3.06E2,3.51E2,7.6E1,8.5E1,1.29E2,2.99E2,6.73E2,8.8E1,1.77E2,3.5E1,4.4E1,1.14E2,6.3E1,3E0,3.13E2,2.9E1,1.25E2,2.22E2,7.9E1,6.5E1,9.9E1,1.4E1,1.4E1,2.4E1,9.6E1,1.4E1,3.5E1,2.21E2,9E0,1.13E2,1E0,5.2E1,1E0,9.3E1],"tree_param":{"num_deleted":"0","num_feature":"9","num_nodes":"95","size_leaf_vector":"0"}},{"base_weights":[1.0094016E5,8.643359E4,2.0546312E5,7.175894E4,1.1881919E5,1.8623048E5,3.412571E5,6.0722215E4,8.652877E4,1.0714773E5,1.5813598E5,1.510849E5,2.2033369E5,2.3157236E5,3.8470488E5,5.1437336E4,6.649518E4,7.607571E4,1.029592E5,8.793976E4,1.16344336E5,1.4533033E5,1.8454242E5,1.2069822E5,1.6335028E5,2.0217361E5,2.6834072E5,1.8138692E5,3.356963E5,4.1304228E5,2.23758E5,1.2513819E5,5.0532496E4,5.493429E4,7.015769E4,6.000488E4,7.953625E4,1.23795664E5,9.4521336E4,7.9050664E4,1.00755836E5,1.0514422E5,1.2622906E5,1.5382506E5,1.1218904E5,2.3320028E5,1.6797273E5,9.490816E4,1.3071274E5,1.6800947E5,1.026488E5,1.7602606E5,2.230856E5,2.4674927E5,3.351068E5,1.9588756E4,1.9008497E5,2.3577317E5,6.556912E4,6.8010555E4,1.7095452E5,3.943931E4,5.339753E4,4.1064492E4,5.715488E4,6.661703E4,7.603125E4,5.3334523E4,6.3722312E4,8.518128E4,7.055592E4,1.1542636E5,1.5914353E5,9.06912E4,1.059968E5,8.41538E4,6.17914E4,6.0745027E4,1.0215546E5,9.149246E4,1.1216503E5,1.21528516E5,1.7725081E5,1.4377473E5,1.8166438E5,9.465903E4,1.2420194E5,9.9749375E4,2.664118E4,1.3567152E5,5.438078E4,1.20468984E5,1.7515695E5,1.06180875E5,2.798559E4,1.4000561E5,1.9019914E5,2.6317638E5,1.9555138E5,2.5131175E5,8.369614E4,1.2574362E5,2.3714586E5],"categories":[],"categories_nodes":[],"categories_segments":[],"categories_sizes":[],"default_left":[1,1,1,1,1,1,1,1,1,1,1,1,1,1,1,1,1,1,1,1,1,1,1,1,1,1,1,1,0,0,1,1,1,1,1,1,1,1,1,1,1,1,1,1,1,0,0,1,1,1,1,1,1,1,0,0,1,0,0,0,0,0,0,0,0,0,0,0,0,0,0,0,0,0,0,0,0,0,0,0,0,0,0,0,0,0,0,0,0,0,0,0,0,0,0,0,0,0,0,0,0,0,0],"id":4,"left_children":[1,3,5,7,9,11,13,15,17,19,21,23,25,27,29,31,33,35,37,39,41,43,45,47,49,51,53,55,-1,-1,57,59,61,63,65,67,69,71,73,75,77,79,81,83,85,-1,-1,87,89,91,93,95,97,99,-1,-1,101,-1,-1,-1,-1,-1,-1,-1,-1,-1,-1,-1,-1,-1,-1,-1,-1,-1,-1,-1,-1,-1,-1,-1,-1,-1,-1,-1,-1,-1,-1,-1,-1,-1,-1,-1,-1,-1,-1,-1,-1,-1,-1,-1,-1,-1,-1],"loss_changes":[7.7912384E12,2.1421548E12,1.58616E12,5.033794E11,6.329226E11,6.335454E11,2.947243E11,9.293162E10,2.221251E11,1.8414987E11,8.702342E10,8.627369E10,1.9878799E11,7.5654234E10,1.7143484E11,4.0808874E10,4.3399512E10,4.1551397E10,8.114825E10,3.4162082E10,7.0620545E10,4.807354E10,5.0738495E10,1.1202331E10,4.073036E10,8.056891E10,4.0238055E10,2.2071607E10,0E0,0E0,6.258983E9,1.1114185E10,1.9952697E10,6.3703613E9,1.3225689E10,9.460449E8,2.9096411E10,2.8437643E10,8.563458E9,1.4670758E10,3.0324818E9,2.5221399E10,7.529352E10,2.7453555E10,6.606029E8,0E0,0E0,6.4008356E9,1.559724E10,4.353478E10,1.7894932E9,2.7094155E10,8.113724E10,2.6915897E10,0E0,0E0,2.7014136E10,0E0,0E0,0E0,0E0,0E0,0E0,0E0,0E0,0E0,0E0,0E0,0E0,0E0,0E0,0E0,0E0,0E0,0E0,0E0,0E0,0E0,0E0,0E0,0E0,0E0,0E0,0E0,0E0,0E0,0E0,0E0,0E0,0E0,0E0,0E0,0E0,0E0,0E0,0E0,0E0,0E0,0E0,0E0,0E0,0E0,0E0],"parents":[2147483647,0,0,1,1,2,2,3,3,4,4,5,5,6,6,7,7,8,8,9,9,10,10,11,11,12,12,13,13,14,14,15,15,16,16,17,17,18,18,19,19,20,20,21,21,22,22,23,23,24,24,25,25,26,26,27,27,30,30,31,31,32,32,33,33,34,34,35,35,36,36,37,37,38,38,39,39,40,40,41,41,42,42,43,43,44,44,47,47,48,48,49,49,50,50,51,51,52,52,53,53,56,56],"right_children":[2,4,6,8,10,12,14,16,18,20,22,24,26,28,30,32,34,36,38,40,42,44,46,48,50,52,54,56,-1,-1,58,60,62,64,66,68,70,72,74,76,78,80,82,84,86,-1,-1,88,90,92,94,96,98,100,-1,-1,102,-1,-1,-1,-1,-1,-1,-1,-1,-1,-1,-1,-1,-1,-1,-1,-1,-1,-1,-1,-1,-1,-1,-1,-1,-1,-1,-1,-1,-1,-1,-1,-1,-1,-1,-1,-1,-1,-1,-1,-1,-1,-1,-1,-1,-1,-1],"split_conditions":[1.725E2,8.55E1,3.445E2,5.55E1,1.6923232E3,1.5984412E3,1.516798E3,4.05E1,1.6923232E3,1.1706995E3,1.285E2,1.0796882E3,2.49E2,3.5E0,-5.853662E1,1.15E1,1.5984412E3,1.0796882E3,-5.854986E1,1.225E2,1.5E0,5E-1,-5.85504E1,1.5E0,5E-1,1.6923232E3,3.5E0,1.5E0,1.6784816E4,2.0652115E4,5.65E2,2.5E0,3.15E1,1.0796882E3,4.85E1,6.8E1,5E-1,7.85E1,7.15E1,5E-1,-5.8585724E1,5E-1,5E-1,-3.454998E1,2.5E0,1.1660015E4,8.398637E3,-3.4525406E1,-5.8562893E1,2.5E0,2.745E2,-3.455493E1,-5.8548237E1,5.5E0,1.6755342E4,9.794378E2,1.1706995E3,1.1788659E4,3.2784558E3,3.4005278E3,8.547726E3,1.9719655E3,2.6698767E3,2.0532246E3,2.857744E3,3.3308516E3,3.8015625E3,2.6667263E3,3.1861157E3,4.259064E3,3.5277961E3,5.771318E3,7.957177E3,4.53456E3,5.29984E3,4.20769E3,3.08957E3,3.0372515E3,5.107773E3,4.574623E3,5.6082515E3,6.076426E3,8.862541E3,7.188737E3,9.083219E3,4.7329517E3,6.210097E3,4.9874688E3,1.332059E3,6.7835757E3,2.719039E3,6.023449E3,8.757848E3,5.309044E3,1.3992795E3,7.000281E3,9.509957E3,1.3158819E4,9.777569E3,1.2565588E4,4.184807E3,6.287181E3,1.1857293E4],"split_indices":[0,0,0,0,2,2,2,0,2,2,0,2,0,3,5,0,2,2,5,0,3,8,5,3,8,2,3,1,0,0,0,1,0,2,0,0,8,0,0,8,5,6,7,4,1,0,0,4,5,1,0,4,5,1,0,0,2,0,0,0,0,0,0,0,0,0,0,0,0,0,0,0,0,0,0,0,0,0,0,0,0,0,0,0,0,0,0,0,0,0,0,0,0,0,0,0,0,0,0,0,0,0,0],"split_type":[0,0,0,0,0,0,0,0,0,0,0,0,0,0,0,0,0,0,0,0,0,0,0,0,0,0,0,0,0,0,0,0,0,0,0,0,0,0,0,0,0,0,0,0,0,0,0,0,0,0,0,0,0,0,0,0,0,0,0,0,0,0,0,0,0,0,0,0,0,0,0,0,0,0,0,0,0,0,0,0,0,0,0,0,0,0,0,0,0,0,0,0,0,0,0,0,0,0,0,0,0,0,0],"sum_hessian":[5.147E3,4.521E3,6.26E2,3.113E3,1.408E3,5.5E2,7.6E1,1.784E3,1.329E3,1.088E3,3.2E2,2.73E2,2.77E2,2.3E1,5.3E1,6.87E2,1.097E3,8.15E2,5.14E2,3.55E2,7.33E2,2.19E2,1.01E2,8.1E1,1.92E2,2.04E2,7.3E1,1.7E1,6E0,4.4E1,9E0,7E0,6.8E2,2.67E2,8.3E2,1.47E2,6.68E2,1.45E2,3.69E2,2.13E2,1.42E2,3.48E2,3.85E2,1.72E2,4.7E1,2.3E1,7.8E1,2.5E1,5.6E1,1.77E2,1.5E1,9.4E1,1.1E2,5.8E1,1.5E1,1E0,1.6E1,8E0,1E0,4E0,3E0,1.42E2,5.38E2,3.9E1,2.28E2,5.24E2,3.06E2,5.7E1,9E1,4.06E2,2.62E2,1.2E2,2.5E1,2.82E2,8.7E1,1.62E2,5.1E1,6E0,1.36E2,1.22E2,2.26E2,3.55E2,3E1,1.3E2,4.2E1,2.2E1,2.5E1,2.3E1,2E0,5.2E1,4E0,2.5E1,1.52E2,1.4E1,1E0,2.9E1,6.5E1,4.2E1,6.8E1,5.6E1,2E0,8E0,8E0],"tree_param":{"num_deleted":"0","num_feature":"9","num_nodes":"103","size_leaf_vector":"0"}},{"base_weights":[9.458551E4,7.938697E4,1.8335855E5,6.1524125E4,9.831432E4,1.6768775E5,3.2681516E5,5.3197715E4,7.034738E4,8.870705E4,1.22128805E5,1.342066E5,2.037532E5,2.4160577E5,3.820254E5,4.7270125E4,6.0270992E4,5.6182906E4,7.5838E4,7.702069E4,9.993687E4,1.06841836E5,1.5459052E5,1.1215844E5,1.4490489E5,1.7740117E5,2.3785411E5,1.7630233E5,2.94676E5,4.0115094E5,2.3357827E5,4.026334E4,5.1108613E4,5.942492E4,1.6420631E5,5.778998E4,3.900913E4,7.049921E4,8.54671E4,6.028483E4,8.104865E4,8.056839E4,1.0907338E5,9.4192766E4,1.1788622E5,1.4410127E5,1.9084264E5,5.7142324E4,1.14679555E5,1.3098805E5,1.6918712E5,1.09410266E5,1.8646911E5,1.5206397E5,2.4428636E5,5.498844E4,1.9069631E5,1.9039812E5,3.2884922E5,4.0959506E5,1.8158812E5,2.540666E5,6.374775E4,4.138336E4,1.6860781E4,4.0908324E4,5.3614453E4,5.1151875E4,6.478752E4,4.0773984E4,5.863069E4,4.1138527E4,1.633918E4,7.238763E4,4.858533E4,8.685222E4,5.4135145E4,6.3460008E4,5.10184E4,7.617812E4,9.4506305E4,7.2716875E4,9.237736E4,1.06835664E5,1.542013E5,8.93495E4,1.2242858E5,1.2391798E5,9.15234E4,1.494678E5,1.082581E5,2.0046981E5,1.1912205E5,9.276148E4,1.2172465E5,8.473113E4,1.3409834E5,1.7470356E5,8.697939E4,2.348683E4,1.1235474E5,2.1009355E5,1.6539275E5,1.5875247E5,4.434895E4,1.713445E5,2.5066138E5,6.649295E4,1.9044625E4,1.9980794E5,4.1148652E4,3.4442388E5,9.789866E4],"categories":[],"categories_nodes":[],"categories_segments":[],"categories_sizes":[],"default_left":[1,1,1,1,1,1,1,1,1,1,1,1,1,1,1,1,1,1,1,1,1,1,1,1,1,1,1,1,1,1,1,1,1,1,0,1,1,1,1,1,1,1,1,1,1,1,1,0,1,1,1,1,1,1,1,1,1,0,1,0,0,0,0,0,0,0,0,0,0,0,0,0,0,0,0,0,0,0,0,0,0,0,0,0,0,0,0,0,0,0,0,0,0,0,0,0,0,0,0,0,0,0,0,0,0,0,0,0,0,0,0,0,0],"id":5,"left_children":[1,3,5,7,9,11,13,15,17,19,21,23,25,27,29,31,33,35,37,39,41,43,45,47,49,51,53,55,57,59,61,63,65,67,-1,69,71,73,75,77,79,81,83,85,87,89,91,-1,93,95,97,99,101,103,105,107,109,-1,111,-1,-1,-1,-1,-1,-1,-1,-1,-1,-1,-1,-1,-1,-1,-1,-1,-1,-1,-1,-1,-1,-1,-1,-1,-1,-1,-1,-1,-1,-1,-1,-1,-1,-1,-1,-1,-1,-1,-1,-1,-1,-1,-1,-1,-1,-1,-1,-1,-1,-1,-1,-1,-1,-1],"loss_changes":[6.8960943E12,1.4735869E12,1.6372717E12,1.6243753E11,4.767854E11,7.941621E11,2.6864307E11,4.6431994E10,8.142455E10,1.9263809E11,2.884014E11,7.0215795E10,2.5721989E11,6.5180926E10,4.6554677E10,1.5453913E10,3.8518653E10,6.6916844E9,3.54728E10,4.6366458E10,1.29194E11,4.920443E10,5.1313115E10,1.1235361E10,6.1616947E10,9.823112E10,4.687554E10,1.9200934E10,6.213599E9,8.725201E9,1.0703962E10,5.438898E9,8.66884E9,2.0587217E10,0E0,2.0902052E9,8.5253734E8,1.8241815E10,8.2078597E9,1.7585603E9,3.348942E10,1.7787126E10,3.9412826E10,1.829883E10,2.571921E10,1.6446652E10,9.066775E9,0E0,8.385069E9,1.2894077E10,2.5392579E10,3.9103037E9,5.3262418E10,2.868953E9,2.5067782E10,1.4477824E8,1.2226724E10,0E0,1.1872502E10,0E0,0E0,0E0,0E0,0E0,0E0,0E0,0E0,0E0,0E0,0E0,0E0,0E0,0E0,0E0,0E0,0E0,0E0,0E0,0E0,0E0,0E0,0E0,0E0,0E0,0E0,0E0,0E0,0E0,0E0,0E0,0E0,0E0,0E0,0E0,0E0,0E0,0E0,0E0,0E0,0E0,0E0,0E0,0E0,0E0,0E0,0E0,0E0,0E0,0E0,0E0,0E0,0E0,0E0],"parents":[2147483647,0,0,1,1,2,2,3,3,4,4,5,5,6,6,7,7,8,8,9,9,10,10,11,11,12,12,13,13,14,14,15,15,16,16,17,17,18,18,19,19,20,20,21,21,22,22,23,23,24,24,25,25,26,26,27,27,28,28,29,29,30,30,31,31,32,32,33,33,35,35,36,36,37,37,38,38,39,39,40,40,41,41,42,42,43,43,44,44,45,45,46,46,48,48,49,49,50,50,51,51,52,52,53,53,54,54,55,55,56,56,58,58],"right_children":[2,4,6,8,10,12,14,16,18,20,22,24,26,28,30,32,34,36,38,40,42,44,46,48,50,52,54,56,58,60,62,64,66,68,-1,70,72,74,76,78,80,82,84,86,88,90,92,-1,94,96,98,100,102,104,106,108,110,-1,112,-1,-1,-1,-1,-1,-1,-1,-1,-1,-1,-1,-1,-1,-1,-1,-1,-1,-1,-1,-1,-1,-1,-1,-1,-1,-1,-1,-1,-1,-1,-1,-1,-1,-1,-1,-1,-1,-1,-1,-1,-1,-1,-1,-1,-1,-1,-1,-1,-1,-1,-1,-1,-1,-1],"split_conditions":[1.585E2,6.35E1,3.44E2,4.55E1,1.6923232E3,1.5984412E3,1.5984412E3,1.6923232E3,1.5984412E3,9.55E1,1.005E2,1.0796882E3,2.195E2,2.5E0,-5.8537823E1,3.65E1,2.5E0,-3.4531113E1,5.75E1,1.0796882E3,1.1706995E3,7.35E1,-3.455024E1,-5.8588326E1,2.23E2,-5.8564728E1,2.5E0,5E-1,-3.4562714E1,-3.4537457E1,6.02E2,-5.8522675E1,5E-1,3.85E1,8.210315E3,-5.8580425E1,-3.4515923E1,-5.8531944E1,-3.453956E1,-3.4538223E1,1.5E0,1.225E2,2.5E0,-3.454905E1,5E-1,5E-1,1.525E2,2.8571162E3,1.5E0,-3.458776E1,-3.452906E1,-3.4560787E1,-5.8549107E1,-5.8524933E1,-5.8563408E1,3.85E2,-3.4514244E1,9.519906E3,-3.4545944E1,2.0479754E4,9.079406E3,1.270333E4,3.1873875E3,2.069168E3,8.4303906E2,2.0454163E3,2.6807227E3,2.5575938E3,3.239376E3,2.0386992E3,2.9315347E3,2.0569265E3,8.16959E2,3.6193816E3,2.4292664E3,4.342611E3,2.7067573E3,3.1730005E3,2.55092E3,3.808906E3,4.7253154E3,3.6358438E3,4.618868E3,5.341783E3,7.710065E3,4.467475E3,6.121429E3,6.195899E3,4.57617E3,7.47339E3,5.4129053E3,1.0023491E4,5.9561025E3,4.6380737E3,6.0862324E3,4.2365566E3,6.7049175E3,8.735179E3,4.3489697E3,1.1743416E3,5.6177373E3,1.0504678E4,8.269638E3,7.9376235E3,2.2174475E3,8.567226E3,1.2533069E4,3.3246477E3,9.5223126E2,9.990397E3,2.0574326E3,1.7221193E4,4.894933E3],"split_indices":[0,0,0,0,2,2,2,2,2,0,0,2,0,3,5,0,1,4,0,2,2,0,4,5,0,5,1,6,4,4,0,5,7,0,0,5,4,5,4,4,3,0,3,4,8,8,0,0,3,4,4,4,5,5,5,0,4,0,4,0,0,0,0,0,0,0,0,0,0,0,0,0,0,0,0,0,0,0,0,0,0,0,0,0,0,0,0,0,0,0,0,0,0,0,0,0,0,0,0,0,0,0,0,0,0,0,0,0,0,0,0,0,0],"split_type":[0,0,0,0,0,0,0,0,0,0,0,0,0,0,0,0,0,0,0,0,0,0,0,0,0,0,0,0,0,0,0,0,0,0,0,0,0,0,0,0,0,0,0,0,0,0,0,0,0,0,0,0,0,0,0,0,0,0,0,0,0,0,0,0,0,0,0,0,0,0,0,0,0,0,0,0,0,0,0,0,0,0,0,0,0,0,0,0,0,0,0,0,0,0,0,0,0,0,0,0,0,0,0,0,0,0,0,0,0,0,0,0,0],"sum_hessian":[5.119E3,4.372E3,7.47E2,2.251E3,2.121E3,6.75E2,7.2E1,1.161E3,1.09E3,1.514E3,6.07E2,3.52E2,3.23E2,3E1,4.2E1,6.35E2,5.26E2,3.07E2,7.83E2,7.45E2,7.69E2,4.15E2,1.92E2,1.18E2,2.34E2,1.85E2,1.38E2,1.5E1,1.5E1,3.6E1,6E0,2.28E2,4.07E2,5.23E2,3E0,2.79E2,2.8E1,5.08E2,2.75E2,1.47E2,5.98E2,2.49E2,5.2E2,1.97E2,2.18E2,1.52E2,4E1,6E0,1.12E2,1.52E2,8.2E1,2.3E1,1.62E2,1.1E1,1.27E2,2E0,1.3E1,5E0,1E1,3.4E1,2E0,5E0,1E0,2.17E2,1.1E1,8.3E1,3.24E2,2.09E2,3.14E2,1.5E1,2.64E2,2.5E1,3E0,4.66E2,4.2E1,2.62E2,1.3E1,1.06E2,4.1E1,4.43E2,1.55E2,1.53E2,9.6E1,4.98E2,2.2E1,1.71E2,2.6E1,1.75E2,4.3E1,1.3E2,2.2E1,3.4E1,6E0,3E1,8.2E1,1.1E1,1.41E2,7.6E1,6E0,1E0,2.2E1,7.3E1,8.9E1,1E1,1E0,1.2E1,1.15E2,1E0,1E0,1.2E1,1E0,9E0,1E0],"tree_param":{"num_deleted":"0","num_feature":"9","num_nodes":"113","size_leaf_vector":"0"}},{"base_weights":[8.969464E4,7.551658E4,1.710279E5,5.807463E4,9.375318E4,1.5794911E5,3.0056778E5,4.993612E4,6.684377E4,7.787702E4,1.08080266E5,1.3939083E5,2.1081056E5,2.068587E5,3.348789E5,3.936994E4,5.2691844E4,5.409786E4,7.212306E4,6.87248E4,9.0504305E4,9.343599E4,1.2472112E5,1.2349386E5,1.6857769E5,1.8219694E5,2.4011844E5,1.6397594E5,2.9514506E5,3.5029122E5,2.312269E5,3.144859E4,4.2681598E4,4.6112996E4,5.7380156E4,4.705878E4,5.9311414E4,6.6912625E4,7.993057E4,5.9475406E4,7.2897086E4,8.916633E4,1.760158E5,8.772315E4,1.0772536E5,1.3224684E5,9.434888E4,1.0147965E5,1.3420125E5,1.7392931E5,7.9686195E4,2.2208775E5,1.6536397E5,2.4192148E5,4.7453855E4,2.2454961E5,1.1929926E5,3.6223538E5,1.9784914E5,2.583786E5,9.922226E4,2.4447916E4,3.394778E4,4.283302E4,9.343737E3,4.545802E4,1.24119734E5,5.894074E4,4.8674438E4,3.731961E4,5.036844E4,6.2590406E4,5.2300703E4,6.8440766E4,4.360206E4,8.293515E4,6.4447785E4,6.4144473E4,5.2187957E4,7.812267E4,6.5294145E4,7.2794086E4,9.396258E4,2.2177556E5,6.3623023E4,7.849851E4,9.422537E4,7.6729805E4,1.1290269E5,1.09167414E5,1.396206E5,1.05759125E5,7.003544E4,3.4300953E4,1.0303685E5,1.1145491E5,1.4552553E5,1.2147953E5,1.818422E5,1.2347498E4,8.500663E4,7.203417E4,2.2581461E5,1.6804127E5,5.3288383E4,2.4547956E5,1.1346178E5,6.4645926E4,2.4708856E5,1.8515607E4,1.2807183E5],"categories":[],"categories_nodes":[],"categories_segments":[],"categories_sizes":[],"default_left":[1,1,1,1,1,1,1,1,1,1,1,1,1,1,1,1,1,1,1,1,1,1,1,1,1,1,1,1,0,1,1,1,1,1,1,1,1,1,1,1,1,1,1,1,1,1,1,1,1,1,1,1,1,1,0,1,1,0,0,0,0,0,0,0,0,0,0,0,0,0,0,0,0,0,0,0,0,0,0,0,0,0,0,0,0,0,0,0,0,0,0,0,0,0,0,0,0,0,0,0,0,0,0,0,0,0,0,0,0,0,0],"id":6,"left_children":[1,3,5,7,9,11,13,15,17,19,21,23,25,27,29,31,33,35,37,39,41,43,45,47,49,51,53,55,-1,57,59,61,63,65,67,69,71,73,75,77,79,81,83,85,87,89,91,93,95,97,99,101,103,105,-1,107,109,-1,-1,-1,-1,-1,-1,-1,-1,-1,-1,-1,-1,-1,-1,-1,-1,-1,-1,-1,-1,-1,-1,-1,-1,-1,-1,-1,-1,-1,-1,-1,-1,-1,-1,-1,-1,-1,-1,-1,-1,-1,-1,-1,-1,-1,-1,-1,-1,-1,-1,-1,-1,-1,-1],"loss_changes":[5.982344E12,1.4037287E12,1.2679318E12,1.589636E11,4.8521596E11,6.649702E11,1.6900738E11,3.263483E10,7.007581E10,1.1392044E11,2.6722016E11,2.2545118E11,1.16620526E11,4.0030634E10,1.4758707E10,5.4004285E9,2.6623345E10,9.57671E9,2.691511E10,1.9678364E10,3.6618633E10,4.1974497E10,1.1088744E11,6.94367E10,7.539681E10,3.4276377E10,2.0968374E10,2.1327577E10,0E0,1.8774753E10,1.1030954E10,6.622331E8,5.470945E8,1.5504245E10,5.052039E9,3.0346445E9,1.5604122E9,1.416967E10,9.810084E9,3.814064E9,1.2200575E10,2.7885568E10,1.8541756E10,2.0342637E10,2.0318126E10,5.9589E10,2.3980605E10,9.181856E9,4.544502E10,5.3214708E10,3.387908E9,1.4150533E9,1.3780386E10,1.6935027E10,0E0,8.1249567E9,7.651541E9,0E0,0E0,0E0,0E0,0E0,0E0,0E0,0E0,0E0,0E0,0E0,0E0,0E0,0E0,0E0,0E0,0E0,0E0,0E0,0E0,0E0,0E0,0E0,0E0,0E0,0E0,0E0,0E0,0E0,0E0,0E0,0E0,0E0,0E0,0E0,0E0,0E0,0E0,0E0,0E0,0E0,0E0,0E0,0E0,0E0,0E0,0E0,0E0,0E0,0E0,0E0,0E0,0E0,0E0],"parents":[2147483647,0,0,1,1,2,2,3,3,4,4,5,5,6,6,7,7,8,8,9,9,10,10,11,11,12,12,13,13,14,14,15,15,16,16,17,17,18,18,19,19,20,20,21,21,22,22,23,23,24,24,25,25,26,26,27,27,29,29,30,30,31,31,32,32,33,33,34,34,35,35,36,36,37,37,38,38,39,39,40,40,41,41,42,42,43,43,44,44,45,45,46,46,47,47,48,48,49,49,50,50,51,51,52,52,53,53,55,55,56,56],"right_children":[2,4,6,8,10,12,14,16,18,20,22,24,26,28,30,32,34,36,38,40,42,44,46,48,50,52,54,56,-1,58,60,62,64,66,68,70,72,74,76,78,80,82,84,86,88,90,92,94,96,98,100,102,104,106,-1,108,110,-1,-1,-1,-1,-1,-1,-1,-1,-1,-1,-1,-1,-1,-1,-1,-1,-1,-1,-1,-1,-1,-1,-1,-1,-1,-1,-1,-1,-1,-1,-1,-1,-1,-1,-1,-1,-1,-1,-1,-1,-1,-1,-1,-1,-1,-1,-1,-1,-1,-1,-1,-1,-1,-1],"split_conditions":[1.585E2,6.35E1,3.435E2,4.55E1,1.5984412E3,1.6923232E3,1.516798E3,1.4177954E3,1.5984412E3,1.045E2,1.5E0,2.245E2,2.19E2,3.5E0,-5.853549E1,3.55E1,3.85E1,1.2363098E3,5.55E1,1.0796882E3,-5.8525528E1,9.85E1,5E-1,-5.85691E1,-3.452906E1,-5.8549107E1,-5.853248E1,3.685E2,1.4757253E4,-3.4537933E1,4.4E2,1.0796882E3,-5.8530148E1,2.5E0,-5.853562E1,5.1E1,5E-1,-5.8531944E1,5E-1,5E-1,5E-1,-5.857513E1,5E-1,1.6923232E3,-5.8564884E1,8.25E1,-5.854471E1,-5.858742E1,1.715E2,2.5E0,1.5E0,-5.855873E1,-3.4551533E1,-3.454396E1,2.3726929E3,1.0952849E3,5E-1,1.811177E4,9.892457E3,1.291893E4,4.961113E3,1.2223959E3,1.697389E3,2.1416511E3,4.6718686E2,2.2729011E3,6.205987E3,2.9470369E3,2.433722E3,1.8659805E3,2.518422E3,3.1295203E3,2.6150352E3,3.4220383E3,2.180103E3,4.1467573E3,3.2223894E3,3.2072236E3,2.609398E3,3.9061335E3,3.2647073E3,3.6397043E3,4.698129E3,1.1088778E4,3.1811511E3,3.9249255E3,4.7112686E3,3.8364902E3,5.6451343E3,5.4583706E3,6.98103E3,5.2879565E3,3.501772E3,1.7150477E3,5.151843E3,5.5727456E3,7.276277E3,6.0739766E3,9.09211E3,6.1737494E2,4.2503315E3,3.6017087E3,1.129073E4,8.402063E3,2.6644192E3,1.2273979E4,5.6730894E3,3.2322964E3,1.2354429E4,9.257804E2,6.4035913E3],"split_indices":[0,0,0,0,2,2,2,2,2,0,3,0,0,3,5,0,0,2,0,2,5,0,8,5,4,5,5,0,0,4,0,2,5,1,5,0,8,5,8,8,8,5,6,2,5,0,5,5,0,1,1,5,4,4,0,2,6,0,0,0,0,0,0,0,0,0,0,0,0,0,0,0,0,0,0,0,0,0,0,0,0,0,0,0,0,0,0,0,0,0,0,0,0,0,0,0,0,0,0,0,0,0,0,0,0,0,0,0,0,0,0],"split_type":[0,0,0,0,0,0,0,0,0,0,0,0,0,0,0,0,0,0,0,0,0,0,0,0,0,0,0,0,0,0,0,0,0,0,0,0,0,0,0,0,0,0,0,0,0,0,0,0,0,0,0,0,0,0,0,0,0,0,0,0,0,0,0,0,0,0,0,0,0,0,0,0,0,0,0,0,0,0,0,0,0,0,0,0,0,0,0,0,0,0,0,0,0,0,0,0,0,0,0,0,0,0,0,0,0,0,0,0,0,0,0],"sum_hessian":[5.196E3,4.426E3,7.7E2,2.264E3,2.162E3,7.01E2,6.9E1,1.177E3,1.087E3,1.028E3,1.134E3,5.21E2,1.8E2,2E1,4.9E1,2.46E2,9.31E2,3.21E2,7.66E2,5.99E2,4.29E2,6.06E2,5.28E2,3.4E2,1.81E2,9.4E1,8.6E1,1.5E1,5E0,4.1E1,8E0,7.5E1,1.71E2,3.91E2,5.4E2,1.4E2,1.81E2,4.64E2,3.02E2,1.9E2,4.09E2,4.24E2,5E0,4.37E2,1.69E2,4.21E2,1.07E2,1.14E2,2.26E2,1.7E2,1.1E1,2.5E1,6.9E1,8.5E1,1E0,5E0,1E1,3.7E1,4E0,6E0,2E0,2.2E1,5.3E1,1.7E2,1E0,3.89E2,2E0,4.54E2,8.6E1,3.8E1,1.02E2,1.19E2,6.2E1,4.34E2,3E1,2.5E2,5.2E1,1.12E2,7.8E1,2.38E2,1.71E2,9.9E1,3.25E2,3E0,2E0,1.85E2,2.52E2,2.6E1,1.43E2,1.05E2,3.16E2,7.1E1,3.6E1,3E0,1.11E2,7.8E1,1.48E2,2.4E1,1.46E2,1E0,1E1,1E0,2.4E1,6.7E1,2E0,8.2E1,3E0,1E0,4E0,1E0,9E0],"tree_param":{"num_deleted":"0","num_feature":"9","num_nodes":"111","size_leaf_vector":"0"}},{"base_weights":[8.736957E4,7.409961E4,1.7953758E5,6.222431E4,1.02227836E5,1.6153067E5,3.036301E5,5.0875188E4,7.294053E4,9.179861E4,1.3466794E5,1.2776852E5,1.9459955E5,2.1300467E5,3.4117906E5,4.4317246E4,5.5995953E4,5.931636E4,8.115875E4,7.589092E4,9.965276E4,1.2770286E5,1.7341223E5,9.6538016E4,1.3551712E5,1.66454E5,2.1591588E5,9.2788734E4,2.3833394E5,3.001624E5,3.9865272E5,1.1235301E5,4.3369027E4,5.120344E4,6.0323516E4,5.2594508E4,6.4249957E4,7.636625E4,9.788824E4,6.654776E4,8.899724E4,8.829306E4,1.10317984E5,1.3588492E5,9.349569E4,1.3761852E5,2.0940986E5,7.5407016E4,1.272569E5,9.279589E4,1.4200117E5,1.8302931E5,1.4374061E5,1.8581722E5,2.3572036E5,5.5776766E4,2.5538144E5,2.3480053E5,3.335214E5,8.551965E4,4.1101216E5,2.8466324E4,1.20188086E5,3.3465266E4,4.5893418E4,3.4075535E4,5.237891E4,5.652026E4,6.810343E4,4.11876E4,5.4789938E4,6.982212E4,5.7035133E4,7.946103E4,6.3506727E4,8.115895E4,1.0455837E5,5.216695E4,7.106917E4,8.5335086E4,1.1942702E5,7.504727E4,9.4648836E4,1.0591304E5,1.6132742E5,1.26824336E5,1.556863E5,7.994948E4,1.0316824E5,1.4064484E5,3.475865E4,1.6468877E4,2.1805245E5,1.978532E4,7.651856E4,3.7301246E4,1.3447181E5,9.778008E4,3.5485E4,6.0392707E4,1.4481572E5,1.5907105E5,2.2683555E5,1.5513014E5,9.925842E4,1.2202552E5,2.1496447E5,2.3948108E5,1.2686048E5,1.8001285E4,6.876257E4,2.8577628E5,1.4783767E5],"categories":[],"categories_nodes":[],"categories_segments":[],"categories_sizes":[],"default_left":[1,1,1,1,1,1,1,1,1,1,1,1,1,1,1,1,1,1,1,1,1,1,1,1,1,1,1,0,1,1,1,1,1,1,1,1,1,1,1,1,1,1,1,1,1,1,1,1,1,1,1,1,1,1,1,1,1,0,0,0,0,0,0,0,0,0,0,0,0,0,0,0,0,0,0,0,0,0,0,0,0,0,0,0,0,0,0,0,0,0,0,0,0,0,0,0,0,0,0,0,0,0,0,0,0,0,0,0,0,0,0,0,0],"id":7,"left_children":[1,3,5,7,9,11,13,15,17,19,21,23,25,27,29,31,33,35,37,39,41,43,45,47,49,51,53,-1,55,57,59,61,63,65,67,69,71,73,75,77,79,81,83,85,87,89,91,93,95,97,99,101,103,105,107,109,111,-1,-1,-1,-1,-1,-1,-1,-1,-1,-1,-1,-1,-1,-1,-1,-1,-1,-1,-1,-1,-1,-1,-1,-1,-1,-1,-1,-1,-1,-1,-1,-1,-1,-1,-1,-1,-1,-1,-1,-1,-1,-1,-1,-1,-1,-1,-1,-1,-1,-1,-1,-1,-1,-1,-1,-1],"loss_changes":[6.260993E12,1.4926416E12,1.4015833E12,3.8071697E11,4.40015E11,6.1069486E11,2.1681563E11,4.95557E10,1.7762406E11,1.1999065E11,6.91237E10,5.7727255E10,1.4151582E11,6.086879E10,3.5813065E10,3.976423E10,1.5340405E10,1.761883E10,7.490136E10,3.65046E10,7.3720136E10,6.7028648E10,3.7246337E10,3.0491443E10,5.1452314E10,2.631454E10,5.9617837E10,0E0,5.333713E10,1.5409873E10,5.237978E10,3.046826E9,1.5492055E10,6.8831805E9,1.014091E10,4.800971E9,1.0876879E10,2.7315405E10,1.796132E10,1.0025304E10,7.203193E9,2.2082486E10,6.3580668E10,2.3818404E10,7.126712E8,4.1203139E9,3.3478803E10,1.0640589E9,1.0784932E10,6.30784E9,3.7287625E10,4.4390154E10,1.6458187E10,1.03219724E11,1.3687063E10,3.83275E8,2.7654226E10,0E0,0E0,0E0,0E0,0E0,0E0,0E0,0E0,0E0,0E0,0E0,0E0,0E0,0E0,0E0,0E0,0E0,0E0,0E0,0E0,0E0,0E0,0E0,0E0,0E0,0E0,0E0,0E0,0E0,0E0,0E0,0E0,0E0,0E0,0E0,0E0,0E0,0E0,0E0,0E0,0E0,0E0,0E0,0E0,0E0,0E0,0E0,0E0,0E0,0E0,0E0,0E0,0E0,0E0,0E0,0E0],"parents":[2147483647,0,0,1,1,2,2,3,3,4,4,5,5,6,6,7,7,8,8,9,9,10,10,11,11,12,12,13,13,14,14,15,15,16,16,17,17,18,18,19,19,20,20,21,21,22,22,23,23,24,24,25,25,26,26,28,28,29,29,30,30,31,31,32,32,33,33,34,34,35,35,36,36,37,37,38,38,39,39,40,40,41,41,42,42,43,43,44,44,45,45,46,46,47,47,48,48,49,49,50,50,51,51,52,52,53,53,54,54,55,55,56,56],"right_children":[2,4,6,8,10,12,14,16,18,20,22,24,26,28,30,32,34,36,38,40,42,44,46,48,50,52,54,-1,56,58,60,62,64,66,68,70,72,74,76,78,80,82,84,86,88,90,92,94,96,98,100,102,104,106,108,110,112,-1,-1,-1,-1,-1,-1,-1,-1,-1,-1,-1,-1,-1,-1,-1,-1,-1,-1,-1,-1,-1,-1,-1,-1,-1,-1,-1,-1,-1,-1,-1,-1,-1,-1,-1,-1,-1,-1,-1,-1,-1,-1,-1,-1,-1,-1,-1,-1,-1,-1,-1,-1,-1,-1,-1,-1],"split_conditions":[1.725E2,8.95E1,3.43E2,5.15E1,1.6923232E3,1.5984412E3,2.5E0,4.05E1,1.5984412E3,1.1706995E3,2.5E0,9.9152234E2,2.195E2,1.1706995E3,4.215E2,1.15E1,1.6923232E3,6.65E1,1.5E0,1.225E2,1.5E0,5E-1,-3.4572937E1,2.14E2,2.5E0,-5.8549107E1,1.6923232E3,4.639437E3,1.5E0,1.6535947E3,-5.8587708E1,-5.8561386E1,3.15E1,1.0796882E3,-3.455255E1,9.9152234E2,5E-1,5E-1,5E-1,5E-1,4.5E0,5E-1,5E-1,-3.4551964E1,2.5E0,-5.8531403E1,1.025E2,-5.8587288E1,1.5E0,2.5E0,-5.8575203E1,1.6863213E3,-3.4560627E1,-3.455301E1,5E-1,4.55E2,-5.8535767E1,1.1740026E4,1.667607E4,4.2759824E3,2.0550607E4,1.4233163E3,6.0094043E3,1.6732633E3,2.294671E3,1.7037767E3,2.6189456E3,2.8260132E3,3.4051716E3,2.0593801E3,2.7394968E3,3.491106E3,2.8517566E3,3.9730515E3,3.1753364E3,4.0579478E3,5.2279185E3,2.6083474E3,3.5534587E3,4.2667544E3,5.971351E3,3.7523638E3,4.732442E3,5.295652E3,8.066371E3,6.341217E3,7.784315E3,3.9974739E3,5.158412E3,7.032242E3,1.7379325E3,8.2344385E2,1.0902623E4,9.8926605E2,3.8259282E3,1.8650624E3,6.723591E3,4.889004E3,1.77425E3,3.0196355E3,7.240786E3,7.9535522E3,1.1341777E4,7.7565073E3,4.9629214E3,6.1012764E3,1.0748224E4,1.1974054E4,6.343024E3,9.000643E2,3.4381287E3,1.4288814E4,7.391884E3],"split_indices":[0,0,0,0,2,2,3,0,2,2,3,2,0,2,0,0,2,0,3,0,3,8,4,0,1,5,2,0,1,2,5,5,0,2,4,2,8,8,7,6,1,6,7,4,1,5,0,5,3,3,5,2,4,4,8,0,5,0,0,0,0,0,0,0,0,0,0,0,0,0,0,0,0,0,0,0,0,0,0,0,0,0,0,0,0,0,0,0,0,0,0,0,0,0,0,0,0,0,0,0,0,0,0,0,0,0,0,0,0,0,0,0,0],"split_type":[0,0,0,0,0,0,0,0,0,0,0,0,0,0,0,0,0,0,0,0,0,0,0,0,0,0,0,0,0,0,0,0,0,0,0,0,0,0,0,0,0,0,0,0,0,0,0,0,0,0,0,0,0,0,0,0,0,0,0,0,0,0,0,0,0,0,0,0,0,0,0,0,0,0,0,0,0,0,0,0,0,0,0,0,0,0,0,0,0,0,0,0,0,0,0,0,0,0,0,0,0,0,0,0,0,0,0,0,0,0,0,0,0],"sum_hessian":[5.127E3,4.483E3,6.44E2,3.154E3,1.329E3,5.64E2,8E1,1.534E3,1.62E3,1.008E3,3.21E2,2.81E2,2.83E2,2.5E1,5.5E1,6.76E2,8.58E2,6.12E2,1.008E3,3.36E2,6.72E2,2.75E2,4.6E1,5.8E1,2.23E2,1.25E2,1.58E2,5E0,2E1,3.5E1,2E1,8E0,6.68E2,4.12E2,4.46E2,2.63E2,3.49E2,7.87E2,2.21E2,1.99E2,1.37E2,3.29E2,3.43E2,2.2E2,5.5E1,2.5E1,2.1E1,3.6E1,2.2E1,3.1E1,1.92E2,6.9E1,5.6E1,6.6E1,9.2E1,2E0,1.8E1,1.4E1,2.1E1,1E0,1.9E1,1E0,7E0,1.38E2,5.3E2,2.8E1,3.84E2,3.04E2,1.42E2,4.5E1,2.18E2,1.93E2,1.56E2,6.31E2,1.56E2,6.6E1,1.55E2,5E1,1.49E2,1.25E2,1.2E1,1.1E2,2.19E2,3.18E2,2.5E1,1.55E2,6.5E1,2.6E1,2.9E1,2.4E1,1E0,1E0,2E1,1E0,3.5E1,2E0,2E1,2.8E1,3E0,7E0,1.85E2,4.7E1,2.2E1,4.3E1,1.3E1,2.2E1,4.4E1,8.8E1,4E0,1E0,1E0,1.3E1,5E0],"tree_param":{"num_deleted":"0","num_feature":"9","num_nodes":"113","size_leaf_vector":"0"}},{"base_weights":[8.261501E4,6.9556125E4,1.6435238E5,5.2798918E4,8.66767E4,1.4982211E5,2.825529E5,4.566156E4,6.0430273E4,7.140302E4,1.0023571E5,1.3107828E5,2.0252839E5,2.0498717E5,3.2369738E5,4.050001E4,5.2356055E4,4.7936254E4,6.533477E4,6.1814223E4,8.256133E4,8.667836E4,1.1740496E5,1.0114755E5,1.4379716E5,1.660445E5,2.221486E5,1.573327E5,2.72757E5,2.6166275E5,3.5622516E5,3.4853254E4,4.4248242E4,1.4808077E5,5.1547688E4,4.955398E4,3.3115047E4,6.673029E4,4.2934727E4,5.242238E4,6.628918E4,6.6954234E4,8.984116E4,7.985154E4,9.9656164E4,1.0801061E5,1.557052E5,9.203245E4,1.1884488E5,1.3173312E5,1.7233655E5,2.3212195E5,1.4418877E5,2.276503E5,1.1607701E5,2.1530336E5,1.167025E5,1.17031445E5,2.9235262E5,3.677351E5,1.4016936E5,3.5931957E4,1.2915842E4,3.7937625E4,4.7672918E4,3.587748E4,5.3570812E4,3.9630594E4,5.067652E4,2.2236553E4,3.9359047E4,6.1030426E4,7.217722E4,5.2210613E4,3.4758965E4,3.4648203E4,5.4174273E4,2.8395152E4,6.694505E4,6.984454E4,5.106487E4,8.840176E4,1.4633055E5,4.7394273E4,8.125361E4,8.155996E4,1.1085142E5,9.839158E4,1.2229834E5,1.3374961E5,1.8308484E5,9.520229E4,5.131913E4,1.0207985E5,1.4844298E5,9.525084E4,1.3886981E5,1.771214E5,5.3100176E4,2.5082203E5,8.69939E4,4.765924E4,1.4757155E5,2.2998992E5,8.172314E4,1.239409E5,3.9148E4,1.7501248E4,1.2392286E5,2.6092117E4,1.3546977E5,1.7028119E5,3.7776153E5],"categories":[],"categories_nodes":[],"categories_segments":[],"categories_sizes":[],"default_left":[1,1,1,1,1,1,1,1,1,1,1,1,1,1,1,1,1,1,1,1,1,1,1,1,1,1,1,1,0,1,1,1,1,0,1,1,1,1,1,1,1,1,1,1,1,1,1,1,1,1,1,1,1,1,1,0,1,1,0,1,0,0,0,0,0,0,0,0,0,0,0,0,0,0,0,0,0,0,0,0,0,0,0,0,0,0,0,0,0,0,0,0,0,0,0,0,0,0,0,0,0,0,0,0,0,0,0,0,0,0,0,0,0],"id":8,"left_children":[1,3,5,7,9,11,13,15,17,19,21,23,25,27,29,31,33,35,37,39,41,43,45,47,49,51,53,55,-1,57,59,61,63,-1,65,67,69,71,73,75,77,79,81,83,85,87,89,91,93,95,97,99,101,103,105,-1,107,109,-1,111,-1,-1,-1,-1,-1,-1,-1,-1,-1,-1,-1,-1,-1,-1,-1,-1,-1,-1,-1,-1,-1,-1,-1,-1,-1,-1,-1,-1,-1,-1,-1,-1,-1,-1,-1,-1,-1,-1,-1,-1,-1,-1,-1,-1,-1,-1,-1,-1,-1,-1,-1,-1,-1],"loss_changes":[5.4952177E12,1.272384E12,1.1852034E12,1.2033406E11,4.4963568E11,6.049046E11,1.9201629E11,3.858655E10,6.3967855E10,1.0684937E11,2.6252358E11,1.6721012E11,8.8458396E10,5.8679624E10,2.390229E10,1.2773491E10,3.295517E10,6.091178E9,2.1990474E10,2.078933E10,4.9360404E10,5.1469877E10,1.7033436E11,1.4285406E10,9.4700044E10,6.1030138E10,4.001838E10,2.4179606E10,0E0,6.0515025E10,3.2869974E10,5.9659715E9,7.0854246E9,0E0,1.4370865E10,1.4767882E9,1.5277834E9,1.9134153E10,2.1731983E9,4.252762E9,7.844135E9,4.2559078E9,1.5898247E10,1.6569336E10,3.7702074E10,4.710623E10,3.980211E10,8.712946E9,1.0604184E10,5.0290754E10,4.6562017E10,1.9995886E10,9.98205E9,1.8695586E10,2.3210394E8,0E0,7.4331914E9,5.220737E9,0E0,3.576955E9,0E0,0E0,0E0,0E0,0E0,0E0,0E0,0E0,0E0,0E0,0E0,0E0,0E0,0E0,0E0,0E0,0E0,0E0,0E0,0E0,0E0,0E0,0E0,0E0,0E0,0E0,0E0,0E0,0E0,0E0,0E0,0E0,0E0,0E0,0E0,0E0,0E0,0E0,0E0,0E0,0E0,0E0,0E0,0E0,0E0,0E0,0E0,0E0,0E0,0E0,0E0,0E0,0E0],"parents":[2147483647,0,0,1,1,2,2,3,3,4,4,5,5,6,6,7,7,8,8,9,9,10,10,11,11,12,12,13,13,14,14,15,15,16,16,17,17,18,18,19,19,20,20,21,21,22,22,23,23,24,24,25,25,26,26,27,27,29,29,30,30,31,31,32,32,34,34,35,35,36,36,37,37,38,38,39,39,40,40,41,41,42,42,43,43,44,44,45,45,46,46,47,47,48,48,49,49,50,50,51,51,52,52,53,53,54,54,56,56,57,57,59,59],"right_children":[2,4,6,8,10,12,14,16,18,20,22,24,26,28,30,32,34,36,38,40,42,44,46,48,50,52,54,56,-1,58,60,62,64,-1,66,68,70,72,74,76,78,80,82,84,86,88,90,92,94,96,98,100,102,104,106,-1,108,110,-1,112,-1,-1,-1,-1,-1,-1,-1,-1,-1,-1,-1,-1,-1,-1,-1,-1,-1,-1,-1,-1,-1,-1,-1,-1,-1,-1,-1,-1,-1,-1,-1,-1,-1,-1,-1,-1,-1,-1,-1,-1,-1,-1,-1,-1,-1,-1,-1,-1,-1,-1,-1,-1,-1],"split_conditions":[1.615E2,6.35E1,3.435E2,4.55E1,1.5984412E3,1.6923232E3,1.5984412E3,1.7988953E3,1.5984412E3,1.005E2,9.55E1,-5.8568245E1,2.065E2,3.5E0,-3.4560493E1,3.75E1,1.6E1,-3.4531113E1,-5.853207E1,1.0796882E3,1.0796882E3,1.5E0,5E-1,2.5E0,2.445E2,-5.8550274E1,5E-1,3.75E2,1.3637851E4,1.6923232E3,-3.4538208E1,-5.8522675E1,1.4177954E3,7.4040386E3,3.35E1,9.9152234E2,5.35E1,5.45E1,-3.4572807E1,6.8E1,-5.8578167E1,5E-1,-5.8525528E1,-5.8565453E1,5E-1,1.6923232E3,-3.455225E1,4.5E0,2.475E2,-3.4575603E1,-3.4530647E1,-3.454543E1,1E0,-3.4543915E1,2.65E2,1.0765168E4,5E-1,1.6618138E3,1.4617632E4,-5.856906E1,7.0084683E3,1.7965979E3,6.457921E2,1.8968812E3,2.383646E3,1.793874E3,2.6785408E3,1.9815297E3,2.533826E3,1.1118276E3,1.9679524E3,3.0515212E3,3.608861E3,2.6105308E3,1.7379482E3,1.7324102E3,2.7087136E3,1.4197577E3,3.3472524E3,3.492227E3,2.5532437E3,4.420088E3,7.3165273E3,2.3697136E3,4.0626804E3,4.077998E3,5.5425713E3,4.919579E3,6.1149175E3,6.6874805E3,9.154242E3,4.7601147E3,2.5659565E3,5.1039927E3,7.4221494E3,4.7625425E3,6.9434907E3,8.85607E3,2.6550088E3,1.2541102E4,4.349695E3,2.382962E3,7.3785776E3,1.1499496E4,4.086157E3,6.197045E3,1.9574E3,8.7506244E2,6.196143E3,1.3046058E3,6.7734883E3,8.51406E3,1.8888076E4],"split_indices":[0,0,0,0,2,2,2,2,2,0,0,5,0,3,4,0,0,4,5,2,2,3,7,3,0,5,8,0,0,2,4,5,2,0,0,2,0,0,4,0,5,8,5,5,7,2,4,1,0,4,4,4,1,4,0,0,6,2,0,5,0,0,0,0,0,0,0,0,0,0,0,0,0,0,0,0,0,0,0,0,0,0,0,0,0,0,0,0,0,0,0,0,0,0,0,0,0,0,0,0,0,0,0,0,0,0,0,0,0,0,0,0,0],"split_type":[0,0,0,0,0,0,0,0,0,0,0,0,0,0,0,0,0,0,0,0,0,0,0,0,0,0,0,0,0,0,0,0,0,0,0,0,0,0,0,0,0,0,0,0,0,0,0,0,0,0,0,0,0,0,0,0,0,0,0,0,0,0,0,0,0,0,0,0,0,0,0,0,0,0,0,0,0,0,0,0,0,0,0,0,0,0,0,0,0,0,0,0,0,0,0,0,0,0,0,0,0,0,0,0,0,0,0,0,0,0,0,0,0],"sum_hessian":[5.156E3,4.447E3,7.09E2,2.249E3,2.198E3,6.33E2,7.6E1,1.165E3,1.084E3,1.036E3,1.162E3,4.69E2,1.64E2,2.8E1,4.8E1,6.61E2,5.04E2,3.08E2,7.76E2,5.6E2,4.76E2,6.52E2,5.1E2,1.42E2,3.27E2,6E1,1.04E2,1.8E1,1E1,1.9E1,2.9E1,2.67E2,3.94E2,3E0,5.01E2,2.76E2,3.2E1,7.29E2,4.7E1,1.84E2,3.76E2,1.54E2,3.22E2,4.31E2,2.21E2,4.12E2,9.8E1,9.7E1,4.5E1,2.33E2,9.4E1,1.3E1,4.7E1,9.8E1,6E0,6E0,1.2E1,4E0,1.5E1,2.7E1,2E0,2.54E2,1.3E1,1.42E2,2.52E2,5.9E1,4.42E2,3.1E1,2.45E2,1.3E1,1.9E1,3.61E2,3.68E2,2E1,2.7E1,1.8E1,1.66E2,7E0,3.69E2,1.28E2,2.6E1,3.16E2,6E0,1.9E1,4.12E2,8.7E1,1.34E2,2.5E2,1.62E2,5.7E1,4.1E1,8.9E1,8E0,3.1E1,1.4E1,4E1,1.93E2,9E1,4E0,1.1E1,2E0,2E0,4.5E1,9.6E1,2E0,5E0,1E0,1E0,1.1E1,1E0,3E0,2E0,2.5E1],"tree_param":{"num_deleted":"0","num_feature":"9","num_nodes":"113","size_leaf_vector":"0"}},{"base_weights":[7.910742E4,6.705142E4,1.6278686E5,5.5703133E4,9.217525E4,1.4742362E5,2.6689678E5,4.7610613E4,6.711102E4,8.2350875E4,1.2434552E5,1.1845138E5,1.7419698E5,1.9286195E5,3.113712E5,4.192053E4,5.4374715E4,5.862966E4,8.03062E4,6.990223E4,9.01791E4,1.1369302E5,1.5525645E5,1.0555369E5,1.35467E5,1.6501406E5,2.2432205E5,1.564262E5,2.6560494E5,3.1473666E5,8.174293E4,3.546146E4,4.6459242E4,5.064248E4,6.4305105E4,4.543215E4,6.138162E4,7.270891E4,9.707912E4,6.1717234E4,7.967198E4,9.652187E4,7.2665664E4,1.2015133E5,8.8510125E4,1.9732372E5,1.3683233E5,7.16578E4,1.1116329E5,1.02413586E5,1.4725178E5,1.46065E5,1.8017239E5,2.2794744E5,4.0433918E4,9.596283E4,1.8218169E5,2.8067075E5,7.390324E4,3.218043E5,1.6329219E5,3.7019746E4,2.5459186E4,3.6684637E4,4.8576883E4,5.0144637E4,1.4281792E5,6.527053E4,3.8092234E4,4.2205707E4,5.0455492E4,6.636894E4,5.39962E4,6.90805E4,8.533304E4,9.068061E4,1.1182891E5,5.300508E4,6.566431E4,5.7813023E4,8.3396055E4,8.4050195E4,1.0777599E5,7.7765664E4,4.924812E4,1.244206E5,7.803756E4,7.449584E4,1.0086629E5,2.023501E5,4.8749297E4,1.20302375E5,1.7242853E5,2.9350068E4,7.866505E4,1.07063E5,2.2997581E5,1.1462688E5,5.1511805E4,4.8723887E4,1.5046738E5,1.0788637E5,1.6690556E5,1.8289784E5,7.5875055E4,2.3030055E5,7.330019E4,1.01243836E5,3.042832E4,5.170198E4,1.9809458E5],"categories":[],"categories_nodes":[],"categories_segments":[],"categories_sizes":[],"default_left":[1,1,1,1,1,1,1,1,1,1,1,1,1,1,1,1,1,1,1,1,1,1,1,1,1,1,1,1,1,1,0,1,1,1,1,1,1,1,1,1,1,1,1,1,1,1,1,1,1,1,1,1,1,1,0,1,1,0,0,0,0,0,0,0,0,0,0,0,0,0,0,0,0,0,0,0,0,0,0,0,0,0,0,0,0,0,0,0,0,0,0,0,0,0,0,0,0,0,0,0,0,0,0,0,0,0,0,0,0,0,0],"id":9,"left_children":[1,3,5,7,9,11,13,15,17,19,21,23,25,27,29,31,33,35,37,39,41,43,45,47,49,51,53,55,57,59,-1,61,63,65,67,69,71,73,75,77,79,81,83,85,87,89,91,93,95,97,99,101,103,105,-1,107,109,-1,-1,-1,-1,-1,-1,-1,-1,-1,-1,-1,-1,-1,-1,-1,-1,-1,-1,-1,-1,-1,-1,-1,-1,-1,-1,-1,-1,-1,-1,-1,-1,-1,-1,-1,-1,-1,-1,-1,-1,-1,-1,-1,-1,-1,-1,-1,-1,-1,-1,-1,-1,-1,-1],"loss_changes":[5.153294E12,1.2714299E12,9.9825693E11,2.8213615E11,4.3137473E11,4.20048E11,2.2129777E11,6.77173E10,1.3923569E11,9.9014935E10,9.249961E10,4.8430318E10,1.0424104E11,5.369653E10,1.790391E10,2.755212E10,2.7890024E10,2.6126844E10,5.7787286E10,2.9315826E10,6.690439E10,3.1143756E10,4.1024094E10,2.3822074E10,3.265318E10,5.0410815E10,2.115987E10,2.3076733E10,1.1709776E10,1.019478E10,0E0,5.6333107E9,1.0492969E10,2.1886665E10,3.6240097E9,5.2979302E8,2.0846477E10,1.1123556E10,6.308233E9,5.117772E9,1.1349131E10,5.967551E10,1.8051236E10,2.671693E10,3.1317033E9,9.135325E9,1.8003263E10,5.5051715E9,4.5972324E10,1.5667331E10,2.0368196E10,7.693664E10,2.7216314E10,1.7062953E9,0E0,5.810258E8,2.4612176E10,0E0,0E0,0E0,0E0,0E0,0E0,0E0,0E0,0E0,0E0,0E0,0E0,0E0,0E0,0E0,0E0,0E0,0E0,0E0,0E0,0E0,0E0,0E0,0E0,0E0,0E0,0E0,0E0,0E0,0E0,0E0,0E0,0E0,0E0,0E0,0E0,0E0,0E0,0E0,0E0,0E0,0E0,0E0,0E0,0E0,0E0,0E0,0E0,0E0,0E0,0E0,0E0,0E0,0E0],"parents":[2147483647,0,0,1,1,2,2,3,3,4,4,5,5,6,6,7,7,8,8,9,9,10,10,11,11,12,12,13,13,14,14,15,15,16,16,17,17,18,18,19,19,20,20,21,21,22,22,23,23,24,24,25,25,26,26,27,27,28,28,29,29,31,31,32,32,33,33,34,34,35,35,36,36,37,37,38,38,39,39,40,40,41,41,42,42,43,43,44,44,45,45,46,46,47,47,48,48,49,49,50,50,51,51,52,52,53,53,55,55,56,56],"right_children":[2,4,6,8,10,12,14,16,18,20,22,24,26,28,30,32,34,36,38,40,42,44,46,48,50,52,54,56,58,60,-1,62,64,66,68,70,72,74,76,78,80,82,84,86,88,90,92,94,96,98,100,102,104,106,-1,108,110,-1,-1,-1,-1,-1,-1,-1,-1,-1,-1,-1,-1,-1,-1,-1,-1,-1,-1,-1,-1,-1,-1,-1,-1,-1,-1,-1,-1,-1,-1,-1,-1,-1,-1,-1,-1,-1,-1,-1,-1,-1,-1,-1,-1,-1,-1,-1,-1,-1,-1,-1,-1,-1,-1],"split_conditions":[1.725E2,8.55E1,3.43E2,5.75E1,1.6923232E3,1.5984412E3,1.5984412E3,1.7988953E3,1.6923232E3,-5.856566E1,1.315E2,2.245E2,3.5E0,3.5E0,-5.8528408E1,4.05E1,4.85E1,1.0796882E3,-3.4561028E1,1.225E2,5E-1,5E-1,-5.85504E1,-5.8576904E1,1.0796882E3,1.6923232E3,-5.8528847E1,1.1706995E3,-5.8536613E1,-3.4537933E1,4.0871465E3,-5.8535343E1,1.2363098E3,3E0,-5.8531998E1,-5.8569588E1,5E-1,7.25E1,1.5E0,5E-1,5E-1,1.5E0,-5.853334E1,-5.8535797E1,2.5E0,5E-1,1.595E2,5E-1,5E-1,-5.8564945E1,-5.8575203E1,-3.4552444E1,5.5E0,-3.4535015E1,2.0216959E3,-3.4514244E1,1.5E0,1.4033538E4,3.695162E3,1.6090216E4,8.1646094E3,1.8509873E3,1.2729594E3,1.8342318E3,2.4288442E3,2.507232E3,7.140896E3,3.2635266E3,1.9046117E3,2.1102854E3,2.5227747E3,3.318447E3,2.69981E3,3.4540251E3,4.266652E3,4.534031E3,5.5914453E3,2.650254E3,3.2832156E3,2.8906511E3,4.1698027E3,4.20251E3,5.3888E3,3.8882832E3,2.462406E3,6.2210303E3,3.9018782E3,3.7247922E3,5.0433145E3,1.0117505E4,2.4374648E3,6.0151187E3,8.621427E3,1.4675034E3,3.9332524E3,5.35315E3,1.1498791E4,5.731344E3,2.5755903E3,2.4361943E3,7.5233687E3,5.3943184E3,8.345278E3,9.144893E3,3.7937527E3,1.1515027E4,3.6650095E3,5.062192E3,1.521416E3,2.585099E3,9.9047295E3],"split_indices":[0,0,0,0,2,2,2,2,2,5,0,0,3,3,5,0,0,2,4,0,8,8,5,5,2,2,5,2,5,4,0,5,2,1,5,5,8,0,3,6,6,3,5,5,1,8,0,6,7,5,5,4,1,4,0,4,1,0,0,0,0,0,0,0,0,0,0,0,0,0,0,0,0,0,0,0,0,0,0,0,0,0,0,0,0,0,0,0,0,0,0,0,0,0,0,0,0,0,0,0,0,0,0,0,0,0,0,0,0,0,0],"split_type":[0,0,0,0,0,0,0,0,0,0,0,0,0,0,0,0,0,0,0,0,0,0,0,0,0,0,0,0,0,0,0,0,0,0,0,0,0,0,0,0,0,0,0,0,0,0,0,0,0,0,0,0,0,0,0,0,0,0,0,0,0,0,0,0,0,0,0,0,0,0,0,0,0,0,0,0,0,0,0,0,0,0,0,0,0,0,0,0,0,0,0,0,0,0,0,0,0,0,0,0,0,0,0,0,0,0,0,0,0,0,0],"sum_hessian":[5.116E3,4.473E3,6.43E2,3.083E3,1.39E3,5.62E2,8.1E1,1.806E3,1.277E3,1.067E3,3.23E2,2.72E2,2.9E2,3.2E1,4.9E1,9.84E2,8.22E2,7.8E2,4.97E2,4.15E2,6.52E2,2.43E2,8E1,1.58E2,1.14E2,2.48E2,4.2E1,2.3E1,9E0,4.8E1,1E0,4.09E2,5.75E2,6.01E2,2.21E2,1.37E2,6.43E2,3.45E2,1.52E2,2.29E2,1.86E2,4.76E2,1.76E2,1.91E2,5.2E1,2.2E1,5.8E1,2.4E1,1.34E2,3.2E1,8.2E1,1.14E2,1.34E2,4.1E1,1E0,8E0,1.5E1,8E0,1E0,4.5E1,3E0,3.52E2,5.7E1,1.05E2,4.7E2,5.99E2,2E0,2.12E2,9E0,8.8E1,4.9E1,3.8E2,2.63E2,2.72E2,7.3E1,1.1E2,4.2E1,7.5E1,1.54E2,2.9E1,1.57E2,2.29E2,2.47E2,1.43E2,3.3E1,1.72E2,1.9E1,2.7E1,2.5E1,2.1E1,1E0,4.2E1,1.6E1,4E0,2E1,1.31E2,3E0,2.5E1,7E0,3E0,7.9E1,4.2E1,7.2E1,1.3E2,4E0,4E1,1E0,7E0,1E0,2E0,1.3E1],"tree_param":{"num_deleted":"0","num_feature":"9","num_nodes":"111","size_leaf_vector":"0"}},{"base_weights":[7.405557E4,6.4653363E4,1.6299719E5,5.4078777E4,9.139752E4,1.460936E5,2.6206623E5,4.349508E4,6.3287055E4,8.249475E4,1.2045571E5,1.2655576E5,1.920454E5,1.4666352E5,2.9420588E5,3.7382695E4,4.8292938E4,5.5380363E4,7.558044E4,6.590573E4,9.047912E4,1.10674E5,1.5197978E5,9.054222E4,1.3642714E5,1.8009219E5,2.2451438E5,8.463879E4,1.7485216E5,3.3708903E5,2.4761733E5,9.70721E4,3.6556297E4,4.030158E4,5.0638652E4,5.2238965E4,6.814803E4,7.004689E4,9.1499625E4,4.8255824E4,7.020782E4,7.743872E4,9.961701E4,1.174918E5,7.265551E4,1.2100696E5,1.7869125E5,9.704084E4,5.025918E4,1.204713E5,1.5979153E5,8.603317E4,1.8926323E5,2.2825616E5,6.4861516E4,9.439684E4,1.5578937E4,2.253444E4,1.8855523E5,3.6236428E5,1.6611586E5,2.5377833E5,4.2412145E4,1.6243439E4,1.0576875E5,3.2720541E4,4.203641E4,2.845715E4,4.211E4,4.6935965E4,5.554635E4,5.6344027E4,4.665241E4,4.9058465E4,7.451254E4,6.6185336E4,8.377293E4,8.110927E4,1.0362014E5,5.2964273E4,3.4939234E4,3.7004164E4,7.182376E4,6.47493E4,8.268285E4,9.618749E4,1.4740375E5,1.0888936E5,1.3419423E5,5.1901184E4,7.862753E4,7.9696305E4,1.3509364E5,1.0433983E5,2.0054539E5,1.072819E5,7.2320375E4,8.022212E4,3.0507064E4,9.4229875E4,1.3337112E5,6.0495668E4,1.6148292E5,9.152143E4,2.0964723E4,1.9986092E5,1.4039055E5,7.096472E4,2.3187198E5,1.02969195E5,2.958309E4,9.40551E4,2.1918117E5,2.5790997E5,7.947229E4],"categories":[],"categories_nodes":[],"categories_segments":[],"categories_sizes":[],"default_left":[1,1,1,1,1,1,1,1,1,1,1,1,1,1,1,1,1,1,1,1,1,1,1,1,1,1,1,1,1,1,1,1,1,1,1,1,1,1,1,1,1,1,1,1,1,1,1,1,1,1,1,1,1,1,0,1,0,0,1,0,0,1,0,0,0,0,0,0,0,0,0,0,0,0,0,0,0,0,0,0,0,0,0,0,0,0,0,0,0,0,0,0,0,0,0,0,0,0,0,0,0,0,0,0,0,0,0,0,0,0,0,0,0,0,0],"id":10,"left_children":[1,3,5,7,9,11,13,15,17,19,21,23,25,27,29,31,33,35,37,39,41,43,45,47,49,51,53,55,57,59,61,63,65,67,69,71,73,75,77,79,81,83,85,87,89,91,93,95,97,99,101,103,105,107,-1,109,-1,-1,111,-1,-1,113,-1,-1,-1,-1,-1,-1,-1,-1,-1,-1,-1,-1,-1,-1,-1,-1,-1,-1,-1,-1,-1,-1,-1,-1,-1,-1,-1,-1,-1,-1,-1,-1,-1,-1,-1,-1,-1,-1,-1,-1,-1,-1,-1,-1,-1,-1,-1,-1,-1,-1,-1,-1,-1],"loss_changes":[4.2453927E12,1.2974744E12,7.829025E11,3.1938786E11,3.29083E11,3.5475948E11,2.2436905E11,4.365379E10,1.679955E11,1.2765626E11,8.02234E10,9.492077E10,1.5313404E10,1.75336E10,4.0709915E10,3.0693655E10,1.4466023E10,4.0300708E10,5.5460758E10,2.2180004E10,7.400063E10,5.403155E10,4.0449212E10,1.3323665E10,7.026901E10,6.788743E10,5.95814E9,3.4059715E9,1.914277E10,6.3336088E10,2.780024E10,4.811424E9,1.3021086E10,3.2995738E9,9.92215E9,1.7775722E10,2.2565356E10,2.2797615E10,1.5290073E10,2.707964E9,1.1920474E10,1.4402978E10,5.303173E10,1.6730554E10,1.4204436E9,1.1637981E10,4.1431073E10,7.9195996E9,4.4339057E9,3.7269668E10,7.434404E9,1.9647283E9,2.147405E10,3.2158515E9,0E0,7.855964E8,0E0,0E0,1.1870634E10,0E0,0E0,3.6234854E9,0E0,0E0,0E0,0E0,0E0,0E0,0E0,0E0,0E0,0E0,0E0,0E0,0E0,0E0,0E0,0E0,0E0,0E0,0E0,0E0,0E0,0E0,0E0,0E0,0E0,0E0,0E0,0E0,0E0,0E0,0E0,0E0,0E0,0E0,0E0,0E0,0E0,0E0,0E0,0E0,0E0,0E0,0E0,0E0,0E0,0E0,0E0,0E0,0E0,0E0,0E0,0E0,0E0],"parents":[2147483647,0,0,1,1,2,2,3,3,4,4,5,5,6,6,7,7,8,8,9,9,10,10,11,11,12,12,13,13,14,14,15,15,16,16,17,17,18,18,19,19,20,20,21,21,22,22,23,23,24,24,25,25,26,26,27,27,28,28,29,29,30,30,31,31,32,32,33,33,34,34,35,35,36,36,37,37,38,38,39,39,40,40,41,41,42,42,43,43,44,44,45,45,46,46,47,47,48,48,49,49,50,50,51,51,52,52,53,53,55,55,58,58,61,61],"right_children":[2,4,6,8,10,12,14,16,18,20,22,24,26,28,30,32,34,36,38,40,42,44,46,48,50,52,54,56,58,60,62,64,66,68,70,72,74,76,78,80,82,84,86,88,90,92,94,96,98,100,102,104,106,108,-1,110,-1,-1,112,-1,-1,114,-1,-1,-1,-1,-1,-1,-1,-1,-1,-1,-1,-1,-1,-1,-1,-1,-1,-1,-1,-1,-1,-1,-1,-1,-1,-1,-1,-1,-1,-1,-1,-1,-1,-1,-1,-1,-1,-1,-1,-1,-1,-1,-1,-1,-1,-1,-1,-1,-1,-1,-1,-1,-1],"split_conditions":[1.935E2,9.35E1,3.435E2,5.15E1,1.6923232E3,1.6923232E3,-5.85624E1,4.05E1,1.6923232E3,1.1706995E3,-3.4550602E1,1.0796882E3,2.62E2,1.5E0,-5.8550953E1,1.15E1,1.5984412E3,1.5E0,7.35E1,5E-1,2.5E0,5E-1,1.125E2,-5.8564453E1,2.5E0,1.5E0,-3.4544193E1,-5.8563164E1,-5.8583916E1,-3.4538208E1,6.02E2,1.4465023E3,1.6923232E3,1.0796882E3,-3.4553158E1,5E-1,-5.8567825E1,-3.4550232E1,1.5E0,-3.453013E1,-5.858715E1,5E-1,5E-1,1.405E2,-3.4574696E1,-5.8555286E1,1.5E0,4.5E0,1.5E0,-5.856513E1,-5.857419E1,2.475E2,-5.8538937E1,5E-1,3.243076E3,-3.452079E1,7.7894684E2,1.126722E3,-3.4562305E1,1.8118215E4,8.305793E3,-5.8528408E1,2.1206072E3,8.12172E2,5.2884375E3,1.6360271E3,2.1018206E3,1.4228575E3,2.1055E3,2.3467983E3,2.7773176E3,2.8172014E3,2.3326206E3,2.4529233E3,3.725627E3,3.3092668E3,4.1886465E3,4.0554636E3,5.1810073E3,2.6482136E3,1.7469618E3,1.8502083E3,3.591188E3,3.237465E3,4.1341426E3,4.8093745E3,7.3701875E3,5.4444683E3,6.709712E3,2.5950593E3,3.9313767E3,3.9848152E3,6.754682E3,5.2169917E3,1.002727E4,5.364095E3,3.6160188E3,4.011106E3,1.5253533E3,4.7114937E3,6.668556E3,3.0247834E3,8.074146E3,4.576072E3,1.0482362E3,9.993046E3,7.0195273E3,3.548236E3,1.15936E4,5.14846E3,1.4791545E3,4.7027554E3,1.0959059E4,1.2895499E4,3.9736145E3],"split_indices":[0,0,0,0,2,2,5,0,2,2,4,2,0,3,5,0,2,3,0,6,1,8,0,5,3,3,4,5,5,4,0,2,2,2,4,8,5,4,3,4,5,6,7,0,4,5,3,1,3,5,5,0,5,6,0,4,0,0,4,0,0,5,0,0,0,0,0,0,0,0,0,0,0,0,0,0,0,0,0,0,0,0,0,0,0,0,0,0,0,0,0,0,0,0,0,0,0,0,0,0,0,0,0,0,0,0,0,0,0,0,0,0,0,0,0],"split_type":[0,0,0,0,0,0,0,0,0,0,0,0,0,0,0,0,0,0,0,0,0,0,0,0,0,0,0,0,0,0,0,0,0,0,0,0,0,0,0,0,0,0,0,0,0,0,0,0,0,0,0,0,0,0,0,0,0,0,0,0,0,0,0,0,0,0,0,0,0,0,0,0,0,0,0,0,0,0,0,0,0,0,0,0,0,0,0,0,0,0,0,0,0,0,0,0,0,0,0,0,0,0,0,0,0,0,0,0,0,0,0,0,0,0,0],"sum_hessian":[5.086E3,4.601E3,4.85E2,3.299E3,1.302E3,4.16E2,6.9E1,1.537E3,1.762E3,9.99E2,3.03E2,2.94E2,1.22E2,1.6E1,5.3E1,6.79E2,8.58E2,1.075E3,6.87E2,3.27E2,6.72E2,2.34E2,6.9E1,6.5E1,2.29E2,9.3E1,2.9E1,6E0,1E1,2.5E1,2.8E1,8E0,6.71E2,1.98E2,6.6E2,8.66E2,2.09E2,5.13E2,1.74E2,6.6E1,2.61E2,2.8E2,3.92E2,1.97E2,3.7E1,3.4E1,3.5E1,5.5E1,1E1,1.39E2,9E1,9E0,8.4E1,2.8E1,1E0,5E0,1E0,1E0,9E0,2.1E1,4E0,2.7E1,1E0,1E0,7E0,3.98E2,2.73E2,2.8E1,1.7E2,3.81E2,2.79E2,4.95E2,3.71E2,5.4E1,1.55E2,4.04E2,1.09E2,9.7E1,7.7E1,4.7E1,1.9E1,1.3E1,2.48E2,8.5E1,1.95E2,3.68E2,2.4E1,1.34E2,6.3E1,1E1,2.7E1,1E1,2.4E1,9E0,2.6E1,3.7E1,1.8E1,3E0,7E0,4.8E1,9.1E1,2E0,8.8E1,8E0,1E0,6.7E1,1.7E1,1E0,2.7E1,4E0,1E0,3E0,6E0,2.6E1,1E0],"tree_param":{"num_deleted":"0","num_feature":"9","num_nodes":"115","size_leaf_vector":"0"}},{"base_weights":[7.034324E4,5.9096867E4,1.349313E5,5.1326734E4,8.60249E4,1.24494336E5,2.3340755E5,4.1196535E4,6.1766574E4,6.418093E4,9.3681484E4,1.0992442E5,1.6675077E5,1.6935664E5,2.7364097E5,3.2814855E4,4.4340957E4,5.342321E4,6.9289516E4,5.8936258E4,8.782997E4,8.9511125E4,1.3550461E5,9.708436E4,1.3416945E5,1.562487E5,2.2255734E5,1.27159695E5,2.2510388E5,1.524444E5,2.8299228E5,3.4310297E4,1.9259236E4,3.9719695E4,4.928008E4,4.8208477E4,6.3296367E4,6.5513336E4,8.36745E4,5.3132285E4,7.063634E4,9.1282234E4,4.3847336E4,1.016313E5,7.9058555E4,1.3856725E5,2.9192188E4,8.067279E4,1.0567598E5,8.991937E4,1.4465822E5,1.383188E5,1.7745625E5,4.115141E4,1.3543919E5,2.3516578E5,6.468621E4,1.8766347E5,1.0339956E4,2.9356228E5,1.5919436E5,2.5667658E4,3.6637785E4,2.2451152E4,9.862281E3,2.781651E4,4.0761184E4,5.548267E4,4.6647375E4,3.9054297E4,5.065645E4,4.684E4,6.748883E4,5.7265344E4,7.066728E4,4.705944E4,8.6556555E4,3.0571578E4,5.6551812E4,2.0241662E4,7.354207E4,9.2996734E4,1.2802986E4,1.0432852E4,6.473401E4,8.2330516E4,1.1144635E5,8.343814E4,4.4457582E4,7.882365E4,1.4627897E5,7.739595E4,1.1496958E5,1.0994692E5,6.2850098E4,2.695538E4,9.502082E4,1.2435666E5,1.6445802E5,1.7673556E5,1.2507704E5,2.3154877E5,1.6444256E5,1.28728086E5,2.6290047E5,3.3963388E5,2.3989992E5],"categories":[],"categories_nodes":[],"categories_segments":[],"categories_sizes":[],"default_left":[1,1,1,1,1,1,1,1,1,1,1,1,1,1,1,1,1,1,1,1,1,1,1,1,1,1,0,1,1,1,1,1,1,1,1,1,1,1,1,1,1,1,1,1,1,1,0,1,1,1,1,1,1,0,0,1,0,0,0,1,0,0,0,0,0,0,0,0,0,0,0,0,0,0,0,0,0,0,0,0,0,0,0,0,0,0,0,0,0,0,0,0,0,0,0,0,0,0,0,0,0,0,0,0,0,0,0],"id":11,"left_children":[1,3,5,7,9,11,13,15,17,19,21,23,25,27,29,31,33,35,37,39,41,43,45,47,49,51,-1,53,55,57,59,61,63,65,67,69,71,73,75,77,79,81,83,85,87,89,-1,91,93,95,97,99,101,-1,-1,103,-1,-1,-1,105,-1,-1,-1,-1,-1,-1,-1,-1,-1,-1,-1,-1,-1,-1,-1,-1,-1,-1,-1,-1,-1,-1,-1,-1,-1,-1,-1,-1,-1,-1,-1,-1,-1,-1,-1,-1,-1,-1,-1,-1,-1,-1,-1,-1,-1,-1,-1],"loss_changes":[3.713274E12,9.093146E11,7.56643E11,3.5625055E11,1.5839265E11,4.0879574E11,1.4795303E11,4.421478E10,1.0165787E11,2.7586068E10,1.1601707E11,1.4952903E11,7.46282E10,4.7201124E10,1.399482E10,9.055797E9,2.6960724E10,3.8428213E10,4.3079696E10,1.1380261E10,3.6004495E9,7.690676E10,1.753704E10,4.095135E10,7.1187825E10,3.732485E10,0E0,8.928788E9,6.876889E9,2.2470631E10,1.338481E10,7.7927875E9,1.2865843E9,7.1484703E9,7.740326E9,1.0132783E10,1.6223306E10,2.6340753E10,1.5609496E10,9.787802E9,8.73726E9,4.5371884E9,2.8097147E9,4.9832E10,5.1101303E10,1.924871E10,0E0,6.34513E9,3.4674835E10,9.450193E9,4.0235696E10,2.5453658E10,1.5858401E10,0E0,0E0,4.8076554E9,0E0,0E0,0E0,2.0853817E10,0E0,0E0,0E0,0E0,0E0,0E0,0E0,0E0,0E0,0E0,0E0,0E0,0E0,0E0,0E0,0E0,0E0,0E0,0E0,0E0,0E0,0E0,0E0,0E0,0E0,0E0,0E0,0E0,0E0,0E0,0E0,0E0,0E0,0E0,0E0,0E0,0E0,0E0,0E0,0E0,0E0,0E0,0E0,0E0,0E0,0E0,0E0],"parents":[2147483647,0,0,1,1,2,2,3,3,4,4,5,5,6,6,7,7,8,8,9,9,10,10,11,11,12,12,13,13,14,14,15,15,16,16,17,17,18,18,19,19,20,20,21,21,22,22,23,23,24,24,25,25,27,27,28,28,29,29,30,30,31,31,32,32,33,33,34,34,35,35,36,36,37,37,38,38,39,39,40,40,41,41,42,42,43,43,44,44,45,45,47,47,48,48,49,49,50,50,51,51,52,52,55,55,59,59],"right_children":[2,4,6,8,10,12,14,16,18,20,22,24,26,28,30,32,34,36,38,40,42,44,46,48,50,52,-1,54,56,58,60,62,64,66,68,70,72,74,76,78,80,82,84,86,88,90,-1,92,94,96,98,100,102,-1,-1,104,-1,-1,-1,106,-1,-1,-1,-1,-1,-1,-1,-1,-1,-1,-1,-1,-1,-1,-1,-1,-1,-1,-1,-1,-1,-1,-1,-1,-1,-1,-1,-1,-1,-1,-1,-1,-1,-1,-1,-1,-1,-1,-1,-1,-1,-1,-1,-1,-1,-1,-1],"split_conditions":[1.575E2,1.5E0,3.445E2,5.55E1,-5.8562843E1,1.6923232E3,1.5984412E3,3.85E1,1.5984412E3,1.46E2,2.5E0,2.245E2,3.5E0,3.5E0,-5.856369E1,-5.8532974E1,1.7988953E3,9.75E1,9.75E1,1.3101836E3,-3.452852E1,-5.854763E1,-3.453276E1,1.1706995E3,1.0796882E3,2.18E2,1.1127867E4,5E-1,-3.4545944E1,3.5E0,-3.4537933E1,3.05E1,-5.8522675E1,1.0796882E3,-5.8549934E1,9.9152234E2,-5.857617E1,1.6923232E3,-5.8566742E1,7.1E1,-3.4559525E1,4.5E0,-3.4524757E1,8.25E1,-3.455255E1,2.5E0,1.4596094E3,3.5E0,5E-1,-5.8588326E1,2.5E0,-5.8550117E1,2.245E2,2.0575706E3,6.7719595E3,-3.456269E1,3.2343105E3,9.383174E3,5.169978E2,-5.855095E1,7.9597183E3,1.2833829E3,1.8318893E3,1.1225576E3,4.9311407E2,1.3908256E3,2.0380592E3,2.7741335E3,2.332369E3,1.9527148E3,2.5328225E3,2.342E3,3.3744414E3,2.8632673E3,3.533364E3,2.3529722E3,4.3278276E3,1.528579E3,2.8275906E3,1.0120831E3,3.6771035E3,4.649837E3,6.4014935E2,5.216426E2,3.2367007E3,4.116526E3,5.572318E3,4.171907E3,2.2228792E3,3.9411824E3,7.3139487E3,3.8697976E3,5.748479E3,5.497346E3,3.142505E3,1.347769E3,4.751041E3,6.217833E3,8.222901E3,8.836778E3,6.253852E3,1.1577438E4,8.222128E3,6.4364043E3,1.3145023E4,1.6981693E4,1.1994996E4],"split_indices":[0,3,0,0,5,2,2,0,2,0,3,0,3,3,5,5,2,0,0,2,4,5,4,2,2,0,0,6,4,3,4,0,5,2,5,2,5,2,5,0,4,1,4,0,4,1,0,3,8,5,3,5,0,0,0,4,0,0,0,5,0,0,0,0,0,0,0,0,0,0,0,0,0,0,0,0,0,0,0,0,0,0,0,0,0,0,0,0,0,0,0,0,0,0,0,0,0,0,0,0,0,0,0,0,0,0,0],"split_type":[0,0,0,0,0,0,0,0,0,0,0,0,0,0,0,0,0,0,0,0,0,0,0,0,0,0,0,0,0,0,0,0,0,0,0,0,0,0,0,0,0,0,0,0,0,0,0,0,0,0,0,0,0,0,0,0,0,0,0,0,0,0,0,0,0,0,0,0,0,0,0,0,0,0,0,0,0,0,0,0,0,0,0,0,0,0,0,0,0,0,0,0,0,0,0,0,0,0,0,0,0,0,0,0,0,0,0],"sum_hessian":[5.12E3,4.362E3,7.58E2,3.387E3,9.75E2,6.87E2,7.1E1,1.721E3,1.666E3,2.55E2,7.2E2,5.13E2,1.74E2,2.9E1,4.2E1,4.72E2,1.249E3,7.93E2,8.73E2,2.11E2,4.4E1,6.57E2,6.3E1,3.38E2,1.75E2,1.49E2,2.5E1,1.8E1,1.1E1,4E0,3.8E1,4.24E2,4.8E1,6.49E2,6E2,5.22E2,2.71E2,6.95E2,1.78E2,1.44E2,6.7E1,4E1,4E0,3.01E2,3.56E2,6.1E1,2E0,1.19E2,2.19E2,3.5E1,1.4E2,8.4E1,6.5E1,2E0,1.6E1,1E1,1E0,3E0,1E0,3.4E1,4E0,9.2E1,3.32E2,3.5E1,1.3E1,5.4E1,5.95E2,1.74E2,4.26E2,1.13E2,4.09E2,5.7E1,2.14E2,2.71E2,4.24E2,1.4E1,1.64E2,2E1,1.24E2,4E0,6.3E1,3.9E1,1E0,2E0,2E0,1.04E2,1.97E2,3.15E2,4.1E1,8E0,5.3E1,1.11E2,8E0,1.98E2,2.1E1,3E0,3.2E1,7.2E1,6.8E1,1.9E1,6.5E1,1E1,5.5E1,3E0,7E0,1.6E1,1.8E1],"tree_param":{"num_deleted":"0","num_feature":"9","num_nodes":"107","size_leaf_vector":"0"}},{"base_weights":[6.691509E4,5.60276E4,1.2865833E5,4.8727043E4,8.114351E4,1.18550945E5,2.3011656E5,3.9761195E4,5.8552637E4,6.491796E4,9.130265E4,9.459466E4,1.4421727E5,1.5498078E5,2.6760038E5,3.0996988E4,4.3082754E4,5.0117266E4,6.613577E4,4.644582E4,6.888659E4,7.911188E4,1.08701445E5,7.973743E4,1.0179725E5,9.621353E4,1.5271173E5,7.8572234E4,1.7602298E5,2.5117622E5,3.9192912E5,3.2184658E4,1.9204566E4,3.845873E4,4.8362945E4,4.489046E4,5.8788293E4,6.1483598E4,7.79818E4,3.6665527E4,5.7877605E4,5.3450004E4,7.342643E4,8.355122E4,5.8463145E4,9.552199E4,1.4754653E5,3.0310994E4,8.206885E4,1.0507172E5,5.8311137E4,8.160423E4,1.6184148E5,1.4453212E5,2.0159205E5,9.853142E4,4.207152E4,7.4424266E4,1.8457406E5,2.5580734E5,3.4570137E4,2.5517979E4,3.500235E4,2.2284705E4,9.630152E3,2.9385602E4,4.0034777E4,5.0997703E4,4.3171723E4,3.7371758E4,4.7113117E4,4.294437E4,6.24998E4,6.441279E4,5.1680684E4,4.3135953E4,8.140602E4,2.9218451E4,4.6498125E4,6.022992E4,1.714591E4,8.416956E3,5.461062E4,7.759028E4,6.076861E4,7.199097E4,9.50486E4,7.067694E4,4.3626332E4,8.460852E4,1.1229263E5,1.0762567E5,1.748983E5,3.7318004E4,9.638688E3,7.9623234E4,1.5889083E5,1.1128561E5,7.395118E4,4.779681E4,1.3637011E5,1.0293131E5,7.222722E4,8.395369E4,1.9054847E5,1.4895631E5,8.779199E4,2.0639544E5,1.1124354E4],"categories":[],"categories_nodes":[],"categories_segments":[],"categories_sizes":[],"default_left":[1,1,1,1,1,1,1,1,1,1,1,1,1,1,1,1,1,1,1,1,1,1,1,1,1,1,1,1,1,1,0,1,1,1,1,1,1,1,1,1,1,1,1,1,1,1,1,1,1,1,1,1,1,1,1,0,0,0,0,0,0,0,0,0,0,0,0,0,0,0,0,0,0,0,0,0,0,0,0,0,0,0,0,0,0,0,0,0,0,0,0,0,0,0,0,0,0,0,0,0,0,0,0,0,0,0,0,0,0],"id":12,"left_children":[1,3,5,7,9,11,13,15,17,19,21,23,25,27,29,31,33,35,37,39,41,43,45,47,49,51,53,55,57,59,-1,61,63,65,67,69,71,73,75,77,79,81,83,85,87,89,91,93,95,97,99,101,103,105,107,-1,-1,-1,-1,-1,-1,-1,-1,-1,-1,-1,-1,-1,-1,-1,-1,-1,-1,-1,-1,-1,-1,-1,-1,-1,-1,-1,-1,-1,-1,-1,-1,-1,-1,-1,-1,-1,-1,-1,-1,-1,-1,-1,-1,-1,-1,-1,-1,-1,-1,-1,-1,-1,-1],"loss_changes":[3.4446519E12,7.971663E11,7.6656253E11,2.9623216E11,1.5709608E11,4.199872E11,1.6058837E11,5.051043E10,1.0051387E11,2.5356534E10,1.207645E11,3.2543867E10,1.2558061E11,2.8809101E10,1.2726829E10,6.3654134E9,2.9832511E10,3.2641516E10,4.2831184E10,6.1063823E9,1.8711052E10,2.8798878E10,1.1456374E11,1.2160598E10,2.9671555E10,4.0057995E10,9.056027E10,1.637675E9,5.343609E9,3.485624E10,0E0,7.622099E9,1.2084716E9,8.894218E9,6.387794E9,6.642991E9,1.4659158E10,1.4904459E10,2.5326387E10,1.8274386E9,2.1248983E9,3.4895299E9,8.814068E9,3.330972E10,9.457189E9,2.6405503E10,5.1329106E10,6.9723034E8,1.1822957E10,3.6888117E10,1.0215428E10,3.0117396E9,6.8783145E9,5.149242E10,3.3660862E10,0E0,0E0,0E0,0E0,0E0,0E0,0E0,0E0,0E0,0E0,0E0,0E0,0E0,0E0,0E0,0E0,0E0,0E0,0E0,0E0,0E0,0E0,0E0,0E0,0E0,0E0,0E0,0E0,0E0,0E0,0E0,0E0,0E0,0E0,0E0,0E0,0E0,0E0,0E0,0E0,0E0,0E0,0E0,0E0,0E0,0E0,0E0,0E0,0E0,0E0,0E0,0E0,0E0,0E0],"parents":[2147483647,0,0,1,1,2,2,3,3,4,4,5,5,6,6,7,7,8,8,9,9,10,10,11,11,12,12,13,13,14,14,15,15,16,16,17,17,18,18,19,19,20,20,21,21,22,22,23,23,24,24,25,25,26,26,27,27,28,28,29,29,31,31,32,32,33,33,34,34,35,35,36,36,37,37,38,38,39,39,40,40,41,41,42,42,43,43,44,44,45,45,46,46,47,47,48,48,49,49,50,50,51,51,52,52,53,53,54,54],"right_children":[2,4,6,8,10,12,14,16,18,20,22,24,26,28,30,32,34,36,38,40,42,44,46,48,50,52,54,56,58,60,-1,62,64,66,68,70,72,74,76,78,80,82,84,86,88,90,92,94,96,98,100,102,104,106,108,-1,-1,-1,-1,-1,-1,-1,-1,-1,-1,-1,-1,-1,-1,-1,-1,-1,-1,-1,-1,-1,-1,-1,-1,-1,-1,-1,-1,-1,-1,-1,-1,-1,-1,-1,-1,-1,-1,-1,-1,-1,-1,-1,-1,-1,-1,-1,-1,-1,-1,-1,-1,-1,-1],"split_conditions":[1.585E2,1.5E0,3.435E2,5.75E1,1.5984412E3,1.5984412E3,1.5984412E3,3.85E1,1.5984412E3,9.347949E2,1.045E2,1.0796882E3,1.5E0,1.0172017E3,6.65E2,-5.8533127E1,1.7988953E3,9.45E1,8.95E1,1.09E2,8.9E1,5E-1,5E-1,-5.858844E1,5E-1,2.75E2,2.62E2,8.727948E2,2.5E0,6.02E2,1.9596457E4,-5.8561615E1,-5.8522675E1,1.1706995E3,-5.8537174E1,-5.8573864E1,-5.8576805E1,5E-1,-5.856637E1,-5.8578133E1,1.57E2,-5.8576805E1,5E-1,7.55E1,-5.8548134E1,1.345E2,-3.457296E1,3.5E0,5E-1,-3.4534195E1,-3.4528687E1,-3.4567795E1,1.9266929E3,-5.8532368E1,-3.4537918E1,4.9265713E3,2.103576E3,3.7212134E3,9.228703E3,1.2790367E4,1.7285068E3,1.2758989E3,1.7501176E3,1.1142352E3,4.8150763E2,1.4692802E3,2.0017389E3,2.5498853E3,2.1585862E3,1.8685879E3,2.355656E3,2.1472185E3,3.12499E3,3.2206394E3,2.5840342E3,2.1567976E3,4.0703013E3,1.4609226E3,2.3249062E3,3.011496E3,8.5729553E2,4.208478E2,2.730531E3,3.8795142E3,3.0384304E3,3.5995486E3,4.75243E3,3.533847E3,2.1813167E3,4.2304263E3,5.614632E3,5.3812837E3,8.744915E3,1.8659003E3,4.8193442E2,3.9811619E3,7.9445415E3,5.564281E3,3.697559E3,2.3898406E3,6.8185054E3,5.146566E3,3.611361E3,4.1976846E3,9.527424E3,7.447816E3,4.3895996E3,1.0319772E4,5.562177E2],"split_indices":[0,3,0,0,2,2,2,0,2,2,0,2,3,2,0,5,2,0,0,0,0,8,7,5,8,0,0,2,1,0,0,5,5,2,5,5,5,8,5,5,0,5,8,0,5,0,4,1,7,4,4,4,2,5,4,0,0,0,0,0,0,0,0,0,0,0,0,0,0,0,0,0,0,0,0,0,0,0,0,0,0,0,0,0,0,0,0,0,0,0,0,0,0,0,0,0,0,0,0,0,0,0,0,0,0,0,0,0,0],"split_type":[0,0,0,0,0,0,0,0,0,0,0,0,0,0,0,0,0,0,0,0,0,0,0,0,0,0,0,0,0,0,0,0,0,0,0,0,0,0,0,0,0,0,0,0,0,0,0,0,0,0,0,0,0,0,0,0,0,0,0,0,0,0,0,0,0,0,0,0,0,0,0,0,0,0,0,0,0,0,0,0,0,0,0,0,0,0,0,0,0,0,0,0,0,0,0,0,0,0,0,0,0,0,0,0,0,0,0,0,0],"sum_hessian":[5.132E3,4.364E3,7.68E2,3.383E3,9.81E2,7E2,6.8E1,1.771E3,1.612E3,3.8E2,6.01E2,3.64E2,3.36E2,2.4E1,4.4E1,4.89E2,1.282E3,7.66E2,8.46E2,6.9E1,3.11E2,3.56E2,2.45E2,1.22E2,2.42E2,5.2E1,2.84E2,6E0,1.8E1,4.1E1,3E0,4.43E2,4.6E1,6.87E2,5.95E2,4.81E2,2.85E2,6.11E2,2.35E2,3.9E1,3E1,7.3E1,2.38E2,2.91E2,6.5E1,1.85E2,6E1,6E0,1.16E2,2.24E2,1.8E1,4.4E1,8E0,2.46E2,3.8E1,3E0,3E0,2E0,1.6E1,4E1,1E0,1.34E2,3.09E2,3.4E1,1.2E1,1.04E2,5.83E2,3.9E2,2.05E2,1.13E2,3.68E2,5.6E1,2.29E2,4.67E2,1.44E2,2.2E1,2.13E2,2.4E1,1.5E1,2.8E1,2E0,2E0,7.1E1,1.76E2,6.2E1,1.48E2,1.43E2,3.4E1,3.1E1,1.15E2,7E1,2.6E1,3.4E1,4E0,2E0,1.14E2,2E0,1.85E2,3.9E1,1.7E1,1E0,1.1E1,3.3E1,3E0,5E0,2.27E2,1.9E1,3.7E1,1E0],"tree_param":{"num_deleted":"0","num_feature":"9","num_nodes":"109","size_leaf_vector":"0"}},{"base_weights":[6.4412055E4,5.3417055E4,1.2606086E5,4.325599E4,7.004266E4,1.1501337E5,2.215388E5,3.6295676E4,5.010425E4,6.182551E4,9.4805734E4,1.0119941E5,1.5059175E5,6.683188E4,2.3116539E5,3.1628824E4,4.1152508E4,4.0121473E4,5.5077895E4,5.0390926E4,6.719189E4,7.888906E4,1.0450401E5,9.003437E4,1.2192938E5,1.2352819E5,1.691496E5,8.26764E4,2.6233787E4,2.2090014E5,3.7645825E5,2.5379486E4,3.4205984E4,4.0786223E4,1.1518337E5,3.1545088E4,4.29332E4,5.6734613E4,4.019927E4,5.47212E4,3.7579098E4,5.242714E4,7.1646875E4,7.398727E4,9.660407E4,1.25231234E5,9.5531414E4,7.266353E4,9.727748E4,7.380586E4,1.29566516E5,1.6497548E5,1.1144404E5,1.7348733E5,9.29634E4,2.231657E5,3.3609855E4,1.2213895E4,2.6910514E4,2.591838E4,3.6348918E4,3.3131066E4,4.430776E4,1.5552517E4,3.3104977E4,4.6744848E4,3.633944E4,2.0843955E4,5.7431758E4,4.9156766E4,2.5888549E4,5.043644E4,6.4837977E4,3.5448688E4,5.178578E4,5.613467E4,3.64873E4,6.8820734E4,9.949355E4,7.4931914E4,-2.544066E4,9.925746E4,4.0763277E4,1.0984301E5,1.6021689E5,9.901184E4,5.7048117E4,7.5232664E4,3.4315414E4,1.084397E5,8.052576E4,8.167152E4,1.1073827E4,6.0028152E4,1.3367038E5,1.8045581E5,7.402573E4,1.1421283E5,4.22243E4,1.4974939E5,1.8974395E5,1.0115302E5,2.070777E4,1.0378486E5,2.2722345E5],"categories":[],"categories_nodes":[],"categories_segments":[],"categories_sizes":[],"default_left":[1,1,1,1,1,1,1,1,1,1,1,1,1,1,1,1,1,1,1,1,1,1,1,1,1,1,1,0,0,1,0,1,1,1,0,1,1,1,1,1,1,1,1,1,1,1,1,1,1,1,1,1,1,1,1,1,0,0,0,0,0,0,0,0,0,0,0,0,0,0,0,0,0,0,0,0,0,0,0,0,0,0,0,0,0,0,0,0,0,0,0,0,0,0,0,0,0,0,0,0,0,0,0,0,0],"id":13,"left_children":[1,3,5,7,9,11,13,15,17,19,21,23,25,27,29,31,33,35,37,39,41,43,45,47,49,51,53,-1,-1,55,-1,57,59,61,-1,63,65,67,69,71,73,75,77,79,81,83,85,87,89,91,93,95,97,99,101,103,-1,-1,-1,-1,-1,-1,-1,-1,-1,-1,-1,-1,-1,-1,-1,-1,-1,-1,-1,-1,-1,-1,-1,-1,-1,-1,-1,-1,-1,-1,-1,-1,-1,-1,-1,-1,-1,-1,-1,-1,-1,-1,-1,-1,-1,-1,-1,-1,-1],"loss_changes":[3.480551E12,7.3510735E11,8.000341E11,1.27805686E11,3.3203316E11,3.312525E11,1.0648656E11,2.9508108E10,6.599554E10,7.367505E10,5.6817615E10,1.0828592E11,8.061898E10,1.9957596E9,4.503424E10,1.0431234E10,1.4078706E10,9.932046E9,2.0576993E10,2.0590756E10,5.256328E10,8.0714793E9,3.7444125E10,3.6091986E10,5.659322E10,2.6261586E10,2.4375198E10,0E0,0E0,2.44659E10,0E0,3.8651904E9,7.8917796E9,1.6504586E10,0E0,2.476925E9,7.23157E9,1.9454493E10,1.1005968E10,1.0292888E10,1.6730358E9,1.0110042E10,4.5424312E10,1.3528531E10,1.4748549E9,2.5652494E10,1.9563282E10,7.8656307E9,3.6357538E10,1.2006932E10,3.6330013E10,1.2966593E10,8.752857E9,1.8096849E10,2.9399E9,1.5430582E10,0E0,0E0,0E0,0E0,0E0,0E0,0E0,0E0,0E0,0E0,0E0,0E0,0E0,0E0,0E0,0E0,0E0,0E0,0E0,0E0,0E0,0E0,0E0,0E0,0E0,0E0,0E0,0E0,0E0,0E0,0E0,0E0,0E0,0E0,0E0,0E0,0E0,0E0,0E0,0E0,0E0,0E0,0E0,0E0,0E0,0E0,0E0,0E0,0E0],"parents":[2147483647,0,0,1,1,2,2,3,3,4,4,5,5,6,6,7,7,8,8,9,9,10,10,11,11,12,12,13,13,14,14,15,15,16,16,17,17,18,18,19,19,20,20,21,21,22,22,23,23,24,24,25,25,26,26,29,29,31,31,32,32,33,33,35,35,36,36,37,37,38,38,39,39,40,40,41,41,42,42,43,43,44,44,45,45,46,46,47,47,48,48,49,49,50,50,51,51,52,52,53,53,54,54,55,55],"right_children":[2,4,6,8,10,12,14,16,18,20,22,24,26,28,30,32,34,36,38,40,42,44,46,48,50,52,54,-1,-1,56,-1,58,60,62,-1,64,66,68,70,72,74,76,78,80,82,84,86,88,90,92,94,96,98,100,102,104,-1,-1,-1,-1,-1,-1,-1,-1,-1,-1,-1,-1,-1,-1,-1,-1,-1,-1,-1,-1,-1,-1,-1,-1,-1,-1,-1,-1,-1,-1,-1,-1,-1,-1,-1,-1,-1,-1,-1,-1,-1,-1,-1,-1,-1,-1,-1,-1,-1],"split_conditions":[1.585E2,7.45E1,3.435E2,4.85E1,1.6923232E3,1.6923232E3,1.0172017E3,1.6923232E3,1.5984412E3,1.1706995E3,1.5E0,2.245E2,2.065E2,3.5E0,6.65E2,3.55E1,2.5E0,1.0796882E3,-5.853447E1,5E-1,8.55E1,1.135E2,-5.8551403E1,-5.856982E1,2.5E0,-5.8550274E1,5E-1,4.13382E3,1.3116893E3,6.02E2,1.8822912E4,1.0796882E3,5E-1,3.85E1,5.7591685E3,5.1E1,5E-1,-5.8565857E1,-3.4572807E1,1.0796882E3,-5.8561928E1,-5.853605E1,5E-1,1.115E2,-5.8537743E1,1.125E2,-5.8534626E1,-5.8570625E1,-5.8552338E1,-3.4528664E1,5E-1,-3.4545906E1,5E-1,2.5E0,2.66E2,1.5E0,1.6804928E3,6.1069476E2,1.3455258E3,1.2959191E3,1.8174459E3,1.6565533E3,2.2153882E3,7.7762585E2,1.6552489E3,2.3372424E3,1.816972E3,1.0421978E3,2.871588E3,2.4578384E3,1.2944275E3,2.521822E3,3.241899E3,1.7724344E3,2.589289E3,2.8067336E3,1.8243651E3,3.4410369E3,4.9746772E3,3.7465957E3,-1.2720331E3,4.962873E3,2.038164E3,5.4921504E3,8.0108447E3,4.9505923E3,2.852406E3,3.7616333E3,1.7157708E3,5.4219854E3,4.0262878E3,4.0835762E3,5.5369135E2,3.0014077E3,6.683519E3,9.022791E3,3.7012864E3,5.7106416E3,2.111215E3,7.4874697E3,9.487198E3,5.0576514E3,1.0353885E3,5.189243E3,1.1361173E4],"split_indices":[0,0,0,0,2,2,2,2,2,2,3,0,0,1,0,0,1,2,5,8,0,0,5,5,1,5,8,0,0,0,0,2,7,0,0,0,8,5,4,2,5,5,7,0,5,0,5,5,5,4,6,4,8,3,0,1,0,0,0,0,0,0,0,0,0,0,0,0,0,0,0,0,0,0,0,0,0,0,0,0,0,0,0,0,0,0,0,0,0,0,0,0,0,0,0,0,0,0,0,0,0,0,0,0,0],"split_type":[0,0,0,0,0,0,0,0,0,0,0,0,0,0,0,0,0,0,0,0,0,0,0,0,0,0,0,0,0,0,0,0,0,0,0,0,0,0,0,0,0,0,0,0,0,0,0,0,0,0,0,0,0,0,0,0,0,0,0,0,0,0,0,0,0,0,0,0,0,0,0,0,0,0,0,0,0,0,0,0,0,0,0,0,0,0,0,0,0,0,0,0,0,0,0,0,0,0,0,0,0,0,0,0,0],"sum_hessian":[5.142E3,4.365E3,7.77E2,2.711E3,1.654E3,6.98E2,7.9E1,1.347E3,1.364E3,1.244E3,4.1E2,5.05E2,1.93E2,5E0,7.4E1,6.9E2,6.57E2,4.56E2,9.08E2,4E2,8.44E2,1.58E2,2.52E2,3.31E2,1.74E2,8.1E1,1.12E2,3E0,2E0,7.1E1,3E0,2.04E2,4.86E2,6.55E2,2E0,1.15E2,3.41E2,8.15E2,9.3E1,2.97E2,1.03E2,1.98E2,6.46E2,1.27E2,3.1E1,7.3E1,1.79E2,1E2,2.31E2,2.5E1,1.49E2,1.6E1,6.5E1,1.05E2,7E0,7E1,1E0,2.2E1,1.82E2,1.02E2,3.84E2,2.09E2,4.46E2,1.1E1,1.04E2,2.13E2,1.28E2,1.6E1,7.99E2,5.6E1,3.7E1,2.12E2,8.5E1,9.2E1,1.1E1,1.59E2,3.9E1,5.89E2,5.7E1,1.26E2,1E0,2.9E1,2E0,5.3E1,2E1,1.63E2,1.6E1,9.3E1,7E0,1.36E2,9.5E1,2.2E1,3E0,9E0,1.4E2,1.3E1,3E0,6.2E1,3E0,4.6E1,5.9E1,6E0,1E0,3E0,6.7E1],"tree_param":{"num_deleted":"0","num_feature":"9","num_nodes":"105","size_leaf_vector":"0"}},{"base_weights":[6.0580574E4,5.0342895E4,1.1859233E5,4.384389E4,7.293318E4,1.07871555E5,2.1141845E5,3.6031832E4,5.248865E4,5.343296E4,8.011711E4,8.628739E4,1.2976792E5,1.9936323E5,3.6655397E5,2.7492504E4,3.8612035E4,4.553805E4,5.8840426E4,4.9107395E4,6.952894E4,7.602072E4,1.1733406E5,6.514338E4,9.595306E4,1.1712754E5,1.6640566E5,1.5312262E5,2.2243697E5,2.040073E4,2.9476354E4,3.437612E4,4.3040996E4,4.944583E4,3.827983E4,6.264082E4,4.768612E4,3.3722766E4,5.207066E4,7.615346E4,2.7977725E4,8.991963E4,6.475808E4,4.6093848E4,1.2345579E5,7.3990164E4,5.3411855E4,9.9626336E4,4.201336E4,1.0163998E5,1.3248784E5,1.501374E5,2.0940228E5,7.9465555E4,1.6283086E5,2.2585997E5,3.267625E4,1.6229254E4,2.333841E4,3.0859195E4,1.6717682E4,3.6393746E4,2.791423E4,4.0827875E4,4.863589E4,3.2104441E4,5.1211816E4,3.0723473E4,4.0718734E4,5.698922E4,7.170357E4,2.4526473E4,4.9539902E4,8.618343E3,3.5746984E4,3.83177E4,5.609842E4,3.597919E4,8.02704E4,-5.7606726E2,3.644367E4,7.393939E4,1.0415122E5,6.8855055E4,3.528803E4,6.2472168E4,4.847056E3,1.26424E5,2.2669988E4,2.6912717E4,7.8584086E4,7.937396E4,4.003496E4,6.794911E4,1.0574654E5,1.1958291E4,5.3937824E4,7.826189E4,1.1893034E5,1.5725097E5,1.10774586E5,1.5344006E5,3.1987701E4,1.02851695E5,2.2202836E5,1.1078824E5,1.8357203E5],"categories":[],"categories_nodes":[],"categories_segments":[],"categories_sizes":[],"default_left":[1,1,1,1,1,1,1,1,1,1,1,1,1,1,0,1,1,1,1,1,1,1,1,1,1,1,1,1,1,1,1,1,1,1,1,1,1,1,1,1,1,1,1,1,1,1,1,1,1,1,1,1,1,0,1,0,0,0,0,0,0,0,0,0,0,0,0,0,0,0,0,0,0,0,0,0,0,0,0,0,0,0,0,0,0,0,0,0,0,0,0,0,0,0,0,0,0,0,0,0,0,0,0,0,0,0,0],"id":14,"left_children":[1,3,5,7,9,11,13,15,17,19,21,23,25,27,-1,29,31,33,35,37,39,41,43,45,47,49,51,53,55,57,59,61,63,65,67,69,71,73,75,77,79,81,83,85,87,89,91,93,95,97,99,101,103,-1,105,-1,-1,-1,-1,-1,-1,-1,-1,-1,-1,-1,-1,-1,-1,-1,-1,-1,-1,-1,-1,-1,-1,-1,-1,-1,-1,-1,-1,-1,-1,-1,-1,-1,-1,-1,-1,-1,-1,-1,-1,-1,-1,-1,-1,-1,-1,-1,-1,-1,-1,-1,-1],"loss_changes":[3.0810372E12,6.4603816E11,7.5679295E11,2.3031552E11,1.3467438E11,3.217781E11,9.077942E10,3.8938345E10,6.9721915E10,1.591391E10,1.0244902E11,6.7510206E10,1.445525E11,5.3626274E10,0E0,5.4532506E9,2.479607E10,2.0632044E10,3.354919E10,8.34211E9,1.3379584E10,9.706039E10,2.5888227E10,8.64931E9,4.4560548E10,5.1031835E10,3.5563504E10,9.527624E9,2.5794183E10,8.5871E8,5.3707407E9,8.4675133E9,6.7545334E9,1.4144111E10,4.1004237E9,2.898867E10,8.4217037E9,1.623593E9,8.1293476E9,5.430018E9,2.144062E9,5.951927E10,4.1739223E10,4.3515167E9,1.6793141E10,1.1889803E10,1.5447556E10,3.802792E10,5.5049605E9,4.623368E10,5.478102E10,2.174904E10,1.1059134E10,0E0,9.42021E9,0E0,0E0,0E0,0E0,0E0,0E0,0E0,0E0,0E0,0E0,0E0,0E0,0E0,0E0,0E0,0E0,0E0,0E0,0E0,0E0,0E0,0E0,0E0,0E0,0E0,0E0,0E0,0E0,0E0,0E0,0E0,0E0,0E0,0E0,0E0,0E0,0E0,0E0,0E0,0E0,0E0,0E0,0E0,0E0,0E0,0E0,0E0,0E0,0E0,0E0,0E0,0E0],"parents":[2147483647,0,0,1,1,2,2,3,3,4,4,5,5,6,6,7,7,8,8,9,9,10,10,11,11,12,12,13,13,15,15,16,16,17,17,18,18,19,19,20,20,21,21,22,22,23,23,24,24,25,25,26,26,27,27,28,28,29,29,30,30,31,31,32,32,33,33,34,34,35,35,36,36,37,37,38,38,39,39,40,40,41,41,42,42,43,43,44,44,45,45,46,46,47,47,48,48,49,49,50,50,51,51,52,52,54,54],"right_children":[2,4,6,8,10,12,14,16,18,20,22,24,26,28,-1,30,32,34,36,38,40,42,44,46,48,50,52,54,56,58,60,62,64,66,68,70,72,74,76,78,80,82,84,86,88,90,92,94,96,98,100,102,104,-1,106,-1,-1,-1,-1,-1,-1,-1,-1,-1,-1,-1,-1,-1,-1,-1,-1,-1,-1,-1,-1,-1,-1,-1,-1,-1,-1,-1,-1,-1,-1,-1,-1,-1,-1,-1,-1,-1,-1,-1,-1,-1,-1,-1,-1,-1,-1,-1,-1,-1,-1,-1,-1],"split_conditions":[1.585E2,1.5E0,3.435E2,5.75E1,-5.8562843E1,1.5984412E3,6.65E2,3.75E1,1.5984412E3,1.46E2,2.5E0,1.0796882E3,2.49E2,1.5984412E3,1.83277E4,1.4177954E3,1.6923232E3,5E-1,5E-1,-5.857911E1,-3.452893E1,-5.8547672E1,2.5E0,-5.8574333E1,5E-1,1.6923232E3,3.5E0,1.0796882E3,6.02E2,3.25E1,-5.8531597E1,5E-1,-3.455123E1,6.05E1,-5.8572678E1,7.55E1,-5.8565613E1,6.75E1,-3.455851E1,5E-1,-5.858143E1,9.1E1,-3.4552856E1,-3.45486E1,-3.453276E1,-5.8588326E1,-3.457601E1,2.5E0,1.5E0,-3.4550766E1,-5.8546505E1,5.5E0,-5.8562996E1,3.9732778E3,-3.4562305E1,1.1292999E4,1.6338125E3,8.114627E2,1.1669205E3,1.5429598E3,8.358841E2,1.8196874E3,1.3957115E3,2.0413938E3,2.4317947E3,1.605222E3,2.5605908E3,1.5361737E3,2.0359368E3,2.849461E3,3.5851785E3,1.2263236E3,2.476995E3,4.3091714E2,1.7873492E3,1.915885E3,2.8049211E3,1.7989596E3,4.01352E3,-2.8803364E1,1.8221836E3,3.6969695E3,5.207561E3,3.4427527E3,1.7644016E3,3.1236084E3,2.4235281E2,6.3212E3,1.1334994E3,1.3456359E3,3.9292043E3,3.968698E3,2.001748E3,3.3974556E3,5.287327E3,5.9791455E2,2.6968914E3,3.9130945E3,5.946517E3,7.8625483E3,5.5387295E3,7.6720034E3,1.5993851E3,5.142585E3,1.1101418E4,5.539412E3,9.178602E3],"split_indices":[0,3,0,0,5,2,0,0,2,0,3,2,0,2,0,2,2,8,8,5,4,5,1,5,8,2,3,2,0,0,5,8,4,0,5,0,5,0,4,6,5,0,4,4,4,5,4,1,3,4,5,1,5,0,4,0,0,0,0,0,0,0,0,0,0,0,0,0,0,0,0,0,0,0,0,0,0,0,0,0,0,0,0,0,0,0,0,0,0,0,0,0,0,0,0,0,0,0,0,0,0,0,0,0,0,0,0],"split_type":[0,0,0,0,0,0,0,0,0,0,0,0,0,0,0,0,0,0,0,0,0,0,0,0,0,0,0,0,0,0,0,0,0,0,0,0,0,0,0,0,0,0,0,0,0,0,0,0,0,0,0,0,0,0,0,0,0,0,0,0,0,0,0,0,0,0,0,0,0,0,0,0,0,0,0,0,0,0,0,0,0,0,0,0,0,0,0,0,0,0,0,0,0,0,0,0,0,0,0,0,0,0,0,0,0,0,0],"sum_hessian":[5.195E3,4.417E3,7.78E2,3.432E3,9.85E2,6.99E2,7.9E1,1.805E3,1.627E3,2.67E2,7.18E2,3.54E2,3.45E2,7.5E1,4E0,4.21E2,1.384E3,7.8E2,8.47E2,2.13E2,5.4E1,6.49E2,6.9E1,1.13E2,2.41E2,2.59E2,8.6E1,2.7E1,4.8E1,9.4E1,3.27E2,7.11E2,6.73E2,5.04E2,2.76E2,6.29E2,2.18E2,3.6E1,1.77E2,4.6E1,8E0,2.88E2,3.61E2,6E0,6.3E1,6.2E1,5.1E1,2.25E2,1.6E1,1.32E2,1.27E2,6.5E1,2.1E1,4E0,2.3E1,4.7E1,1E0,4.1E1,5.3E1,2.94E2,3.3E1,5.39E2,1.72E2,4.87E2,1.86E2,4.8E1,4.56E2,7E1,2.06E2,3.91E2,2.38E2,1.7E1,2.01E2,3E0,3.3E1,4.2E1,1.35E2,5E0,4.1E1,2E0,6E0,1.38E2,1.5E2,3.16E2,4.5E1,4E0,2E0,6.1E1,2E0,6E0,5.6E1,1.6E1,3.5E1,3.8E1,1.87E2,5E0,1.1E1,5.8E1,7.4E1,5.7E1,7E1,6.3E1,2E0,3E0,1.8E1,8E0,1.5E1],"tree_param":{"num_deleted":"0","num_feature":"9","num_nodes":"107","size_leaf_vector":"0"}},{"base_weights":[5.7218855E4,4.9811785E4,1.2618381E5,4.079052E4,6.8872445E4,1.10796984E5,1.9259847E5,3.3665793E4,4.8267883E4,6.1078668E4,9.414898E4,8.691742E4,1.3423731E5,1.7191161E5,3.0953072E5,2.606242E4,3.6293918E4,5.30656E4,3.767586E4,4.9286562E4,6.6916234E4,8.192366E4,1.1359438E5,7.093791E4,1.0661264E5,1.24224125E5,1.8660338E5,8.7828625E4,1.8433386E5,1.8334984E4,2.837486E4,2.8708088E4,3.8825703E4,4.5438336E4,5.8118414E4,3.2874035E4,4.202663E4,4.3345758E4,5.6919215E4,7.221369E4,4.9653703E4,8.852657E4,5.908306E4,1.6334733E5,9.828783E4,7.585726E4,4.864201E4,1.1701457E5,6.2902707E4,8.579671E4,1.2999963E5,1.9094633E5,3.1768576E4,1.00469E5,1.84934E4,1.8886356E5,2.3600994E4,1.2568211E4,2.0860666E4,2.9687455E4,1.624559E4,1.7473332E4,3.008741E4,4.059826E4,2.8567617E4,3.5707145E4,4.8112023E4,5.1005613E4,7.138153E4,2.8946027E4,3.549964E4,4.8152203E4,3.239877E4,3.2944836E4,4.6569918E4,5.4013902E4,8.515693E4,6.1903492E4,7.87816E4,5.820904E4,3.7301168E4,8.063294E4,1.1039988E5,7.334933E4,5.206112E4,1.7004475E5,8.172396E4,1.0121888E5,5.22077E4,7.970869E4,2.6205031E4,-1.7610764E3,5.1018707E4,8.114577E4,1.3291552E5,2.0050318E4,7.726659E4,7.624052E4,1.7401881E5,1.12703766E5,1.4481531E5,3.5199348E3,1.11165945E5,2.5277777E4,3.489735E3,1.3423219E5,2.0681395E5,-9.638672E3,4.635133E4],"categories":[],"categories_nodes":[],"categories_segments":[],"categories_sizes":[],"default_left":[1,1,1,1,1,1,1,1,1,1,1,1,1,1,0,1,1,1,1,1,1,1,1,1,1,1,1,1,1,1,1,1,1,1,1,1,1,1,1,1,1,1,1,1,1,1,1,1,1,1,1,0,0,1,1,1,1,0,0,0,0,0,0,0,0,0,0,0,0,0,0,0,0,0,0,0,0,0,0,0,0,0,0,0,0,0,0,0,0,0,0,0,0,0,0,0,0,0,0,0,0,0,0,0,0,0,0,0,0],"id":15,"left_children":[1,3,5,7,9,11,13,15,17,19,21,23,25,27,-1,29,31,33,35,37,39,41,43,45,47,49,51,53,55,57,59,61,63,65,67,69,71,73,75,77,79,81,83,85,87,89,91,93,95,97,99,-1,-1,101,103,105,107,-1,-1,-1,-1,-1,-1,-1,-1,-1,-1,-1,-1,-1,-1,-1,-1,-1,-1,-1,-1,-1,-1,-1,-1,-1,-1,-1,-1,-1,-1,-1,-1,-1,-1,-1,-1,-1,-1,-1,-1,-1,-1,-1,-1,-1,-1,-1,-1,-1,-1,-1,-1],"loss_changes":[2.59856E12,7.8938164E11,4.8754852E11,1.6527812E11,2.86526E11,2.1613091E11,1.7949105E11,3.1291474E10,7.583616E10,7.52715E10,7.499861E10,5.746026E10,8.726931E10,7.0399295E10,0E0,6.995968E9,2.1959279E10,3.8230295E10,8.87672E9,1.5157232E10,6.615597E10,2.836149E10,8.752765E10,9.529852E9,3.4486026E10,2.920625E10,1.5858336E10,8.855388E9,4.652558E10,1.2147139E9,4.6738145E9,4.2407035E9,1.5251276E10,9.574089E9,5.6218354E10,1.5582822E9,1.3366264E10,6.009291E9,9.676292E9,3.5089547E10,1.7264247E10,2.1505507E10,2.0340736E9,5.173281E9,9.656992E9,1.5884124E10,2.803155E9,3.1752192E10,1.0332529E10,1.0294215E10,2.4816648E10,0E0,0E0,9.850135E9,2.1444326E8,4.329885E10,2.4748099E9,0E0,0E0,0E0,0E0,0E0,0E0,0E0,0E0,0E0,0E0,0E0,0E0,0E0,0E0,0E0,0E0,0E0,0E0,0E0,0E0,0E0,0E0,0E0,0E0,0E0,0E0,0E0,0E0,0E0,0E0,0E0,0E0,0E0,0E0,0E0,0E0,0E0,0E0,0E0,0E0,0E0,0E0,0E0,0E0,0E0,0E0,0E0,0E0,0E0,0E0,0E0,0E0],"parents":[2147483647,0,0,1,1,2,2,3,3,4,4,5,5,6,6,7,7,8,8,9,9,10,10,11,11,12,12,13,13,15,15,16,16,17,17,18,18,19,19,20,20,21,21,22,22,23,23,24,24,25,25,26,26,27,27,28,28,29,29,30,30,31,31,32,32,33,33,34,34,35,35,36,36,37,37,38,38,39,39,40,40,41,41,42,42,43,43,44,44,45,45,46,46,47,47,48,48,49,49,50,50,53,53,54,54,55,55,56,56],"right_children":[2,4,6,8,10,12,14,16,18,20,22,24,26,28,-1,30,32,34,36,38,40,42,44,46,48,50,52,54,56,58,60,62,64,66,68,70,72,74,76,78,80,82,84,86,88,90,92,94,96,98,100,-1,-1,102,104,106,108,-1,-1,-1,-1,-1,-1,-1,-1,-1,-1,-1,-1,-1,-1,-1,-1,-1,-1,-1,-1,-1,-1,-1,-1,-1,-1,-1,-1,-1,-1,-1,-1,-1,-1,-1,-1,-1,-1,-1,-1,-1,-1,-1,-1,-1,-1,-1,-1,-1,-1,-1,-1],"split_conditions":[1.915E2,8.95E1,3.5E0,1.5E0,1.6923232E3,1.5984412E3,4.215E2,3.75E1,5E-1,1.1706995E3,1.285E2,-5.8561424E1,3.07E2,1.0796882E3,1.5476536E4,3.05E1,1.5984412E3,1.6535947E3,1.516798E3,1.225E2,5E-1,5E-1,-5.8550465E1,4.5E0,-3.455626E1,1.5E0,5.975E2,-5.856185E1,4.14E2,2.75E1,-5.8532974E1,9.9152234E2,-5.853587E1,5.75E1,-3.455553E1,-3.4567616E1,-5.8544754E1,5E-1,4.5E0,2.5E0,-5.8544044E1,-3.454998E1,2.0087573E3,-3.4544106E1,1.875E2,-5.856298E1,5E-1,2.29E2,-3.4553604E1,2.94E2,1.6923232E3,9.547316E3,1.5884288E3,-5.8590393E1,2.54E2,2.425E2,4.175E2,6.284106E2,1.0430333E3,1.4843728E3,8.122795E2,8.736666E2,1.5043705E3,2.0299131E3,1.4283809E3,1.7853573E3,2.4056013E3,2.5502808E3,3.5690767E3,1.4473014E3,1.774982E3,2.40761E3,1.6199385E3,1.6472418E3,2.3284958E3,2.700695E3,4.2578467E3,3.0951746E3,3.93908E3,2.910452E3,1.8650585E3,4.031647E3,5.519994E3,3.6674666E3,2.6030562E3,8.502237E3,4.086198E3,5.0609443E3,2.610385E3,3.9854343E3,1.3102516E3,-8.8053825E1,2.5509353E3,4.0572888E3,6.645776E3,1.0025159E3,3.8633298E3,3.8120261E3,8.70094E3,5.6351885E3,7.2407656E3,1.7599675E2,5.5582974E3,1.2638889E3,1.7448676E2,6.7116094E3,1.0340698E4,-4.819336E2,2.3175664E3],"split_indices":[0,0,3,1,2,2,0,0,8,2,0,5,0,2,0,0,2,2,2,0,8,8,5,1,4,3,0,5,0,0,5,2,5,0,4,4,5,6,1,1,5,4,2,4,0,5,6,0,4,0,2,0,0,5,0,0,0,0,0,0,0,0,0,0,0,0,0,0,0,0,0,0,0,0,0,0,0,0,0,0,0,0,0,0,0,0,0,0,0,0,0,0,0,0,0,0,0,0,0,0,0,0,0,0,0,0,0,0,0],"split_type":[0,0,0,0,0,0,0,0,0,0,0,0,0,0,0,0,0,0,0,0,0,0,0,0,0,0,0,0,0,0,0,0,0,0,0,0,0,0,0,0,0,0,0,0,0,0,0,0,0,0,0,0,0,0,0,0,0,0,0,0,0,0,0,0,0,0,0,0,0,0,0,0,0,0,0,0,0,0,0,0,0,0,0,0,0,0,0,0,0,0,0,0,0,0,0,0,0,0,0,0,0,0,0,0,0,0,0,0,0],"sum_hessian":[5.096E3,4.603E3,4.93E2,3.126E3,1.477E3,4.02E2,9.1E1,1.603E3,1.523E3,1.131E3,3.46E2,2.01E2,2.01E2,7.9E1,1.2E1,4.14E2,1.189E3,1.046E3,4.77E2,3.77E2,7.54E2,2.15E2,1.31E2,1.13E2,8.8E1,1.71E2,3E1,1.1E1,6.8E1,9.7E1,3.17E2,3E2,8.89E2,4.2E2,6.26E2,2.3E2,2.47E2,2.15E2,1.62E2,5.75E2,1.79E2,1.65E2,5E1,2.9E1,1.02E2,9.1E1,2.2E1,7E1,1.8E1,2.4E1,1.47E2,2.9E1,1E0,9E0,2E0,6.6E1,2E0,3.1E1,6.6E1,2.85E2,3.2E1,3.4E1,2.66E2,7.56E2,1.33E2,9.3E1,3.27E2,4.1E2,2.16E2,9.6E1,1.34E2,1.49E2,9.8E1,5.3E1,1.62E2,1.49E2,1.3E1,2.27E2,3.48E2,1.04E2,7.5E1,1.24E2,4.1E1,1.4E1,3.6E1,2.6E1,3E0,9.5E1,7E0,8.4E1,7E0,1E0,2.1E1,2.3E1,4.7E1,5E0,1.3E1,2.3E1,1E0,7.1E1,7.6E1,1E0,8E0,1E0,1E0,1.8E1,4.8E1,1E0,1E0],"tree_param":{"num_deleted":"0","num_feature":"9","num_nodes":"109","size_leaf_vector":"0"}},{"base_weights":[5.4504613E4,4.53835E4,1.0718237E5,3.9583414E4,6.612309E4,9.788451E4,1.8606995E5,3.2091688E4,4.732403E4,4.84935E4,7.260433E4,8.475237E4,1.3360838E5,1.3182542E5,2.1554045E5,2.8214828E4,3.632114E4,4.2692914E4,5.8496426E4,4.1190242E4,6.187099E4,6.9122695E4,1.06817234E5,6.479648E4,9.422532E4,1.1002951E5,1.4986762E5,1.0060725E5,1.8732312E5,1.6354684E5,2.4085642E5,2.006578E4,2.9762166E4,3.35949E4,4.3482555E4,4.654318E4,3.5722473E4,5.3509406E4,6.942344E4,2.7148527E4,4.324229E4,4.837037E4,7.0598766E4,8.063067E4,5.994979E4,5.938545E4,1.1287464E5,5.5099523E4,7.647257E4,8.292662E4,1.1626975E5,1.5025119E5,9.65852E4,1.2966479E5,1.6511419E5,1.7220273E5,7.536058E4,9.485462E4,2.169587E5,3.1793951E4,1.8695339E5,2.5564416E5,1.1506805E5,1.3860764E4,2.2037773E4,3.2079488E4,2.290873E4,2.4890707E4,3.575762E4,2.8764268E4,4.4879395E4,3.7439363E4,4.9654504E4,1.7680703E4,3.705087E4,6.0631332E4,4.7693516E4,7.363534E4,5.662396E4,3.3944887E4,2.1180748E4,3.0946521E4,4.6188484E4,5.094335E4,1.6528865E3,1.9179346E4,7.338822E4,8.507779E4,5.0476777E4,6.3879844E4,3.5348004E4,7.609272E4,1.8433789E3,1.2810242E5,8.3056055E4,2.0460887E4,5.7331027E4,8.6195555E4,3.0611025E4,7.790854E4,1.1367152E5,9.4200164E4,1.370679E5,1.6568311E5,5.8516062E4,1.5225215E4,9.9189695E4,1.11602805E5,1.6900444E5,1.6855489E5,5.0599207E4,3.7612607E3,7.9701734E4,-9.370929E3,4.91731E4,7.6256484E4,2.6006142E5],"categories":[],"categories_nodes":[],"categories_segments":[],"categories_sizes":[],"default_left":[1,1,1,1,1,1,1,1,1,1,1,1,1,1,1,1,1,1,1,1,1,1,1,1,1,1,1,1,1,1,1,1,1,1,1,1,1,1,1,1,1,1,1,1,1,1,1,1,1,1,1,1,1,1,1,0,1,0,0,1,0,1,0,0,0,0,0,0,0,0,0,0,0,0,0,0,0,0,0,0,0,0,0,0,0,0,0,0,0,0,0,0,0,0,0,0,0,0,0,0,0,0,0,0,0,0,0,0,0,0,0,0,0,0,0,0,0],"id":16,"left_children":[1,3,5,7,9,11,13,15,17,19,21,23,25,27,29,31,33,35,37,39,41,43,45,47,49,51,53,55,57,59,61,63,65,67,69,71,73,75,77,79,81,83,85,87,89,91,93,95,97,99,101,103,105,107,109,-1,111,-1,-1,113,-1,115,-1,-1,-1,-1,-1,-1,-1,-1,-1,-1,-1,-1,-1,-1,-1,-1,-1,-1,-1,-1,-1,-1,-1,-1,-1,-1,-1,-1,-1,-1,-1,-1,-1,-1,-1,-1,-1,-1,-1,-1,-1,-1,-1,-1,-1,-1,-1,-1,-1,-1,-1,-1,-1,-1,-1],"loss_changes":[2.4584714E12,5.235561E11,5.397975E11,1.9692677E11,1.0616622E11,3.0891783E11,1.0323965E11,2.7691188E10,8.486414E10,2.324575E10,7.697439E10,8.922045E10,5.6122147E10,3.655277E10,3.4037301E10,1.1006837E10,1.5012659E10,3.0601773E10,2.3719051E10,3.953492E9,7.8492467E9,6.303803E10,1.2680823E10,1.5061811E10,7.592529E10,2.9920199E10,1.5153496E10,2.7215167E10,1.0391912E10,5.3221753E10,3.5618816E10,1.5641518E9,1.1542462E10,1.0654384E10,3.6094935E9,2.014747E10,9.704866E9,1.1761287E10,4.7940895E9,3.901276E8,4.1744302E9,4.4763136E9,6.447186E9,3.3950925E10,3.2594592E10,8.347851E9,1.6371286E10,6.1573693E9,2.9905584E10,2.759734E10,4.0987525E10,1.744244E10,1.1463557E10,1.9585761E10,1.5556805E10,0E0,4.982014E9,0E0,0E0,3.0871987E9,0E0,6.163661E9,0E0,0E0,0E0,0E0,0E0,0E0,0E0,0E0,0E0,0E0,0E0,0E0,0E0,0E0,0E0,0E0,0E0,0E0,0E0,0E0,0E0,0E0,0E0,0E0,0E0,0E0,0E0,0E0,0E0,0E0,0E0,0E0,0E0,0E0,0E0,0E0,0E0,0E0,0E0,0E0,0E0,0E0,0E0,0E0,0E0,0E0,0E0,0E0,0E0,0E0,0E0,0E0,0E0,0E0,0E0],"parents":[2147483647,0,0,1,1,2,2,3,3,4,4,5,5,6,6,7,7,8,8,9,9,10,10,11,11,12,12,13,13,14,14,15,15,16,16,17,17,18,18,19,19,20,20,21,21,22,22,23,23,24,24,25,25,26,26,27,27,28,28,29,29,30,30,31,31,32,32,33,33,34,34,35,35,36,36,37,37,38,38,39,39,40,40,41,41,42,42,43,43,44,44,45,45,46,46,47,47,48,48,49,49,50,50,51,51,52,52,53,53,54,54,56,56,59,59,61,61],"right_children":[2,4,6,8,10,12,14,16,18,20,22,24,26,28,30,32,34,36,38,40,42,44,46,48,50,52,54,56,58,60,62,64,66,68,70,72,74,76,78,80,82,84,86,88,90,92,94,96,98,100,102,104,106,108,110,-1,112,-1,-1,114,-1,116,-1,-1,-1,-1,-1,-1,-1,-1,-1,-1,-1,-1,-1,-1,-1,-1,-1,-1,-1,-1,-1,-1,-1,-1,-1,-1,-1,-1,